34 1024
34 -0.004328 0.011436 0.005389 -0.028515 -0.028317 -0.051737 -0.003122 -0.053846 -0.091001 -0.043091 -0.072161 0.015559 0.072952 -0.001662 -0.051045 0.061754 -0.023103 0.051396 -0.011602 -0.037746 0.005339 0.019605 0.035558 -0.034868 0.019105 -0.046655 0.003130 -0.009168 -0.033671 -0.005029 -0.013800 0.102684 0.069202 -0.009876 -0.046472 0.009924 0.122988 0.038562 -0.037063 -0.029306 -0.060045 0.038490 -0.025741 -0.036949 -0.058977 0.069086 0.100980 -0.006789 0.014884 -0.001301 0.019040 -0.135039 -0.052194 -0.026897 0.031252 -0.136163 0.026276 -0.012333 0.053965 0.001217 0.055386 0.112103 0.058031 -0.081583 0.043324 -0.019204 0.009991 -0.085005 0.200894 -0.002332 -0.028353 -0.081950 0.059363 -0.096475 0.004503 -0.003435 -0.097791 -0.039294 -0.028063 0.036926 -0.038975 -0.029038 0.046722 0.015529 0.002713 -0.075456 -0.044470 0.069761 0.059721 -0.038961 0.048231 -0.015532 -0.082705 0.132838 -0.051397 -0.105760 0.103820 0.056472 -0.044148 0.057603 0.055363 0.043383 -0.000624 0.058156 0.076326 0.056214 -0.081736 0.043338 0.017424 0.027354 -0.066437 0.057366 0.005766 -0.019848 0.125526 0.063876 0.029458 -0.048926 0.003796 0.019052 -0.039420 0.028637 -0.027648 0.030891 -0.075117 -0.072084 -0.036783 0.054700 -0.071186 -0.019824 -0.078510 -0.045552 0.030551 -0.062563 -0.052678 0.012522 -0.021301 0.100537 -0.053700 0.014378 -0.048484 0.002021 0.076816 -0.059903 0.084680 0.044947 -0.085489 -0.048850 -0.086248 -0.006312 0.017198 -0.124485 0.053624 0.055670 -0.047390 -0.040645 -0.052761 0.020837 0.016418 -0.053298 0.015786 0.044138 0.084727 -0.069201 0.023230 0.086729 0.125344 -0.034727 -0.014889 -0.058346 0.034467 -0.020606 0.005486 -0.074667 0.004571 -0.021110 0.047671 0.016028 -0.054131 0.055768 0.049329 0.035822 -0.070907 0.033055 0.044775 -0.005095 -0.065350 0.024438 -0.011298 -0.106797 -0.048673 -0.014410 -0.021254 -0.064188 -0.096621 0.035146 0.028572 -0.016560 0.063996 -0.043908 -0.019303 0.030049 -0.024681 -0.020063 -0.038573 0.006259 0.016061 0.054951 0.078890 0.017138 0.098207 -0.067673 0.005490 -0.075937 -0.032044 0.016442 0.032731 -0.041147 0.061228 0.013102 -0.012846 0.038590 -0.074172 0.000191 0.096560 -0.079891 -0.019875 -0.001886 0.023311 0.089925 -0.055025 0.032963 0.042345 0.042232 0.077009 -0.055869 0.038382 0.007970 -0.041756 0.066292 0.037322 0.016632 0.027268 0.015279 -0.087195 -0.039450 0.117396 -0.000791 0.033284 0.047239 0.054585 -0.127663 0.071433 0.002769 -0.074549 0.107320 0.064473 -0.002855 -0.055216 0.024391 -0.041188 -0.013900 -0.051774 -0.015836 -0.029845 -0.030975 0.040473 0.010516 0.023278 0.054714 -0.068260 0.017158 0.016991 -0.047671 -0.067523 -0.012354 0.059866 0.057617 -0.016164 0.020772 0.017641 -0.048380 -0.037347 0.062031 0.081277 -0.051452 0.004263 -0.084705 -0.105613 0.018792 0.007687 -0.038705 -0.020203 -0.062190 0.028534 -0.000456 -0.016284 0.004126 0.018623 0.006805 0.024330 -0.082336 -0.166843 -0.004877 0.025271 -0.036977 0.044575 -0.020558 -0.061372 0.013953 -0.053772 0.097356 0.063918 -0.008853 0.006601 -0.046553 0.075697 -0.064329 0.040470 0.023623 0.001144 -0.012891 0.022700 0.047364 -0.016614 -0.039609 0.038314 0.065731 -0.039942 0.010612 -0.022320 -0.063714 -0.026695 -0.038386 -0.020186 0.024947 -0.072926 -0.116575 0.046336 -0.091926 -0.053096 -0.006891 0.035923 -0.003263 -0.040939 0.018241 -0.002049 -0.019457 -0.045899 0.017405 0.073647 0.011251 0.073074 0.027586 0.048684 0.083604 0.032317 0.001023 0.039867 0.018450 -0.028945 0.143777 -0.017178 0.092987 -0.043730 0.041728 -0.043903 0.024926 0.044198 -0.083741 -0.060255 -0.030038 -0.002433 0.018412 0.067191 0.027765 -0.006609 0.025207 -0.007628 0.004239 -0.012871 -0.042077 -0.014944 0.132845 0.004643 -0.036626 0.078745 0.035038 0.048003 -0.027758 -0.064755 -0.019744 -0.030820 0.048156 -0.036659 0.036332 0.037942 0.043231 0.024286 -0.096817 -0.105326 0.017664 0.006334 0.087673 -0.003650 -0.103511 -0.008594 0.109668 0.026520 0.063215 0.042088 -0.103020 0.009456 -0.026025 -0.006802 0.038727 -0.077618 -0.022769 0.016450 0.010472 -0.078758 0.027460 0.101392 0.005249 -0.006767 -0.030132 -0.014060 -0.047799 -0.020951 0.025632 -0.014516 -0.010042 0.066711 0.157662 0.065141 0.050168 0.084534 0.017843 -0.056506 0.029133 -0.026295 0.031939 -0.082057 0.153650 -0.007127 -0.029792 -0.128702 -0.062787 -0.001465 -0.002798 -0.017151 -0.041788 -0.037221 0.038644 0.110573 -0.026861 -0.104906 0.103635 -0.016509 0.064087 0.007040 0.065275 0.055615 0.033058 -0.069751 0.051300 0.047428 -0.090540 -0.124486 -0.046025 -0.030683 0.025057 -0.055704 0.074728 0.007336 0.038623 0.043142 -0.093601 -0.159486 0.088902 -0.038484 -0.015006 -0.031990 -0.060287 0.005848 0.051924 -0.030409 0.020224 0.069146 0.017287 -0.007322 -0.085799 0.003925 -0.075855 -0.013203 0.053028 -0.018495 -0.074602 -0.135563 0.060187 -0.019480 -0.022531 -0.014125 0.038620 -0.005389 0.127105 -0.077350 0.077441 -0.113369 0.011508 -0.039305 -0.029470 -0.061715 0.036571 -0.017628 0.002928 -0.048470 -0.067010 -0.142656 0.032508 -0.060900 -0.060949 -0.068029 -0.029324 0.049136 -0.026029 0.019986 -0.054388 0.086656 -0.138297 -0.091943 0.029224 0.073492 0.008627 -0.135897 -0.017284 -0.033469 0.035197 -0.051657 0.162065 -0.057931 -0.082768 0.028565 0.004022 -0.024009 -0.031225 -0.011595 -0.069202 -0.051213 -0.071796 -0.036828 0.002874 -0.002218 0.002855 0.034102 0.032901 -0.035151 -0.036887 -0.024332 -0.032178 0.003773 0.070113 -0.046498 -0.018369 0.001332 0.094866 -0.039396 -0.015268 0.003643 -0.041336 -0.012105 0.044242 0.020971 -0.064513 0.039998 0.010262 -0.040118 0.099129 0.120976 -0.030382 -0.016247 0.076711 -0.054364 -0.024558 0.016143 0.006859 -0.027517 0.079435 -0.021568 -0.016099 -0.116231 -0.008536 0.067623 0.064370 -0.005158 -0.018101 -0.025758 -0.037766 -0.050366 0.080379 -0.079434 -0.112784 -0.123392 0.004870 0.006686 0.021086 -0.111385 -0.027295 0.043131 -0.113584 -0.098451 -0.025672 0.099476 0.068587 -0.082542 -0.038585 -0.033385 0.018518 -0.012474 0.005228 -0.044162 0.069078 -0.011857 -0.013428 0.016155 -0.046433 -0.005876 0.012966 -0.113829 0.058859 -0.038367 0.058111 -0.027938 0.005936 -0.042306 0.013040 -0.037601 0.118759 0.011357 0.006414 -0.010947 -0.096250 0.031569 -0.010059 -0.040205 -0.015609 0.020036 0.070643 0.001853 -0.072661 -0.050948 0.052113 -0.044186 -0.034010 -0.063778 0.001350 0.052406 -0.099762 0.016988 -0.109987 0.059358 -0.001595 -0.034087 -0.016234 0.022894 -0.006296 -0.046363 0.035346 0.078064 0.041866 -0.022750 -0.046779 0.043808 0.000032 0.016188 -0.023874 -0.059928 0.042115 0.041641 0.012157 -0.035179 -0.043309 -0.026052 0.041636 0.068396 0.011215 -0.005223 -0.027161 0.050815 -0.015808 0.053952 0.152534 -0.115885 0.071335 -0.062087 -0.026316 -0.078817 0.011375 -0.013983 0.000489 -0.057712 0.020095 0.066685 0.009846 0.000402 -0.053145 0.056096 -0.034850 0.002380 -0.018130 0.012630 0.084771 0.024999 -0.012555 -0.013972 -0.088435 0.031416 0.052705 0.038663 0.027698 0.042259 0.029393 0.001778 -0.016552 0.052615 0.034069 -0.012169 0.080168 -0.023524 -0.047054 -0.023665 0.071744 0.062949 0.008838 0.053566 -0.037110 -0.041288 -0.021466 0.069287 0.053799 -0.002381 -0.020840 -0.040973 0.036879 -0.031637 -0.043479 0.030318 0.055734 -0.013728 0.028130 -0.010012 0.057972 -0.085469 0.010972 -0.080919 0.057838 -0.002437 -0.014498 -0.056597 0.046732 -0.057268 -0.019948 -0.045018 -0.076976 0.022651 0.049257 0.009333 0.231568 -0.122589 0.031370 -0.028368 0.049713 -0.003680 0.028487 0.021421 -0.047203 -0.008494 0.027579 0.040466 0.025732 0.061288 0.040587 0.026433 0.057738 0.063744 -0.008706 -0.008722 -0.108407 -0.058659 -0.062847 -0.045016 -0.012496 0.024968 -0.004295 0.018229 0.038913 0.039337 0.103637 -0.044969 0.074571 -0.029493 -0.108373 -0.058752 -0.029018 0.035134 -0.025061 0.111441 0.047629 -0.019144 -0.066419 -0.013957 -0.077471 0.097474 0.015614 -0.026722 -0.003406 -0.011868 0.069590 0.012280 -0.013154 -0.029430 0.131865 0.078810 0.015475 0.061154 -0.037924 0.055244 0.058782 0.105475 -0.128142 -0.033597 -0.050389 0.023553 -0.010760 0.015768 0.134436 0.012747 0.055034 -0.017739 -0.004577 0.018438 -0.007629 0.055190 -0.007411 0.055645 -0.083282 0.048271 0.007266 -0.059927 0.001795 0.045949 0.037777 -0.085348 0.003654 -0.055782 0.003819 -0.037718 -0.004105 -0.136808 0.031946 -0.024157 0.051772 -0.014429 0.031680 0.011083 0.048099 -0.075885 -0.004224 -0.037395 0.032018 0.008033 0.056800 -0.016448 -0.010427 -0.117933 -0.041090 -0.010347 -0.020958 -0.009885 -0.025600 -0.016924 0.021005 -0.040193 -0.000400 0.003469 0.042340 -0.082452 0.054513 -0.056153 -0.078439 0.019274 -0.016733 -0.002013 0.025078 0.001967 0.017941 -0.007954 0.076045 -0.020190 0.018970 0.089972 0.011510 -0.060190 -0.009662 0.110448 0.079981 0.011056 0.002370 -0.063116 0.070227 -0.014211 0.072869 0.095860 -0.013366 0.027990 -0.056907 0.023276 -0.050659 0.104394 0.068330 0.077482 -0.103126 0.035883 -0.027636 0.002709 -0.013450 0.069534 -0.069004 -0.024528 0.011448 -0.029206 0.023399 0.024568 -0.006011 -0.016105 -0.027398 0.028033 0.050188 0.006599 0.011271 0.016851 -0.043111 0.012874 -0.016210 -0.079809 0.080999 -0.063803 0.085987 -0.005429 -0.030888 0.039765 0.030750 0.026386 0.145159 0.027200 0.047101 0.007454 0.052327 -0.020788 -0.127539 0.004050 0.013718 0.004165 -0.022886 -0.014380 0.049745 0.060802 -0.012122 -0.013676 -0.054513 0.042445 0.112710 -0.003743 0.049722 0.138596 -0.029787 -0.113030 -0.026745 -0.067739 0.018157 -0.076346 -0.047137 -0.010472 0.041941 -0.078980 -0.006252 0.026746 -0.030488 -0.008534 0.025416 0.062900 -0.111326 -0.049467 -0.012249 -0.023070 -0.049992 -0.040217 0.008522 -0.015960 -0.003502 0.054075 0.075122 0.010343 0.062123 0.061940 -0.071127 0.025611 -0.066141 0.016355 0.043802 -0.040057 0.016248 0.150748 0.069680 -0.010873 0.042639 -0.080473 -0.102859 -0.064247 -0.035537 0.000615 -0.012591 -0.022177 0.011234
1 -0.006851 0.013214 0.012168 -0.036771 -0.030834 -0.053240 -0.006631 -0.061668 -0.096795 -0.054579 -0.075343 0.025516 0.073143 -0.010740 -0.051239 0.070496 -0.020346 0.047560 -0.006869 -0.047273 0.011015 0.018462 0.027683 -0.042085 0.014686 -0.047137 -0.005480 -0.002925 -0.043489 0.001780 -0.014602 0.091126 0.071583 -0.004788 -0.050532 0.016059 0.127841 0.036441 -0.040998 -0.024178 -0.063527 0.042666 -0.015607 -0.036264 -0.066086 0.061945 0.103933 -0.002851 0.011685 0.003888 0.023158 -0.131802 -0.061779 -0.030468 0.017673 -0.154573 0.027493 -0.009212 0.060084 -0.000699 0.075058 0.119724 0.065217 -0.086073 0.041137 -0.026143 0.003544 -0.096033 0.217689 0.000070 -0.027382 -0.090592 0.048616 -0.106187 0.013849 -0.001768 -0.109884 -0.051274 -0.026500 0.041254 -0.031085 -0.046753 0.049175 0.017213 0.002107 -0.073270 -0.043336 0.069566 0.079033 -0.051311 0.050288 -0.021131 -0.088569 0.138477 -0.055022 -0.114803 0.105179 0.048367 -0.044443 0.059196 0.053676 0.046831 0.002545 0.062050 0.081896 0.059197 -0.083899 0.053426 0.012879 0.028276 -0.076285 0.069681 0.005578 -0.025972 0.138136 0.076755 0.021257 -0.041756 0.009522 0.014072 -0.049226 0.041293 -0.019843 0.028453 -0.079482 -0.082074 -0.046801 0.055680 -0.076871 -0.013696 -0.092931 -0.047996 0.026890 -0.069998 -0.051557 0.004905 -0.022086 0.094819 -0.058005 0.014780 -0.044970 0.004346 0.079078 -0.058930 0.081927 0.046941 -0.082635 -0.053963 -0.087392 -0.003076 0.009062 -0.121449 0.050993 0.045422 -0.049106 -0.051322 -0.055991 0.026021 0.008021 -0.064455 0.023850 0.050923 0.088035 -0.076692 0.024750 0.103829 0.125383 -0.042563 -0.009584 -0.057780 0.041655 -0.020182 -0.000796 -0.080983 0.002946 -0.017738 0.048849 0.020989 -0.054177 0.064899 0.048417 0.037875 -0.055138 0.029709 0.038529 -0.002038 -0.064906 0.024743 -0.012363 -0.107407 -0.041928 -0.023328 -0.014482 -0.059173 -0.098687 0.030800 0.030111 -0.014349 0.063724 -0.043499 -0.022352 0.012866 -0.033812 -0.029118 -0.043271 0.008392 0.009101 0.056383 0.077159 0.014766 0.103538 -0.058768 -0.002324 -0.071596 -0.032435 0.014505 0.038906 -0.036239 0.056381 0.008123 -0.011856 0.037526 -0.060593 0.001515 0.083584 -0.080814 -0.017825 -0.024260 0.026091 0.084891 -0.048730 0.027169 0.029574 0.037405 0.076884 -0.051550 0.032405 0.009971 -0.043215 0.063064 0.037904 0.009157 0.027699 0.005731 -0.085599 -0.034680 0.124373 -0.003401 0.025133 0.047233 0.055960 -0.126277 0.068108 -0.011059 -0.067315 0.104515 0.060901 -0.012073 -0.060746 0.020815 -0.033876 -0.021930 -0.055455 -0.011446 -0.029244 -0.026603 0.039675 0.020876 0.024141 0.068327 -0.071187 0.016031 0.020685 -0.047142 -0.064723 -0.013959 0.057617 0.075189 -0.022364 0.032464 0.018561 -0.035350 -0.037791 0.056222 0.077657 -0.052431 -0.004997 -0.080252 -0.097148 0.011719 0.006514 -0.039797 -0.029456 -0.055545 0.022392 -0.002642 -0.019220 0.001678 0.012829 0.010707 0.024153 -0.078871 -0.174159 -0.009143 0.025573 -0.031466 0.048213 -0.024216 -0.062723 0.013129 -0.045549 0.097487 0.068107 0.004671 -0.000840 -0.057760 0.061349 -0.065289 0.044134 0.022057 -0.007804 -0.000288 0.034174 0.054214 -0.007502 -0.030244 0.031226 0.058821 -0.040147 0.007896 -0.020018 -0.068780 -0.035241 -0.040216 -0.018732 0.025865 -0.076310 -0.103329 0.043832 -0.089029 -0.054199 -0.010463 0.036210 -0.001489 -0.047771 0.019133 -0.007653 -0.018749 -0.033655 0.019466 0.065349 0.009997 0.076568 0.029645 0.051843 0.091492 0.031266 -0.010495 0.043241 0.015871 -0.030898 0.138965 -0.007620 0.087214 -0.040459 0.041130 -0.057117 0.025339 0.051948 -0.085861 -0.053269 -0.027267 -0.008644 0.013333 0.073098 0.018343 -0.002794 0.018920 -0.001968 0.012728 -0.015899 -0.043350 -0.024964 0.137140 0.000504 -0.032271 0.084878 0.030217 0.041236 -0.022970 -0.059960 -0.004115 -0.022630 0.048265 -0.033650 0.032346 0.041736 0.031035 0.021968 -0.089925 -0.100581 0.028457 0.007957 0.079987 0.004895 -0.112763 -0.014593 0.110416 0.028019 0.057246 0.043534 -0.097419 0.016922 -0.020016 -0.000361 0.029023 -0.076785 -0.015114 0.011084 0.007548 -0.076673 0.029373 0.104976 0.004971 -0.010631 -0.026696 -0.009915 -0.032627 -0.021171 0.013373 -0.011509 -0.008301 0.054545 0.150965 0.061367 0.047932 0.090037 0.010215 -0.057139 0.017128 -0.035762 0.022541 -0.085089 0.150024 -0.000122 -0.019743 -0.117838 -0.068102 0.005798 0.003133 -0.018411 -0.037767 -0.031815 0.035859 0.114492 -0.026248 -0.106507 0.094339 -0.024089 0.059410 -0.004200 0.063116 0.053646 0.045681 -0.072329 0.041226 0.057362 -0.082212 -0.133875 -0.046640 -0.030396 0.020174 -0.053984 0.080095 0.009070 0.046153 0.041546 -0.091990 -0.147038 0.080840 -0.031208 -0.011147 -0.039246 -0.069730 0.004431 0.051989 -0.027031 0.015497 0.062245 0.018258 0.007151 -0.089051 0.013758 -0.067121 -0.002811 0.044585 -0.015622 -0.072771 -0.134122 0.068876 -0.015522 -0.027351 -0.021060 0.050097 -0.003547 0.122381 -0.079234 0.086850 -0.118706 0.011975 -0.038847 -0.019132 -0.053559 0.027081 -0.016876 0.002105 -0.044411 -0.070272 -0.151908 0.034516 -0.069198 -0.065457 -0.073022 -0.017354 0.043317 -0.023653 0.022366 -0.063219 0.079401 -0.141433 -0.084907 0.029908 0.078736 0.003386 -0.143119 -0.020206 -0.033893 0.029920 -0.056639 0.152257 -0.053029 -0.068419 0.034420 0.010378 -0.031780 -0.024082 0.002040 -0.070779 -0.049649 -0.073605 -0.047218 -0.006772 -0.005252 -0.005012 0.037860 0.023487 -0.042641 -0.039349 -0.020510 -0.037835 0.007899 0.072088 -0.040181 -0.016470 -0.004411 0.087641 -0.042376 -0.013070 0.009617 -0.039435 -0.003542 0.038599 0.026311 -0.057930 0.032583 0.007917 -0.038164 0.096257 0.114552 -0.032410 -0.026690 0.071227 -0.042698 -0.032221 0.016074 0.005308 -0.022260 0.071588 -0.016919 -0.013023 -0.101321 -0.017078 0.071291 0.057400 -0.003921 -0.022507 -0.022714 -0.036626 -0.047442 0.063318 -0.065809 -0.112304 -0.111522 0.005438 0.012363 0.010806 -0.101740 -0.017940 0.036715 -0.101047 -0.082718 -0.021065 0.095620 0.056607 -0.073348 -0.038957 -0.032892 0.014596 -0.030240 0.002533 -0.040523 0.069304 -0.014642 -0.019705 0.013339 -0.049870 -0.002037 0.007871 -0.105720 0.051501 -0.043927 0.055304 -0.027910 0.001030 -0.050374 0.018314 -0.041491 0.105823 0.012451 -0.002156 -0.010236 -0.092654 0.019600 -0.008819 -0.035015 -0.022345 0.018528 0.066725 0.000986 -0.066028 -0.047633 0.051471 -0.033924 -0.027492 -0.063354 0.001740 0.051274 -0.088591 0.021332 -0.101764 0.055605 -0.006749 -0.029051 -0.019938 0.004442 -0.005207 -0.042886 0.031633 0.072574 0.046739 -0.021096 -0.040988 0.038641 -0.004444 0.011608 -0.026935 -0.056325 0.042361 0.038138 0.002036 -0.032826 -0.053403 -0.017031 0.041273 0.059866 0.000945 -0.008447 -0.019452 0.053781 -0.020587 0.049992 0.138329 -0.108889 0.062624 -0.053294 -0.024832 -0.071623 0.015250 -0.022052 -0.002585 -0.062711 0.005834 0.056698 0.013963 0.001696 -0.047693 0.061476 -0.050413 -0.008385 -0.014823 0.012453 0.078308 0.019722 -0.016701 -0.011317 -0.088213 0.046891 0.048534 0.032021 0.024593 0.026456 0.039727 0.012158 -0.020432 0.050326 0.040189 -0.010174 0.080237 -0.011846 -0.050637 -0.027095 0.064655 0.054197 0.010117 0.043245 -0.023096 -0.030871 -0.012004 0.066561 0.054764 -0.000364 -0.016563 -0.038352 0.040152 -0.032641 -0.033206 0.036619 0.053889 -0.012155 0.017177 -0.008328 0.047977 -0.088612 0.016701 -0.081216 0.056469 -0.005949 -0.015375 -0.050738 0.041258 -0.059370 -0.014224 -0.044234 -0.085358 0.019456 0.045161 0.006362 0.222490 -0.121648 0.032505 -0.024380 0.054418 -0.004967 0.034190 0.025029 -0.045190 -0.004975 0.029791 0.031102 0.032230 0.065951 0.039462 0.026304 0.055985 0.066421 -0.002228 -0.021472 -0.111492 -0.055425 -0.062498 -0.047168 -0.006901 0.023795 -0.009192 0.018875 0.017709 0.044833 0.086930 -0.036477 0.076115 -0.028439 -0.102343 -0.062223 -0.019459 0.041339 -0.035565 0.111965 0.050181 -0.011270 -0.059537 -0.014145 -0.067658 0.099695 0.010057 -0.028321 -0.006725 -0.006035 0.078613 0.003546 -0.002955 -0.028396 0.127549 0.062919 -0.001642 0.054553 -0.038604 0.055103 0.048779 0.100202 -0.121150 -0.030504 -0.053925 0.021706 -0.004413 0.014307 0.138554 0.018717 0.049131 -0.014099 0.000484 0.026110 0.001287 0.058249 -0.012199 0.061619 -0.080184 0.034140 0.000408 -0.057082 -0.005952 0.043451 0.045097 -0.082416 0.001500 -0.064604 -0.006038 -0.037965 -0.009791 -0.123734 0.034500 -0.021797 0.047217 -0.016127 0.026680 0.017975 0.059169 -0.071244 0.003163 -0.034822 0.019544 0.002045 0.052148 -0.000481 -0.015971 -0.116463 -0.050981 -0.008537 -0.016178 -0.003444 -0.018961 -0.011255 0.018333 -0.039073 0.008313 -0.001095 0.038465 -0.078018 0.052069 -0.058352 -0.072014 0.019364 -0.020583 -0.012374 0.024555 0.001948 0.010608 -0.015208 0.076369 -0.017836 0.025090 0.085274 0.018858 -0.057188 -0.006817 0.109017 0.086219 0.013685 0.014605 -0.058885 0.072168 -0.025363 0.069876 0.099483 -0.013107 0.032041 -0.047678 0.017450 -0.051314 0.099160 0.075108 0.077408 -0.102914 0.042432 -0.022715 -0.003924 -0.011198 0.069816 -0.079353 -0.017760 0.011152 -0.028323 0.029625 0.030049 -0.011579 -0.008121 -0.031317 0.028668 0.038011 0.007515 0.008078 0.022800 -0.036389 0.008560 -0.014757 -0.072633 0.070315 -0.066451 0.094860 0.012188 -0.029495 0.039959 0.033221 0.027841 0.146392 0.029731 0.033903 0.020231 0.053405 -0.025175 -0.124408 0.013448 0.013093 -0.004696 -0.027728 -0.014833 0.041836 0.068822 -0.011891 -0.023707 -0.047539 0.049244 0.112022 -0.006779 0.051770 0.127591 -0.024549 -0.115045 -0.032861 -0.060964 0.013190 -0.074102 -0.048920 -0.020920 0.055797 -0.085494 -0.004415 0.016353 -0.031704 0.003587 0.015490 0.060413 -0.100854 -0.046799 -0.008135 -0.024526 -0.056241 -0.050931 0.016481 -0.005465 -0.000836 0.057464 0.085563 0.002307 0.067327 0.059746 -0.067761 0.018321 -0.065967 0.018162 0.043573 -0.040477 0.014929 0.161608 0.063959 -0.012501 0.044716 -0.075333 -0.105796 -0.062896 -0.038592 0.003030 -0.007567 -0.011263 0.020407
33 -0.004940 0.012069 0.005570 -0.028624 -0.029245 -0.050875 -0.003387 -0.054033 -0.092000 -0.043903 -0.073217 0.016720 0.073174 -0.001574 -0.050764 0.062216 -0.023027 0.051464 -0.011805 -0.038469 0.006023 0.019729 0.035449 -0.034814 0.019531 -0.046838 0.003021 -0.009515 -0.034234 -0.004680 -0.014774 0.102454 0.069266 -0.008850 -0.045993 0.009946 0.123366 0.038917 -0.037265 -0.028914 -0.060637 0.038516 -0.024549 -0.037514 -0.059230 0.069362 0.101497 -0.007119 0.015160 -0.000971 0.018357 -0.135819 -0.052580 -0.027933 0.030459 -0.137895 0.026584 -0.011359 0.054379 0.001326 0.056021 0.113390 0.058581 -0.082936 0.043777 -0.020582 0.010895 -0.086635 0.205159 -0.001382 -0.028387 -0.083916 0.060263 -0.098394 0.004106 -0.002548 -0.099351 -0.039740 -0.028313 0.037222 -0.038652 -0.029457 0.048251 0.014932 0.002803 -0.076965 -0.045264 0.071348 0.062055 -0.039732 0.048964 -0.016370 -0.085169 0.136705 -0.052652 -0.108055 0.106527 0.057388 -0.045322 0.059148 0.057195 0.044935 -0.000368 0.060443 0.078498 0.056742 -0.083481 0.044701 0.017864 0.027640 -0.067640 0.059268 0.006426 -0.020733 0.129007 0.066078 0.029785 -0.049148 0.004415 0.018899 -0.041775 0.030486 -0.028800 0.030970 -0.078068 -0.074802 -0.039271 0.055293 -0.074087 -0.019823 -0.081985 -0.047800 0.030793 -0.065580 -0.054333 0.011994 -0.021623 0.103626 -0.055716 0.014875 -0.049628 0.001343 0.079298 -0.062500 0.086707 0.046394 -0.087869 -0.049720 -0.088101 -0.006766 0.017507 -0.128028 0.054359 0.056529 -0.048473 -0.042068 -0.053819 0.021646 0.016642 -0.054992 0.015520 0.045558 0.086761 -0.071136 0.023044 0.088695 0.127241 -0.035568 -0.014972 -0.060299 0.036037 -0.021293 0.005434 -0.077580 0.004081 -0.021307 0.048629 0.016378 -0.055550 0.057365 0.050538 0.036070 -0.071859 0.033639 0.045481 -0.005826 -0.066705 0.024999 -0.010933 -0.109189 -0.050018 -0.014371 -0.022477 -0.064975 -0.098223 0.035866 0.028896 -0.016998 0.065357 -0.045102 -0.020046 0.029857 -0.025434 -0.020062 -0.038903 0.007201 0.016695 0.055861 0.080551 0.017360 0.100709 -0.069031 0.005533 -0.077969 -0.033483 0.016910 0.033152 -0.041651 0.061228 0.013120 -0.012478 0.039433 -0.075449 0.000168 0.097786 -0.081122 -0.020477 -0.002721 0.023634 0.091616 -0.055359 0.033852 0.042982 0.042197 0.079091 -0.057120 0.039109 0.009067 -0.043059 0.067679 0.038504 0.017376 0.028304 0.016085 -0.089280 -0.040269 0.120695 -0.001285 0.033241 0.048190 0.056691 -0.130579 0.072585 0.002000 -0.075359 0.109961 0.064985 -0.003068 -0.056387 0.024235 -0.041655 -0.014361 -0.052821 -0.016228 -0.030707 -0.031984 0.040764 0.010621 0.023619 0.055968 -0.069630 0.017096 0.018588 -0.049098 -0.068720 -0.013308 0.060595 0.060297 -0.016892 0.021417 0.018202 -0.048657 -0.037577 0.062808 0.082731 -0.051820 0.004331 -0.086388 -0.108452 0.018651 0.007883 -0.038659 -0.020948 -0.063528 0.028651 -0.000015 -0.016450 0.003955 0.018716 0.006248 0.024867 -0.083738 -0.171116 -0.005195 0.025164 -0.037209 0.046621 -0.019907 -0.062781 0.014370 -0.054496 0.100118 0.065798 -0.008686 0.006407 -0.047383 0.077180 -0.065648 0.041705 0.023626 0.000919 -0.012571 0.023753 0.048576 -0.017246 -0.039910 0.038743 0.067434 -0.040370 0.011317 -0.022132 -0.065210 -0.028682 -0.039368 -0.020134 0.026115 -0.075394 -0.118656 0.047268 -0.093297 -0.055004 -0.007857 0.036391 -0.003324 -0.041844 0.019284 -0.002660 -0.019294 -0.046827 0.016789 0.075285 0.010962 0.074513 0.028288 0.050005 0.084788 0.032810 0.000722 0.040077 0.018964 -0.030049 0.146004 -0.016938 0.094686 -0.044878 0.042824 -0.044790 0.025409 0.046172 -0.085906 -0.062119 -0.030493 -0.003180 0.018028 0.068255 0.027541 -0.005626 0.025529 -0.007711 0.005216 -0.012991 -0.042507 -0.016199 0.135051 0.004157 -0.037018 0.080497 0.035171 0.047872 -0.027749 -0.066391 -0.019940 -0.030930 0.049354 -0.037543 0.037399 0.038909 0.043310 0.024450 -0.097445 -0.106936 0.018926 0.006741 0.088848 -0.002972 -0.106585 -0.008641 0.112534 0.027490 0.064628 0.043001 -0.105391 0.010306 -0.025932 -0.007214 0.039073 -0.079664 -0.022651 0.016157 0.010517 -0.081058 0.028226 0.103635 0.005212 -0.007565 -0.030533 -0.013530 -0.048731 -0.021470 0.025998 -0.014813 -0.010215 0.067117 0.161169 0.066935 0.051595 0.085892 0.017699 -0.057000 0.029402 -0.027032 0.032414 -0.083395 0.155959 -0.006234 -0.030073 -0.130658 -0.063559 -0.000324 -0.002350 -0.017303 -0.042247 -0.037267 0.039490 0.112174 -0.027448 -0.106976 0.105995 -0.017631 0.065856 0.006847 0.066227 0.056746 0.034364 -0.071396 0.052204 0.048639 -0.092056 -0.127831 -0.046584 -0.031347 0.024876 -0.057148 0.076806 0.006907 0.040412 0.043248 -0.095589 -0.162789 0.090613 -0.039004 -0.015627 -0.032491 -0.062252 0.005891 0.052870 -0.031238 0.020646 0.070644 0.018253 -0.007070 -0.088867 0.004106 -0.078406 -0.012826 0.054601 -0.018914 -0.076590 -0.139719 0.061997 -0.019936 -0.023384 -0.014229 0.041594 -0.005309 0.131129 -0.080332 0.080948 -0.117642 0.011793 -0.040700 -0.029989 -0.062971 0.037622 -0.018025 0.003942 -0.049930 -0.069291 -0.148266 0.033697 -0.063433 -0.063273 -0.070926 -0.029838 0.049871 -0.026485 0.019726 -0.056877 0.088673 -0.143566 -0.094644 0.030692 0.076308 0.008454 -0.141396 -0.018139 -0.035707 0.036210 -0.053941 0.168276 -0.060029 -0.085131 0.030317 0.003492 -0.025154 -0.031809 -0.011658 -0.072418 -0.053991 -0.075235 -0.038250 0.002825 -0.003183 0.002188 0.035604 0.033462 -0.037165 -0.038556 -0.025649 -0.034306 0.004460 0.072566 -0.047787 -0.018914 0.000129 0.097968 -0.041369 -0.016858 0.003505 -0.043082 -0.012268 0.045208 0.022491 -0.066603 0.041719 0.010959 -0.041130 0.102715 0.124954 -0.031456 -0.017274 0.078090 -0.055036 -0.025627 0.017015 0.006797 -0.028352 0.082640 -0.021666 -0.016145 -0.118922 -0.008971 0.070486 0.066496 -0.005920 -0.017803 -0.026604 -0.038331 -0.051759 0.081632 -0.081336 -0.116303 -0.126953 0.005396 0.007247 0.021536 -0.114708 -0.027227 0.044432 -0.116520 -0.101383 -0.026602 0.102444 0.069898 -0.084963 -0.040396 -0.034044 0.019224 -0.013512 0.004800 -0.045141 0.071157 -0.012129 -0.013733 0.015995 -0.047388 -0.005188 0.013170 -0.116846 0.059890 -0.039253 0.059082 -0.029334 0.006365 -0.043942 0.013004 -0.039236 0.121116 0.011091 0.006860 -0.012032 -0.098360 0.031127 -0.009782 -0.041018 -0.016463 0.019727 0.072615 0.002263 -0.074085 -0.052758 0.054084 -0.044576 -0.034176 -0.064693 0.001203 0.054040 -0.101871 0.017547 -0.112663 0.060539 -0.002220 -0.034812 -0.016766 0.021832 -0.006294 -0.047395 0.035442 0.079258 0.043079 -0.022727 -0.047999 0.045366 -0.000658 0.017156 -0.024797 -0.062161 0.044141 0.041845 0.012453 -0.035804 -0.044688 -0.025771 0.042233 0.070140 0.011406 -0.005936 -0.027158 0.051948 -0.015757 0.055706 0.155214 -0.118746 0.072869 -0.062629 -0.026384 -0.080148 0.011761 -0.015229 0.000204 -0.058666 0.019973 0.067506 0.009895 0.000333 -0.053773 0.057360 -0.036521 0.002058 -0.018497 0.012397 0.087397 0.026168 -0.012991 -0.014781 -0.090254 0.033168 0.054548 0.039156 0.028430 0.043061 0.030570 0.002241 -0.016653 0.053915 0.034629 -0.012304 0.082370 -0.023397 -0.048822 -0.023726 0.074066 0.064063 0.009472 0.053589 -0.038104 -0.041675 -0.021069 0.071806 0.054915 -0.002278 -0.021550 -0.041710 0.038084 -0.032974 -0.044534 0.030998 0.056252 -0.013887 0.028677 -0.010901 0.058356 -0.087942 0.010633 -0.083494 0.058583 -0.002419 -0.014874 -0.057805 0.047430 -0.058321 -0.020549 -0.045516 -0.079682 0.023070 0.049720 0.009639 0.237241 -0.125654 0.031744 -0.029180 0.051028 -0.003555 0.029733 0.021710 -0.048173 -0.008891 0.028621 0.041597 0.027119 0.062237 0.042559 0.026593 0.059586 0.066189 -0.008784 -0.009827 -0.111637 -0.060200 -0.065141 -0.047058 -0.013047 0.026041 -0.004811 0.019572 0.039199 0.041118 0.105457 -0.046114 0.076257 -0.030300 -0.111090 -0.061039 -0.029854 0.036385 -0.026090 0.114451 0.048449 -0.019024 -0.068022 -0.014595 -0.078774 0.099525 0.015620 -0.028333 -0.004469 -0.011908 0.072788 0.012107 -0.013136 -0.030274 0.135216 0.080187 0.014408 0.062783 -0.039544 0.056827 0.059542 0.108306 -0.131252 -0.034644 -0.051486 0.023764 -0.010525 0.016104 0.137782 0.013566 0.056370 -0.018639 -0.004821 0.018885 -0.007996 0.056980 -0.007337 0.057361 -0.085856 0.048259 0.007272 -0.061289 0.001285 0.047321 0.038675 -0.087061 0.003432 -0.057281 0.002757 -0.038328 -0.004210 -0.140193 0.032550 -0.024190 0.052920 -0.014636 0.032122 0.011929 0.049358 -0.077994 -0.004321 -0.038246 0.032162 0.008042 0.058223 -0.016265 -0.011327 -0.121371 -0.042569 -0.010038 -0.020740 -0.009868 -0.025985 -0.017247 0.020875 -0.041126 0.000466 0.002844 0.043557 -0.084378 0.055690 -0.057422 -0.080030 0.018891 -0.016440 -0.003190 0.025765 0.002980 0.018526 -0.007950 0.078439 -0.020122 0.019400 0.092071 0.011699 -0.061085 -0.010249 0.113275 0.082396 0.011388 0.003027 -0.065066 0.071937 -0.014894 0.074562 0.098238 -0.013279 0.028927 -0.058317 0.023808 -0.051843 0.107373 0.070722 0.079094 -0.105342 0.037761 -0.027372 0.001718 -0.013986 0.071177 -0.070802 -0.024701 0.011534 -0.030054 0.024683 0.025457 -0.006720 -0.016031 -0.028401 0.028849 0.050967 0.006568 0.011649 0.017001 -0.044255 0.012997 -0.017181 -0.082308 0.081928 -0.065007 0.088466 -0.004838 -0.031788 0.040948 0.031518 0.027017 0.149275 0.027573 0.047391 0.007072 0.054396 -0.022047 -0.130520 0.005669 0.014414 0.003555 -0.023794 -0.014591 0.050611 0.062752 -0.011681 -0.014370 -0.056530 0.043455 0.115692 -0.004417 0.050957 0.141788 -0.030677 -0.116118 -0.027188 -0.069029 0.019011 -0.077920 -0.048501 -0.011461 0.043261 -0.081234 -0.006045 0.027121 -0.031504 -0.008950 0.025346 0.064367 -0.113630 -0.051545 -0.013000 -0.023071 -0.051483 -0.041660 0.009147 -0.016184 -0.003209 0.054903 0.078039 0.009942 0.064261 0.063342 -0.073151 0.025606 -0.068380 0.017127 0.045426 -0.041524 0.016947 0.155544 0.071105 -0.011044 0.043300 -0.082117 -0.105841 -0.066302 -0.037450 -0.000003 -0.013266 -0.021682 0.011915
3 -0.004916 0.012293 0.009567 -0.031627 -0.028619 -0.050556 -0.004438 -0.056801 -0.090340 -0.047531 -0.070503 0.019954 0.070026 -0.005930 -0.048261 0.062827 -0.020984 0.045740 -0.009353 -0.039601 0.008470 0.018454 0.029988 -0.036254 0.015578 -0.044398 -0.001455 -0.005859 -0.036593 -0.000816 -0.013288 0.091126 0.066912 -0.007269 -0.046916 0.012698 0.117740 0.035553 -0.037429 -0.024664 -0.059065 0.038988 -0.018967 -0.034822 -0.059805 0.061728 0.097201 -0.004780 0.013053 0.001743 0.020905 -0.126257 -0.054222 -0.028361 0.021925 -0.138293 0.026489 -0.009780 0.054281 -0.000350 0.062722 0.108983 0.058085 -0.078812 0.040224 -0.021528 0.005796 -0.086849 0.197288 -0.001184 -0.026201 -0.080826 0.049991 -0.095841 0.008374 -0.002409 -0.099076 -0.043346 -0.025779 0.037573 -0.032818 -0.037321 0.045372 0.015366 0.002304 -0.069707 -0.041217 0.065699 0.066697 -0.043292 0.047204 -0.018382 -0.081710 0.129151 -0.050329 -0.105122 0.099035 0.047940 -0.041085 0.055294 0.051219 0.043300 0.000695 0.058298 0.076183 0.054952 -0.079515 0.046116 0.014097 0.027222 -0.068629 0.060712 0.005258 -0.022575 0.126033 0.068571 0.023759 -0.041783 0.006616 0.016091 -0.043173 0.034638 -0.021059 0.028956 -0.073577 -0.074609 -0.040920 0.052452 -0.071997 -0.014776 -0.082727 -0.044640 0.027176 -0.063909 -0.048574 0.007901 -0.021578 0.092380 -0.053061 0.013870 -0.044429 0.003887 0.073928 -0.055566 0.079153 0.044026 -0.080545 -0.049291 -0.082106 -0.003402 0.012143 -0.117538 0.049831 0.046956 -0.045629 -0.043809 -0.050819 0.022512 0.010356 -0.056193 0.019333 0.046301 0.081550 -0.069633 0.022961 0.091500 0.118770 -0.037380 -0.011640 -0.055460 0.036779 -0.018376 0.002215 -0.073661 0.003864 -0.018861 0.045182 0.017395 -0.051153 0.056664 0.045309 0.034587 -0.058847 0.029356 0.039797 -0.003487 -0.060904 0.023416 -0.010345 -0.100246 -0.042058 -0.018373 -0.015673 -0.058511 -0.091611 0.030616 0.027267 -0.014047 0.060167 -0.042549 -0.020499 0.018058 -0.028264 -0.023640 -0.039439 0.006893 0.010825 0.052525 0.072792 0.014768 0.094946 -0.059340 0.001375 -0.069241 -0.029893 0.012676 0.033893 -0.036280 0.055652 0.009266 -0.012099 0.036626 -0.061964 0.001166 0.084599 -0.075031 -0.017734 -0.013493 0.022527 0.081546 -0.048098 0.028444 0.032197 0.037075 0.072097 -0.050312 0.032816 0.008157 -0.041243 0.061223 0.034811 0.011845 0.025459 0.008967 -0.081773 -0.035416 0.115261 -0.003259 0.026509 0.045043 0.052921 -0.120203 0.065867 -0.005136 -0.066330 0.099699 0.059042 -0.008597 -0.054726 0.021574 -0.035340 -0.017258 -0.051216 -0.012896 -0.026685 -0.027139 0.037652 0.015043 0.022420 0.059006 -0.066192 0.015485 0.018647 -0.045636 -0.062390 -0.012314 0.055453 0.064003 -0.018226 0.025781 0.016676 -0.038712 -0.035211 0.054749 0.074076 -0.048815 -0.000109 -0.076862 -0.095452 0.014606 0.006892 -0.037057 -0.023690 -0.054370 0.022736 -0.001183 -0.017634 0.002436 0.014699 0.007920 0.023806 -0.075445 -0.160776 -0.006389 0.024185 -0.031796 0.043316 -0.021284 -0.058855 0.012837 -0.046538 0.091398 0.062002 -0.001813 0.001589 -0.050333 0.063583 -0.061932 0.040386 0.020675 -0.003438 -0.005801 0.027875 0.049148 -0.010661 -0.032098 0.032989 0.058826 -0.037284 0.009300 -0.018969 -0.062150 -0.028852 -0.037429 -0.016929 0.023824 -0.070606 -0.102362 0.042960 -0.084663 -0.050744 -0.008332 0.033676 -0.001938 -0.041955 0.017708 -0.005264 -0.017855 -0.036613 0.016977 0.064548 0.009725 0.069834 0.026408 0.047140 0.082888 0.030535 -0.005603 0.038982 0.015992 -0.028216 0.133295 -0.010847 0.084680 -0.039451 0.039078 -0.047067 0.023359 0.046034 -0.079700 -0.053041 -0.025991 -0.006043 0.014771 0.066697 0.022120 -0.003573 0.020579 -0.004352 0.008970 -0.013590 -0.040092 -0.019986 0.127132 0.001814 -0.032109 0.076529 0.030581 0.041538 -0.023603 -0.057843 -0.009886 -0.024023 0.045485 -0.031609 0.032113 0.038493 0.034507 0.022901 -0.087162 -0.096543 0.021796 0.006428 0.079179 0.001792 -0.102975 -0.011968 0.102885 0.025915 0.056906 0.040709 -0.094268 0.012234 -0.021449 -0.002837 0.030642 -0.072558 -0.016827 0.011988 0.007665 -0.072507 0.026342 0.097669 0.003345 -0.008721 -0.025639 -0.011228 -0.037355 -0.018876 0.016414 -0.012253 -0.009586 0.057276 0.145639 0.058593 0.046412 0.082529 0.011591 -0.053900 0.021587 -0.029418 0.023880 -0.079062 0.142177 -0.002642 -0.022365 -0.115229 -0.061972 0.002974 0.000248 -0.016188 -0.037430 -0.031769 0.034853 0.106576 -0.025275 -0.098979 0.092530 -0.019673 0.056440 0.000240 0.060408 0.050413 0.037834 -0.066774 0.042398 0.050262 -0.079864 -0.122217 -0.043555 -0.029247 0.020746 -0.051797 0.074185 0.007666 0.041224 0.040719 -0.087085 -0.144861 0.080939 -0.031990 -0.013102 -0.034973 -0.061673 0.005109 0.049508 -0.026764 0.015056 0.062544 0.017429 0.000992 -0.083922 0.009383 -0.066235 -0.007416 0.045822 -0.015864 -0.070275 -0.128121 0.062769 -0.016146 -0.023671 -0.016446 0.042406 -0.003538 0.118434 -0.073425 0.079031 -0.110112 0.011459 -0.037457 -0.022021 -0.053979 0.028633 -0.016485 0.002397 -0.044240 -0.065784 -0.141104 0.031498 -0.062731 -0.059465 -0.066951 -0.022269 0.043834 -0.023770 0.019308 -0.056562 0.078521 -0.132323 -0.084087 0.027275 0.072563 0.005494 -0.131753 -0.017761 -0.031023 0.031043 -0.052192 0.147610 -0.052874 -0.070864 0.030768 0.007691 -0.027325 -0.026382 -0.004481 -0.065843 -0.047187 -0.069057 -0.039600 -0.002741 -0.002944 -0.001026 0.034141 0.025164 -0.037991 -0.036430 -0.021968 -0.034062 0.006381 0.067902 -0.040786 -0.016688 -0.000887 0.086692 -0.038458 -0.013356 0.007097 -0.038750 -0.005867 0.039434 0.023027 -0.058059 0.033896 0.007953 -0.037487 0.093017 0.111860 -0.030344 -0.020669 0.069991 -0.044859 -0.028022 0.014712 0.004806 -0.023349 0.071286 -0.018240 -0.013520 -0.102692 -0.013518 0.065732 0.057212 -0.004865 -0.019176 -0.023591 -0.036225 -0.046630 0.067514 -0.068688 -0.106211 -0.110307 0.004779 0.009072 0.014915 -0.101294 -0.021622 0.037097 -0.100918 -0.086624 -0.022845 0.092812 0.059000 -0.073227 -0.036852 -0.031666 0.015512 -0.022350 0.003109 -0.039918 0.065499 -0.012797 -0.015884 0.013178 -0.046397 -0.004134 0.009295 -0.104332 0.052843 -0.040182 0.054074 -0.025977 0.002695 -0.044929 0.016005 -0.038531 0.105424 0.011250 0.001210 -0.009925 -0.090868 0.023114 -0.009442 -0.035226 -0.019042 0.018353 0.065186 0.000512 -0.065627 -0.046870 0.049111 -0.035998 -0.029409 -0.060122 0.001619 0.050431 -0.088980 0.019142 -0.100514 0.054277 -0.004736 -0.029803 -0.017938 0.011219 -0.004604 -0.042403 0.032389 0.071892 0.043429 -0.021517 -0.041428 0.038931 -0.002750 0.012942 -0.024727 -0.054692 0.040056 0.038229 0.006182 -0.031926 -0.047411 -0.020766 0.039644 0.060123 0.004257 -0.005880 -0.021330 0.050565 -0.018279 0.049135 0.137633 -0.106226 0.063223 -0.055204 -0.024129 -0.072056 0.012564 -0.017932 -0.001550 -0.057621 0.011282 0.058820 0.011625 0.000457 -0.048133 0.056090 -0.041669 -0.003021 -0.015366 0.012767 0.076577 0.021072 -0.014389 -0.011991 -0.084540 0.038606 0.047958 0.034168 0.023934 0.032373 0.034120 0.007359 -0.017896 0.048342 0.035708 -0.010047 0.077126 -0.016011 -0.046475 -0.024867 0.064108 0.054765 0.010064 0.046000 -0.027395 -0.033793 -0.015509 0.065471 0.051920 -0.001880 -0.018220 -0.038646 0.037061 -0.029912 -0.035660 0.031797 0.052053 -0.011661 0.021539 -0.009191 0.049811 -0.084103 0.012785 -0.077819 0.054927 -0.004427 -0.014288 -0.051069 0.041339 -0.055700 -0.015612 -0.041823 -0.078241 0.019033 0.044594 0.007241 0.216960 -0.117107 0.030433 -0.025277 0.049777 -0.004382 0.030474 0.022791 -0.044637 -0.006364 0.027271 0.033806 0.028077 0.061364 0.037422 0.024832 0.054736 0.062819 -0.005383 -0.015781 -0.105865 -0.053955 -0.060578 -0.043673 -0.009849 0.023936 -0.006333 0.017707 0.025052 0.041232 0.090193 -0.038696 0.072636 -0.027285 -0.100938 -0.057976 -0.023344 0.036639 -0.029470 0.107116 0.047526 -0.013454 -0.058895 -0.012813 -0.068855 0.094574 0.011864 -0.026446 -0.004419 -0.008750 0.071089 0.006283 -0.006813 -0.027988 0.123909 0.066722 0.005919 0.055391 -0.036561 0.052489 0.050112 0.097475 -0.119006 -0.030534 -0.049806 0.021700 -0.006037 0.013957 0.131071 0.015372 0.049643 -0.015076 -0.000902 0.022369 -0.001545 0.054824 -0.009516 0.056408 -0.077366 0.038558 0.003611 -0.055242 -0.002644 0.042332 0.039185 -0.080022 0.002885 -0.057885 -0.001215 -0.036700 -0.006116 -0.123273 0.031537 -0.021256 0.046433 -0.014345 0.027530 0.013729 0.052171 -0.069904 -0.000567 -0.034060 0.023537 0.005452 0.051688 -0.007435 -0.012028 -0.112362 -0.044985 -0.008799 -0.017095 -0.005745 -0.020143 -0.012967 0.019211 -0.037703 0.005095 0.000446 0.038459 -0.077034 0.051222 -0.054272 -0.070331 0.018910 -0.017671 -0.007128 0.023558 0.001811 0.012882 -0.012343 0.073670 -0.016999 0.021845 0.082623 0.015227 -0.056265 -0.007217 0.104956 0.079526 0.013236 0.009599 -0.057400 0.068406 -0.019120 0.068338 0.093735 -0.012192 0.029286 -0.049942 0.018978 -0.049220 0.097168 0.068937 0.072509 -0.097636 0.038018 -0.022683 -0.000097 -0.011179 0.065750 -0.071613 -0.020239 0.009835 -0.026921 0.025547 0.026894 -0.008074 -0.010132 -0.028976 0.027565 0.040683 0.007396 0.008995 0.019437 -0.037992 0.010815 -0.014761 -0.072021 0.072260 -0.062531 0.086465 0.004696 -0.029190 0.037962 0.031726 0.026868 0.139732 0.026706 0.037659 0.014583 0.050192 -0.022970 -0.120313 0.009004 0.012209 -0.001605 -0.024629 -0.013453 0.042737 0.062653 -0.012306 -0.017860 -0.048262 0.045056 0.107681 -0.004815 0.047569 0.126196 -0.025552 -0.108851 -0.028551 -0.061555 0.013877 -0.071045 -0.045865 -0.016014 0.047985 -0.078879 -0.004279 0.019995 -0.030285 -0.001555 0.018285 0.059503 -0.101099 -0.045919 -0.009607 -0.022292 -0.050771 -0.043996 0.012694 -0.010198 -0.001281 0.053789 0.078213 0.005846 0.062518 0.057843 -0.066595 0.020863 -0.062808 0.015866 0.042427 -0.038227 0.014418 0.150213 0.064112 -0.012064 0.041521 -0.074013 -0.100636 -0.060792 -0.035484 0.001068 -0.008476 -0.015988 0.015440
2 -0.006267 0.013308 0.010485 -0.034686 -0.029987 -0.052017 -0.006240 -0.060370 -0.095187 -0.051655 -0.074846 0.023100 0.072720 -0.009082 -0.049456 0.067354 -0.021379 0.046938 -0.008490 -0.043808 0.009835 0.018812 0.028889 -0.039946 0.015871 -0.045822 -0.003480 -0.004503 -0.040531 0.001007 -0.013349 0.091883 0.070590 -0.005721 -0.049352 0.014176 0.123653 0.036322 -0.039542 -0.025037 -0.062371 0.041115 -0.018018 -0.035839 -0.063860 0.062881 0.101666 -0.004005 0.012611 0.002649 0.021966 -0.130751 -0.058428 -0.030300 0.019693 -0.147205 0.027639 -0.009040 0.057281 -0.000509 0.069537 0.116309 0.062730 -0.083451 0.041163 -0.024526 0.004062 -0.093101 0.211115 -0.000662 -0.027329 -0.087104 0.050453 -0.102980 0.011332 -0.002905 -0.106343 -0.048395 -0.026892 0.039712 -0.032722 -0.042629 0.047630 0.017084 0.002341 -0.073281 -0.042904 0.068429 0.074920 -0.048072 0.050260 -0.019966 -0.086816 0.136925 -0.053538 -0.111820 0.104423 0.048565 -0.043151 0.057915 0.053254 0.046791 0.001563 0.061830 0.080867 0.058188 -0.083827 0.050316 0.013971 0.028788 -0.073796 0.066952 0.005177 -0.024922 0.134391 0.074474 0.023159 -0.043048 0.008495 0.014904 -0.047607 0.039053 -0.020442 0.029337 -0.079046 -0.079787 -0.043859 0.055180 -0.076961 -0.014920 -0.090850 -0.047164 0.027843 -0.068178 -0.051857 0.006140 -0.022134 0.096802 -0.057268 0.014448 -0.045774 0.004167 0.078723 -0.059120 0.082771 0.047031 -0.083787 -0.052819 -0.086666 -0.003913 0.011540 -0.122634 0.052056 0.046566 -0.047519 -0.048323 -0.053611 0.024395 0.008781 -0.061542 0.022326 0.049947 0.086492 -0.074369 0.023605 0.099469 0.124508 -0.041437 -0.010751 -0.057271 0.040619 -0.019996 0.000531 -0.078739 0.003367 -0.019265 0.048415 0.019544 -0.053455 0.061243 0.048387 0.037184 -0.058095 0.030487 0.040210 -0.002517 -0.064636 0.023965 -0.011356 -0.105989 -0.043230 -0.021393 -0.015038 -0.059909 -0.096300 0.030728 0.029091 -0.015150 0.063093 -0.044278 -0.022487 0.015193 -0.031765 -0.027076 -0.042560 0.007809 0.010118 0.055540 0.076411 0.014804 0.101192 -0.060948 -0.000999 -0.071298 -0.032137 0.013340 0.036594 -0.036912 0.056294 0.007723 -0.012673 0.037697 -0.062537 0.001432 0.085667 -0.079088 -0.018341 -0.019531 0.024483 0.084487 -0.049567 0.027944 0.031123 0.038623 0.075671 -0.051485 0.033944 0.008774 -0.043262 0.063073 0.037049 0.011018 0.026274 0.007550 -0.085426 -0.035789 0.121862 -0.003876 0.025940 0.047335 0.056262 -0.125582 0.068390 -0.007835 -0.067757 0.104842 0.060753 -0.009793 -0.059256 0.022061 -0.035113 -0.019848 -0.053994 -0.011806 -0.027589 -0.027946 0.038831 0.018754 0.024245 0.064481 -0.069790 0.016534 0.019973 -0.047922 -0.064548 -0.013644 0.058076 0.070305 -0.021021 0.029091 0.017530 -0.037086 -0.037170 0.056541 0.077310 -0.051947 -0.002037 -0.079891 -0.097769 0.013431 0.006092 -0.038854 -0.027309 -0.055744 0.022098 -0.002161 -0.018590 0.002034 0.014897 0.009883 0.025339 -0.078749 -0.170243 -0.007902 0.025223 -0.031785 0.046306 -0.022745 -0.061802 0.012870 -0.046902 0.096112 0.065586 0.000666 0.000327 -0.055757 0.063125 -0.065279 0.042908 0.021707 -0.005056 -0.002963 0.031902 0.052539 -0.008605 -0.031209 0.033208 0.059459 -0.038613 0.008991 -0.020274 -0.066599 -0.031968 -0.039965 -0.018071 0.025559 -0.075195 -0.104606 0.044226 -0.087980 -0.053071 -0.008712 0.035563 -0.001632 -0.046861 0.018856 -0.006475 -0.018554 -0.034897 0.018420 0.065539 0.009910 0.073821 0.028615 0.050204 0.088871 0.031402 -0.008350 0.041668 0.017025 -0.029880 0.138717 -0.009704 0.088203 -0.040859 0.040553 -0.052875 0.024440 0.049509 -0.084251 -0.054376 -0.026799 -0.008404 0.014518 0.071315 0.020899 -0.003185 0.019974 -0.003041 0.010735 -0.015450 -0.041500 -0.023390 0.134146 0.001115 -0.032283 0.082161 0.030773 0.042208 -0.023863 -0.059080 -0.006611 -0.023851 0.046793 -0.033024 0.032551 0.040184 0.033162 0.022613 -0.089387 -0.099830 0.026065 0.007759 0.080964 0.003634 -0.109483 -0.013031 0.107585 0.027601 0.058361 0.043610 -0.096974 0.014184 -0.020718 -0.001210 0.030422 -0.076022 -0.016240 0.011140 0.007235 -0.076115 0.028055 0.102943 0.003393 -0.010731 -0.026005 -0.010766 -0.035645 -0.020633 0.014594 -0.011973 -0.009041 0.056884 0.150760 0.060491 0.047838 0.087272 0.011085 -0.056248 0.020447 -0.032944 0.022809 -0.082780 0.148437 -0.001096 -0.021166 -0.118428 -0.065444 0.004814 0.001719 -0.017688 -0.038083 -0.031908 0.034683 0.111883 -0.026130 -0.104559 0.094900 -0.022015 0.057947 -0.002669 0.062500 0.051973 0.042705 -0.069665 0.041593 0.054254 -0.081239 -0.129733 -0.045277 -0.030392 0.020975 -0.054375 0.078491 0.008871 0.044729 0.041540 -0.091117 -0.148502 0.081639 -0.032244 -0.013035 -0.037867 -0.067204 0.004860 0.051225 -0.027858 0.014919 0.063135 0.017782 0.004532 -0.087377 0.011428 -0.067511 -0.005048 0.045937 -0.015436 -0.072700 -0.133899 0.067339 -0.016646 -0.025908 -0.018575 0.047006 -0.004158 0.122527 -0.077213 0.084391 -0.116994 0.012440 -0.039328 -0.020909 -0.054047 0.027758 -0.016680 0.002238 -0.045285 -0.069208 -0.149776 0.033150 -0.067801 -0.063582 -0.070682 -0.020092 0.044279 -0.023696 0.021675 -0.061355 0.080338 -0.139981 -0.086092 0.029551 0.076626 0.004024 -0.140139 -0.019821 -0.032344 0.031558 -0.054985 0.153016 -0.053397 -0.070562 0.032831 0.009014 -0.030229 -0.025678 -0.001277 -0.069890 -0.048955 -0.073062 -0.043129 -0.005356 -0.003338 -0.003249 0.036981 0.024476 -0.040963 -0.039026 -0.021469 -0.036209 0.007223 0.071172 -0.040115 -0.016947 -0.002577 0.088987 -0.040864 -0.013618 0.008808 -0.040076 -0.004424 0.039537 0.024624 -0.058132 0.032686 0.008619 -0.037937 0.095859 0.114985 -0.031837 -0.024073 0.070722 -0.044968 -0.029988 0.015048 0.004779 -0.023818 0.072071 -0.017759 -0.013487 -0.103153 -0.016285 0.068898 0.057278 -0.004014 -0.022137 -0.023151 -0.036534 -0.047599 0.065396 -0.068319 -0.110698 -0.112471 0.004899 0.011470 0.013352 -0.101873 -0.019669 0.036966 -0.101457 -0.086056 -0.022459 0.095466 0.057940 -0.073582 -0.037578 -0.032875 0.014747 -0.026140 0.003211 -0.040179 0.067366 -0.014075 -0.017887 0.013576 -0.048012 -0.003177 0.008799 -0.106667 0.052729 -0.042850 0.055255 -0.027697 0.001377 -0.048062 0.017422 -0.040704 0.107132 0.012774 0.000075 -0.009780 -0.092817 0.021154 -0.009794 -0.035997 -0.020703 0.019122 0.066130 0.001164 -0.066623 -0.048050 0.051130 -0.035260 -0.028597 -0.062384 0.002089 0.051644 -0.090071 0.020869 -0.102530 0.055384 -0.006133 -0.029398 -0.019873 0.008232 -0.004847 -0.043927 0.032446 0.073355 0.046048 -0.022244 -0.041217 0.039056 -0.003424 0.012662 -0.027007 -0.055930 0.041377 0.038471 0.004331 -0.032835 -0.051764 -0.018822 0.040220 0.060428 0.002064 -0.006563 -0.020210 0.052474 -0.019463 0.050296 0.138878 -0.108714 0.063298 -0.054860 -0.025230 -0.072974 0.014306 -0.020150 -0.001819 -0.060491 0.008264 0.058385 0.013250 0.001841 -0.049117 0.059729 -0.047130 -0.005876 -0.015921 0.012665 0.077624 0.020177 -0.015176 -0.011960 -0.087083 0.043333 0.048628 0.034110 0.023808 0.029828 0.037687 0.010364 -0.020118 0.049617 0.038454 -0.010166 0.080368 -0.014609 -0.048664 -0.026647 0.064991 0.054928 0.010245 0.046151 -0.025621 -0.032822 -0.013389 0.066937 0.054452 -0.001001 -0.018228 -0.039049 0.038685 -0.031149 -0.034545 0.034686 0.053637 -0.012623 0.020032 -0.008927 0.049877 -0.088065 0.015136 -0.080760 0.056874 -0.005677 -0.014663 -0.050957 0.042058 -0.058537 -0.015071 -0.043138 -0.083031 0.019407 0.046026 0.006521 0.222776 -0.120924 0.032572 -0.026069 0.053123 -0.004362 0.032786 0.024690 -0.045376 -0.005351 0.029053 0.032503 0.031170 0.064451 0.038489 0.026084 0.056026 0.065463 -0.004511 -0.018665 -0.110013 -0.055298 -0.062646 -0.046659 -0.009099 0.023726 -0.008063 0.018887 0.021720 0.043489 0.090225 -0.037944 0.076050 -0.028393 -0.103294 -0.059805 -0.022226 0.039808 -0.032232 0.111358 0.049470 -0.012319 -0.060033 -0.014034 -0.069030 0.098396 0.010439 -0.027362 -0.004867 -0.007581 0.075798 0.005246 -0.005076 -0.028473 0.127907 0.065869 0.002498 0.055760 -0.038922 0.054774 0.049906 0.100443 -0.121974 -0.030409 -0.053010 0.022648 -0.006003 0.014831 0.137894 0.017877 0.050058 -0.015098 -0.000480 0.025130 0.000083 0.057459 -0.011150 0.060730 -0.080137 0.036776 0.001472 -0.057092 -0.004180 0.044201 0.042664 -0.083231 0.002438 -0.062688 -0.003547 -0.038207 -0.008549 -0.125005 0.034180 -0.021987 0.047358 -0.015548 0.028500 0.015758 0.057253 -0.072432 0.001287 -0.034629 0.022131 0.003479 0.053107 -0.003516 -0.014518 -0.117193 -0.049542 -0.008475 -0.016621 -0.005198 -0.020332 -0.011997 0.020091 -0.039077 0.006609 0.000090 0.039910 -0.078924 0.053541 -0.057429 -0.072035 0.019921 -0.019308 -0.010165 0.025129 0.002646 0.012306 -0.014596 0.076727 -0.017166 0.024544 0.085418 0.018127 -0.058112 -0.006908 0.109028 0.084784 0.014324 0.012412 -0.059038 0.071243 -0.022933 0.070830 0.098182 -0.013344 0.030689 -0.050140 0.018025 -0.050972 0.099731 0.073075 0.077161 -0.102664 0.041267 -0.023055 -0.001648 -0.011200 0.069173 -0.077234 -0.019270 0.010549 -0.028291 0.028175 0.029606 -0.009840 -0.009178 -0.030777 0.028210 0.040102 0.008132 0.007926 0.021637 -0.038043 0.010013 -0.015511 -0.073849 0.072232 -0.064964 0.092763 0.008742 -0.029770 0.039658 0.032761 0.027991 0.145116 0.028702 0.036839 0.018084 0.052543 -0.024726 -0.124097 0.011931 0.012507 -0.002730 -0.026139 -0.014099 0.043754 0.067309 -0.012963 -0.021528 -0.048519 0.047704 0.111481 -0.005718 0.050574 0.128993 -0.024511 -0.114777 -0.030738 -0.062520 0.013137 -0.073026 -0.048213 -0.018170 0.052530 -0.083130 -0.004694 0.018428 -0.031202 0.001683 0.017728 0.061445 -0.103160 -0.046933 -0.009332 -0.024420 -0.054727 -0.048286 0.014371 -0.008722 -0.001123 0.056376 0.083395 0.004077 0.065769 0.060187 -0.068065 0.019721 -0.065038 0.017419 0.043729 -0.040259 0.014968 0.159587 0.065213 -0.012625 0.043852 -0.076651 -0.105843 -0.062919 -0.037989 0.002377 -0.007917 -0.014013 0.018362
4 -0.006502 0.013166 0.010119 -0.033458 -0.029760 -0.051411 -0.005463 -0.058938 -0.093287 -0.051006 -0.073538 0.022882 0.071256 -0.008860 -0.048525 0.065835 -0.020650 0.045828 -0.008029 -0.042818 0.010013 0.018062 0.028377 -0.039181 0.015428 -0.045701 -0.003488 -0.003773 -0.039211 0.000181 -0.014165 0.090136 0.069389 -0.005767 -0.048963 0.014511 0.120913 0.035633 -0.038586 -0.023873 -0.061592 0.040815 -0.017380 -0.034738 -0.063245 0.061731 0.100638 -0.003827 0.013143 0.002837 0.022276 -0.128644 -0.057962 -0.029704 0.019116 -0.144866 0.027420 -0.009070 0.056419 -0.000679 0.067888 0.113285 0.061626 -0.080986 0.040754 -0.024143 0.004358 -0.090864 0.205185 -0.000131 -0.027224 -0.085221 0.048839 -0.100473 0.011312 -0.002497 -0.103090 -0.046847 -0.025706 0.039505 -0.031091 -0.041844 0.046884 0.016099 0.001751 -0.071537 -0.042011 0.067386 0.072739 -0.047952 0.049351 -0.019882 -0.085368 0.134099 -0.052449 -0.109897 0.102394 0.047106 -0.042270 0.056974 0.052915 0.045740 0.000804 0.059746 0.078784 0.057152 -0.081886 0.048978 0.013637 0.028412 -0.072244 0.065850 0.005155 -0.024405 0.131932 0.072769 0.023127 -0.041388 0.008626 0.015380 -0.045950 0.038155 -0.019812 0.029302 -0.077093 -0.078727 -0.043536 0.053794 -0.074909 -0.013756 -0.088633 -0.046677 0.027632 -0.067280 -0.050774 0.005893 -0.022284 0.094573 -0.056058 0.014199 -0.044836 0.004574 0.076741 -0.056960 0.080302 0.046025 -0.082149 -0.051906 -0.084718 -0.003193 0.012041 -0.120301 0.050275 0.045555 -0.046383 -0.047578 -0.053119 0.023909 0.008795 -0.059154 0.021447 0.048145 0.084268 -0.072287 0.023724 0.096706 0.120717 -0.040303 -0.010209 -0.055742 0.039325 -0.018665 0.000398 -0.076531 0.003283 -0.018589 0.046649 0.018880 -0.052208 0.059558 0.046038 0.035710 -0.056720 0.029095 0.039052 -0.002806 -0.061857 0.023892 -0.011203 -0.102781 -0.042001 -0.020410 -0.014981 -0.058280 -0.094207 0.030692 0.028467 -0.014507 0.060641 -0.043594 -0.021611 0.014790 -0.031321 -0.026438 -0.041366 0.007602 0.009880 0.054315 0.074386 0.014194 0.098904 -0.058897 -0.000818 -0.069671 -0.030932 0.012837 0.036158 -0.035449 0.055756 0.007591 -0.012763 0.037464 -0.060690 0.001451 0.083681 -0.077627 -0.017259 -0.018811 0.023543 0.082291 -0.048844 0.028037 0.030179 0.037509 0.074057 -0.049664 0.032803 0.009136 -0.042000 0.061349 0.035814 0.010893 0.025728 0.007872 -0.083177 -0.035013 0.118355 -0.003564 0.025277 0.045880 0.054191 -0.122624 0.066738 -0.007672 -0.065922 0.102169 0.059761 -0.010154 -0.057713 0.021126 -0.034239 -0.018831 -0.053192 -0.011430 -0.026680 -0.027011 0.037631 0.017698 0.023295 0.063452 -0.067615 0.016174 0.019648 -0.046128 -0.063185 -0.013244 0.056754 0.068092 -0.020848 0.028081 0.017515 -0.036754 -0.036634 0.054527 0.074472 -0.050422 -0.002185 -0.078203 -0.095380 0.012539 0.006140 -0.038491 -0.026711 -0.053950 0.021986 -0.001251 -0.018572 0.001738 0.014836 0.009250 0.024773 -0.075695 -0.166318 -0.007800 0.024436 -0.031153 0.044684 -0.022689 -0.060285 0.012057 -0.045571 0.094485 0.063312 0.001243 0.000846 -0.054404 0.061317 -0.063088 0.041435 0.020873 -0.005551 -0.002506 0.030644 0.051049 -0.008217 -0.029903 0.032426 0.057729 -0.037639 0.008286 -0.018978 -0.064460 -0.031284 -0.038116 -0.017054 0.024621 -0.072744 -0.102357 0.042846 -0.085459 -0.051789 -0.008670 0.035075 -0.002025 -0.044839 0.018414 -0.005655 -0.018711 -0.034196 0.018572 0.064057 0.009610 0.071954 0.027742 0.048571 0.086851 0.030468 -0.007272 0.040507 0.015978 -0.029084 0.135174 -0.009110 0.085324 -0.039694 0.038985 -0.051092 0.023986 0.048073 -0.082322 -0.052580 -0.026582 -0.007971 0.014433 0.069882 0.020779 -0.003083 0.020204 -0.003195 0.010880 -0.015032 -0.040633 -0.022207 0.130452 0.001482 -0.030912 0.079850 0.030046 0.040995 -0.023113 -0.058556 -0.006431 -0.023220 0.046054 -0.031852 0.032337 0.039759 0.032583 0.022114 -0.086790 -0.097461 0.025467 0.007319 0.079082 0.003959 -0.107123 -0.013264 0.104714 0.026220 0.056312 0.042509 -0.094975 0.013511 -0.019931 -0.001269 0.029673 -0.073828 -0.015350 0.011013 0.006963 -0.073852 0.027597 0.100524 0.003306 -0.009700 -0.025624 -0.009969 -0.035003 -0.019830 0.014104 -0.011568 -0.009436 0.055233 0.146709 0.059752 0.046150 0.085130 0.011098 -0.055277 0.019597 -0.032546 0.022300 -0.081299 0.144952 -0.001910 -0.020370 -0.115311 -0.064475 0.003844 0.000888 -0.017062 -0.037522 -0.031616 0.034606 0.109848 -0.025963 -0.102685 0.093068 -0.021883 0.057225 -0.002696 0.060684 0.050988 0.041868 -0.068490 0.041217 0.053267 -0.080184 -0.128319 -0.045295 -0.029746 0.020327 -0.053417 0.076662 0.007857 0.044017 0.040994 -0.089266 -0.146268 0.081243 -0.031629 -0.012701 -0.037442 -0.065771 0.003985 0.050177 -0.026754 0.015020 0.062862 0.017834 0.004000 -0.085836 0.011641 -0.065693 -0.005709 0.045608 -0.015316 -0.071772 -0.131074 0.065836 -0.015500 -0.024906 -0.018531 0.046227 -0.003885 0.119110 -0.075827 0.082543 -0.113578 0.011983 -0.038491 -0.020569 -0.052889 0.027317 -0.016230 0.001634 -0.043669 -0.066949 -0.146273 0.033205 -0.066095 -0.061496 -0.069859 -0.019650 0.042856 -0.023666 0.020611 -0.059318 0.078261 -0.136430 -0.084286 0.028238 0.074570 0.004453 -0.136560 -0.019008 -0.032431 0.030549 -0.054277 0.148678 -0.052483 -0.068706 0.032402 0.008634 -0.030266 -0.025411 -0.001149 -0.067419 -0.047797 -0.071140 -0.042229 -0.005160 -0.003602 -0.002633 0.035204 0.024057 -0.040198 -0.038147 -0.021740 -0.035452 0.007242 0.069264 -0.039480 -0.016322 -0.002672 0.086501 -0.040308 -0.013001 0.008653 -0.039264 -0.004379 0.039520 0.024748 -0.057379 0.032120 0.008300 -0.037974 0.094243 0.112872 -0.031726 -0.022795 0.069687 -0.043406 -0.029371 0.015717 0.005163 -0.023428 0.071320 -0.017819 -0.013060 -0.101203 -0.015933 0.067617 0.056692 -0.004723 -0.021357 -0.023043 -0.036685 -0.047437 0.065134 -0.067379 -0.108424 -0.110758 0.005502 0.010526 0.012973 -0.101231 -0.019344 0.036274 -0.100295 -0.085075 -0.021633 0.093934 0.057702 -0.072787 -0.037263 -0.032316 0.014312 -0.026369 0.002577 -0.039303 0.067087 -0.013287 -0.017751 0.013188 -0.048298 -0.003341 0.009311 -0.104739 0.051687 -0.042379 0.054203 -0.027189 0.001945 -0.047592 0.017050 -0.040065 0.105682 0.012247 -0.000002 -0.010332 -0.091212 0.021085 -0.009840 -0.034763 -0.020565 0.018135 0.065486 0.001099 -0.065689 -0.046964 0.050816 -0.034999 -0.027725 -0.062036 0.001612 0.051187 -0.088879 0.019910 -0.101416 0.055176 -0.005895 -0.029810 -0.018998 0.007853 -0.004564 -0.043293 0.032131 0.072070 0.045703 -0.021905 -0.040703 0.038978 -0.003959 0.012112 -0.026511 -0.055732 0.041319 0.038399 0.004003 -0.032546 -0.051259 -0.018918 0.040207 0.060129 0.002513 -0.007047 -0.020593 0.051984 -0.019439 0.050283 0.137463 -0.107623 0.062765 -0.054456 -0.024452 -0.071521 0.013911 -0.019747 -0.001316 -0.059588 0.008743 0.057135 0.013126 0.001064 -0.047569 0.058343 -0.046485 -0.005350 -0.014891 0.012405 0.076636 0.019563 -0.015938 -0.011737 -0.086571 0.042446 0.047913 0.033640 0.023459 0.029625 0.037285 0.010115 -0.019367 0.049774 0.037289 -0.010664 0.079071 -0.014040 -0.048023 -0.026365 0.064422 0.054965 0.010170 0.044864 -0.024922 -0.032057 -0.013269 0.066516 0.053629 -0.001160 -0.017225 -0.038900 0.038221 -0.031122 -0.034464 0.034273 0.052426 -0.012156 0.019612 -0.008955 0.048691 -0.086936 0.015084 -0.080052 0.055584 -0.004867 -0.014859 -0.050819 0.040957 -0.057388 -0.015294 -0.042515 -0.081588 0.018639 0.044862 0.006323 0.219344 -0.119848 0.031271 -0.025839 0.052816 -0.004517 0.031955 0.024040 -0.045093 -0.005273 0.028556 0.032325 0.030656 0.063606 0.038750 0.025116 0.054894 0.064410 -0.003961 -0.018623 -0.108459 -0.054471 -0.061461 -0.046230 -0.008501 0.023659 -0.007538 0.018008 0.021431 0.043503 0.088733 -0.037704 0.074855 -0.027471 -0.101814 -0.059566 -0.021128 0.039339 -0.031938 0.109326 0.049143 -0.011856 -0.058416 -0.013156 -0.068333 0.097383 0.010674 -0.027514 -0.005535 -0.007650 0.074436 0.004425 -0.005427 -0.028152 0.125275 0.065004 0.002491 0.055181 -0.038110 0.053436 0.049221 0.098908 -0.119783 -0.030363 -0.052069 0.021976 -0.005357 0.014417 0.135068 0.016736 0.048843 -0.014424 0.000089 0.024866 -0.000199 0.056246 -0.010518 0.058989 -0.078668 0.036533 0.001936 -0.056774 -0.004488 0.043321 0.041851 -0.080645 0.002369 -0.061723 -0.003142 -0.037775 -0.007794 -0.123306 0.032773 -0.020670 0.047083 -0.014928 0.027162 0.015313 0.055501 -0.070341 0.001618 -0.034107 0.021606 0.003212 0.052416 -0.003584 -0.013838 -0.114700 -0.048368 -0.008567 -0.016146 -0.005173 -0.019367 -0.012131 0.018987 -0.038148 0.007218 0.000316 0.038325 -0.076990 0.052178 -0.056644 -0.070516 0.019111 -0.019116 -0.010171 0.024622 0.001611 0.012166 -0.014496 0.074917 -0.017678 0.023951 0.083016 0.017777 -0.056618 -0.006499 0.106793 0.082595 0.013886 0.012572 -0.057710 0.070178 -0.022103 0.069439 0.096238 -0.013248 0.029742 -0.048644 0.017576 -0.050022 0.097872 0.072174 0.075445 -0.100962 0.039585 -0.023027 -0.001851 -0.011708 0.067726 -0.075690 -0.019675 0.010722 -0.027346 0.027867 0.028662 -0.009490 -0.008813 -0.029803 0.027894 0.038904 0.007255 0.008211 0.021320 -0.037378 0.009685 -0.014444 -0.072280 0.071375 -0.063750 0.090118 0.008107 -0.029413 0.039063 0.032659 0.026799 0.142631 0.027418 0.035420 0.017865 0.051735 -0.024136 -0.121681 0.010931 0.012816 -0.002597 -0.025503 -0.013797 0.042974 0.065784 -0.012492 -0.020633 -0.048333 0.046509 0.109681 -0.005800 0.049182 0.127108 -0.024545 -0.112986 -0.030869 -0.061524 0.013077 -0.071824 -0.047047 -0.018339 0.051090 -0.081698 -0.004093 0.018450 -0.030744 0.001561 0.017350 0.060158 -0.101657 -0.046564 -0.008492 -0.023539 -0.053840 -0.047097 0.014573 -0.008363 -0.000336 0.055607 0.081850 0.003814 0.063798 0.058857 -0.067035 0.018950 -0.063603 0.016917 0.043185 -0.039446 0.014423 0.156227 0.064481 -0.012737 0.043691 -0.074682 -0.103152 -0.061657 -0.036856 0.001958 -0.007426 -0.014239 0.017494
32 -0.004569 0.011031 0.006622 -0.027876 -0.026051 -0.047639 -0.004038 -0.050314 -0.083903 -0.042105 -0.066150 0.016726 0.065745 -0.003159 -0.046984 0.058377 -0.019962 0.045965 -0.009887 -0.036359 0.006542 0.017450 0.031229 -0.033606 0.016239 -0.042849 0.001311 -0.007653 -0.032846 -0.002470 -0.012545 0.091943 0.063839 -0.007674 -0.043631 0.009964 0.112958 0.034381 -0.035295 -0.025093 -0.055964 0.036371 -0.021272 -0.034354 -0.055007 0.062423 0.093430 -0.005782 0.012667 -0.000077 0.018141 -0.123139 -0.049667 -0.025636 0.025223 -0.128852 0.024629 -0.010675 0.050896 -0.000123 0.054993 0.103876 0.054114 -0.076068 0.038959 -0.019396 0.008618 -0.080757 0.187398 -0.001724 -0.025416 -0.075999 0.052287 -0.089187 0.005877 -0.001950 -0.092469 -0.038127 -0.025544 0.034329 -0.033321 -0.030253 0.043305 0.014885 0.002743 -0.068723 -0.040597 0.064029 0.059445 -0.038539 0.044995 -0.015795 -0.077879 0.123098 -0.047372 -0.098136 0.095904 0.049447 -0.041009 0.053855 0.050643 0.040432 0.000232 0.054927 0.071699 0.052469 -0.075778 0.041585 0.015272 0.025490 -0.062713 0.054628 0.005156 -0.019950 0.118052 0.062499 0.025923 -0.042596 0.004787 0.016231 -0.038802 0.029759 -0.023232 0.027669 -0.069562 -0.068312 -0.035993 0.050075 -0.067068 -0.016296 -0.074605 -0.043002 0.026803 -0.059318 -0.048044 0.009073 -0.020349 0.091494 -0.049667 0.013405 -0.043420 0.002249 0.071152 -0.054554 0.076521 0.041262 -0.078013 -0.046687 -0.079317 -0.005549 0.014062 -0.113731 0.048230 0.047904 -0.042957 -0.039422 -0.048076 0.020245 0.012984 -0.051055 0.015689 0.041882 0.078233 -0.063905 0.021714 0.082824 0.113833 -0.033987 -0.012519 -0.053431 0.032731 -0.018584 0.003392 -0.070083 0.003324 -0.018529 0.043722 0.015006 -0.049425 0.053107 0.044973 0.032645 -0.061254 0.029270 0.039383 -0.004455 -0.059071 0.021932 -0.010505 -0.097561 -0.043659 -0.014511 -0.017910 -0.057707 -0.088190 0.031407 0.026691 -0.014869 0.057863 -0.040207 -0.017703 0.023731 -0.024729 -0.019980 -0.036059 0.006330 0.012942 0.050737 0.071511 0.014686 0.091202 -0.059854 0.003838 -0.068405 -0.030285 0.013785 0.031218 -0.037241 0.054263 0.010685 -0.010819 0.034433 -0.064554 0.001148 0.084918 -0.072885 -0.017183 -0.006878 0.021789 0.080242 -0.048373 0.028856 0.035133 0.037408 0.070465 -0.050561 0.033859 0.007932 -0.038895 0.060641 0.034048 0.013450 0.024578 0.012608 -0.079875 -0.035692 0.108825 -0.000767 0.028910 0.042178 0.049751 -0.115723 0.064598 -0.001294 -0.066769 0.097510 0.058340 -0.004414 -0.051198 0.021904 -0.036442 -0.013925 -0.048770 -0.013604 -0.026872 -0.026897 0.036194 0.011002 0.020829 0.052133 -0.062412 0.015838 0.016889 -0.043319 -0.060178 -0.011566 0.054219 0.057034 -0.015631 0.021390 0.016757 -0.041845 -0.034253 0.054795 0.073187 -0.046833 0.001659 -0.076328 -0.095313 0.015122 0.007552 -0.035033 -0.021298 -0.054931 0.024856 -0.000503 -0.015122 0.003103 0.015339 0.006233 0.022607 -0.074030 -0.153283 -0.005206 0.022735 -0.032644 0.041471 -0.019029 -0.056593 0.012699 -0.046611 0.089235 0.059606 -0.005048 0.004694 -0.044222 0.065610 -0.057928 0.038457 0.021334 -0.000856 -0.008644 0.023222 0.043995 -0.013815 -0.032981 0.032630 0.059102 -0.036478 0.008615 -0.019727 -0.058051 -0.025907 -0.035223 -0.018181 0.022716 -0.067425 -0.103031 0.041538 -0.082783 -0.048335 -0.008075 0.032538 -0.002688 -0.037901 0.016808 -0.002880 -0.017508 -0.039596 0.016257 0.065863 0.009827 0.067218 0.025802 0.045058 0.077505 0.029570 -0.000976 0.036634 0.015814 -0.027369 0.129496 -0.013867 0.082825 -0.038976 0.037609 -0.042264 0.023048 0.041923 -0.076932 -0.053538 -0.026907 -0.004218 0.015805 0.062803 0.023779 -0.004213 0.021936 -0.005918 0.005058 -0.012062 -0.038773 -0.015993 0.121875 0.003451 -0.032091 0.073076 0.031113 0.042683 -0.024160 -0.057725 -0.014967 -0.026567 0.043821 -0.032032 0.032729 0.035311 0.037559 0.021555 -0.086017 -0.093845 0.017883 0.006357 0.078152 -0.001175 -0.095275 -0.009435 0.100027 0.024900 0.055934 0.038643 -0.092544 0.009926 -0.021775 -0.004797 0.033249 -0.070731 -0.018776 0.013837 0.008625 -0.070711 0.024982 0.093216 0.004477 -0.007451 -0.025986 -0.011707 -0.040188 -0.018330 0.020737 -0.012517 -0.009772 0.058650 0.142121 0.059197 0.044373 0.077125 0.014859 -0.050858 0.023775 -0.026106 0.026110 -0.074725 0.138697 -0.005349 -0.024516 -0.114084 -0.058152 0.000319 -0.001164 -0.015318 -0.036555 -0.032208 0.035093 0.101330 -0.024315 -0.096280 0.092107 -0.016962 0.057102 0.004217 0.058895 0.049231 0.032999 -0.064210 0.044714 0.044212 -0.080580 -0.115973 -0.042015 -0.028468 0.022010 -0.050663 0.069818 0.007229 0.036937 0.039470 -0.084733 -0.143373 0.080046 -0.033327 -0.012705 -0.030533 -0.056405 0.005502 0.047594 -0.026738 0.017457 0.061576 0.016245 -0.003088 -0.078586 0.005771 -0.067667 -0.009316 0.046766 -0.016803 -0.066906 -0.123584 0.057576 -0.016741 -0.021242 -0.013468 0.037441 -0.004646 0.115211 -0.070928 0.072716 -0.105382 0.010337 -0.035910 -0.024876 -0.055114 0.032153 -0.016340 0.002211 -0.043301 -0.061749 -0.132871 0.031053 -0.058220 -0.056293 -0.063612 -0.024548 0.043448 -0.024017 0.018765 -0.051431 0.077284 -0.127041 -0.081852 0.027110 0.068311 0.006934 -0.125822 -0.016428 -0.031435 0.031096 -0.047312 0.146213 -0.052471 -0.072880 0.027733 0.004419 -0.024412 -0.026564 -0.008795 -0.064438 -0.047116 -0.066847 -0.036315 0.000339 -0.003198 0.000910 0.031456 0.028090 -0.034295 -0.034806 -0.022485 -0.031128 0.005005 0.064676 -0.041841 -0.016437 -0.000764 0.085399 -0.036177 -0.013700 0.005323 -0.038288 -0.009040 0.038728 0.020632 -0.057402 0.035269 0.008523 -0.036322 0.090985 0.109207 -0.028267 -0.017423 0.069526 -0.047543 -0.024525 0.014740 0.005429 -0.024906 0.072213 -0.018154 -0.014062 -0.102556 -0.009408 0.063871 0.058235 -0.005211 -0.017262 -0.023514 -0.035028 -0.045166 0.070476 -0.069857 -0.103150 -0.111197 0.005376 0.007303 0.017095 -0.101094 -0.022849 0.038501 -0.100900 -0.087537 -0.022988 0.090769 0.060335 -0.074521 -0.035057 -0.030756 0.016459 -0.015954 0.004007 -0.039635 0.063525 -0.011879 -0.013790 0.014544 -0.043315 -0.004867 0.010527 -0.102867 0.053088 -0.036101 0.053184 -0.026138 0.004792 -0.040949 0.013659 -0.034666 0.105362 0.010318 0.004229 -0.010637 -0.088020 0.025260 -0.008373 -0.034897 -0.016305 0.017987 0.064588 0.002153 -0.065364 -0.045668 0.048750 -0.038180 -0.030116 -0.058365 0.001843 0.048056 -0.088938 0.016842 -0.099394 0.053184 -0.002243 -0.030803 -0.015581 0.017072 -0.004999 -0.041330 0.032303 0.070026 0.040148 -0.020216 -0.041015 0.038878 -0.000540 0.013822 -0.022467 -0.054824 0.039704 0.036837 0.008552 -0.032080 -0.042248 -0.021280 0.037559 0.060351 0.007349 -0.005170 -0.023337 0.047376 -0.014669 0.048707 0.136432 -0.104570 0.063370 -0.055486 -0.023177 -0.070207 0.011140 -0.015369 0.000152 -0.053787 0.014978 0.058290 0.009201 0.000548 -0.047573 0.052516 -0.035221 -0.000520 -0.015843 0.011659 0.077121 0.022353 -0.012584 -0.012926 -0.080942 0.032536 0.047510 0.034362 0.025473 0.035508 0.029504 0.003507 -0.015963 0.047653 0.031677 -0.010118 0.073478 -0.018506 -0.044441 -0.021889 0.064570 0.055841 0.008487 0.046388 -0.031067 -0.034972 -0.017434 0.063431 0.049370 -0.002338 -0.018559 -0.036443 0.034210 -0.029579 -0.037947 0.028857 0.050624 -0.011614 0.023742 -0.009215 0.050945 -0.079491 0.011547 -0.074583 0.053087 -0.003234 -0.014271 -0.050993 0.041845 -0.053044 -0.017096 -0.041268 -0.071902 0.020056 0.044394 0.007879 0.210765 -0.112656 0.028934 -0.025586 0.046816 -0.003854 0.028044 0.020182 -0.042360 -0.007455 0.026142 0.035693 0.024760 0.056227 0.036690 0.023950 0.052683 0.059536 -0.006312 -0.010090 -0.100331 -0.052188 -0.057506 -0.041245 -0.011201 0.023199 -0.005771 0.017917 0.031270 0.037087 0.091517 -0.038790 0.068662 -0.026238 -0.098283 -0.055152 -0.024676 0.033656 -0.025098 0.101653 0.044012 -0.015548 -0.059548 -0.012546 -0.068673 0.090243 0.012147 -0.025662 -0.004319 -0.009324 0.065481 0.009083 -0.009793 -0.026492 0.120360 0.069075 0.010584 0.055467 -0.034490 0.050897 0.051255 0.095102 -0.116627 -0.030060 -0.046385 0.020774 -0.008371 0.013633 0.123101 0.012995 0.049509 -0.015272 -0.002822 0.018178 -0.005159 0.051798 -0.007751 0.052362 -0.075800 0.040861 0.005480 -0.053908 -0.000659 0.041405 0.035367 -0.076979 0.003916 -0.052707 0.000852 -0.034857 -0.004546 -0.122072 0.029425 -0.021881 0.046636 -0.014184 0.028409 0.011972 0.045816 -0.068202 -0.001752 -0.034092 0.025865 0.006803 0.050515 -0.012018 -0.010037 -0.107984 -0.039224 -0.008757 -0.017900 -0.007240 -0.021453 -0.013678 0.019144 -0.036150 0.002092 0.002071 0.038442 -0.073739 0.048795 -0.051087 -0.070581 0.017787 -0.016184 -0.005038 0.023488 0.001994 0.015342 -0.008925 0.070362 -0.017201 0.019284 0.081006 0.012503 -0.053918 -0.008036 0.101226 0.074396 0.011418 0.004992 -0.056378 0.064795 -0.014638 0.064968 0.088660 -0.011928 0.027465 -0.050212 0.020744 -0.045645 0.094805 0.064731 0.070694 -0.093663 0.034048 -0.024450 0.000292 -0.011991 0.063238 -0.064884 -0.021619 0.011023 -0.026711 0.023191 0.024201 -0.007476 -0.012944 -0.026896 0.026159 0.042840 0.006108 0.009721 0.016694 -0.037135 0.010715 -0.014665 -0.071628 0.072178 -0.058926 0.080548 -0.000959 -0.028391 0.036678 0.028561 0.024090 0.133555 0.025269 0.040108 0.009692 0.048394 -0.019813 -0.115565 0.005648 0.012054 0.001448 -0.022817 -0.012510 0.044434 0.057595 -0.011486 -0.015205 -0.048112 0.039698 0.102719 -0.004323 0.045586 0.123986 -0.026134 -0.103866 -0.025386 -0.060759 0.015545 -0.069198 -0.044308 -0.011907 0.041825 -0.074147 -0.005816 0.022440 -0.028687 -0.005050 0.019891 0.057513 -0.100033 -0.044961 -0.010175 -0.020928 -0.046808 -0.038752 0.009027 -0.011886 -0.002406 0.050317 0.071817 0.007505 0.058568 0.056216 -0.065128 0.021033 -0.060798 0.015718 0.039851 -0.037477 0.014476 0.140467 0.062146 -0.010513 0.039150 -0.071812 -0.094737 -0.058192 -0.033259 0.000531 -0.010588 -0.018089 0.012594
24 -0.003828 0.011634 0.006312 -0.028740 -0.027536 -0.049867 -0.003134 -0.052406 -0.087449 -0.043118 -0.069575 0.016558 0.069091 -0.002387 -0.049229 0.059982 -0.021703 0.048880 -0.010818 -0.036991 0.005939 0.018747 0.033109 -0.033497 0.017740 -0.044181 0.000988 -0.007797 -0.033811 -0.003497 -0.013926 0.097287 0.066452 -0.008185 -0.045071 0.010235 0.118004 0.036700 -0.035955 -0.026811 -0.058592 0.038006 -0.023329 -0.035403 -0.056268 0.065860 0.096938 -0.006127 0.013101 -0.000038 0.018005 -0.128260 -0.052112 -0.026705 0.028414 -0.133725 0.025796 -0.010974 0.053348 0.000372 0.056089 0.109515 0.056886 -0.080197 0.042129 -0.020072 0.009235 -0.083264 0.195978 -0.001957 -0.027551 -0.080252 0.055690 -0.094083 0.005823 -0.002049 -0.096686 -0.039191 -0.027119 0.035786 -0.036283 -0.029624 0.045801 0.015358 0.002198 -0.072099 -0.043135 0.067882 0.059871 -0.039261 0.045974 -0.015304 -0.081439 0.128817 -0.049354 -0.102773 0.099514 0.053406 -0.043379 0.056025 0.053788 0.041603 -0.000118 0.057447 0.074288 0.054002 -0.079290 0.042919 0.016585 0.026538 -0.065389 0.056646 0.005612 -0.020309 0.122319 0.063493 0.027200 -0.045916 0.004294 0.016918 -0.039974 0.029052 -0.026234 0.029220 -0.073060 -0.071557 -0.036615 0.052756 -0.069422 -0.018024 -0.077144 -0.045135 0.029454 -0.062281 -0.050691 0.010590 -0.021207 0.096543 -0.051521 0.014552 -0.045926 0.002310 0.074894 -0.058408 0.080413 0.043371 -0.081660 -0.048509 -0.083092 -0.006412 0.014547 -0.119689 0.050758 0.052474 -0.045434 -0.040335 -0.051309 0.020127 0.014506 -0.052484 0.016322 0.043985 0.082057 -0.067316 0.023074 0.085259 0.120504 -0.035452 -0.014404 -0.056226 0.033828 -0.019858 0.004167 -0.073853 0.003748 -0.019670 0.045243 0.015924 -0.051789 0.055808 0.047359 0.034836 -0.066314 0.031726 0.042342 -0.004612 -0.062860 0.023891 -0.011021 -0.102411 -0.046625 -0.014783 -0.020381 -0.061249 -0.093296 0.032622 0.027942 -0.015879 0.061511 -0.042640 -0.018379 0.026426 -0.025621 -0.020544 -0.037587 0.007235 0.014373 0.052782 0.075989 0.015181 0.096006 -0.064052 0.004812 -0.073405 -0.031832 0.015041 0.032220 -0.039374 0.057850 0.011799 -0.011789 0.036849 -0.069040 0.000900 0.091449 -0.077396 -0.018556 -0.005179 0.022523 0.084988 -0.051334 0.031077 0.038994 0.039809 0.073596 -0.053680 0.035660 0.008271 -0.040883 0.063675 0.035400 0.015755 0.026718 0.013670 -0.084425 -0.038039 0.114395 -0.001023 0.030876 0.044580 0.052788 -0.122634 0.067651 0.000555 -0.070801 0.103578 0.061692 -0.003994 -0.054449 0.023419 -0.038497 -0.013896 -0.050774 -0.015454 -0.029280 -0.029147 0.039164 0.011166 0.022528 0.054540 -0.065440 0.016640 0.017563 -0.046101 -0.064888 -0.012630 0.057583 0.058256 -0.016731 0.021381 0.017519 -0.044945 -0.036354 0.058235 0.077203 -0.049194 0.002506 -0.080933 -0.101631 0.016942 0.008222 -0.037138 -0.020976 -0.058855 0.026922 -0.000573 -0.015543 0.003886 0.016218 0.006313 0.023527 -0.079502 -0.162022 -0.005589 0.023964 -0.035461 0.044302 -0.019735 -0.059511 0.012948 -0.050259 0.094566 0.062719 -0.006373 0.005326 -0.045689 0.070726 -0.061102 0.040036 0.022861 0.000445 -0.010298 0.023330 0.045974 -0.014948 -0.036164 0.035591 0.063022 -0.038894 0.009296 -0.020203 -0.061258 -0.027095 -0.036069 -0.019439 0.024341 -0.071213 -0.109801 0.044434 -0.088445 -0.051451 -0.007969 0.034755 -0.003042 -0.039528 0.018491 -0.003431 -0.018233 -0.042718 0.017039 0.069988 0.010173 0.070573 0.027125 0.047695 0.081164 0.031796 -0.000614 0.038926 0.017093 -0.028297 0.138379 -0.015286 0.089387 -0.041767 0.039887 -0.044383 0.024126 0.043850 -0.081235 -0.057971 -0.028932 -0.003450 0.017134 0.065568 0.025782 -0.005489 0.023063 -0.006094 0.004838 -0.012977 -0.041160 -0.015560 0.128869 0.003885 -0.034767 0.077154 0.033232 0.045749 -0.026251 -0.062719 -0.017401 -0.029073 0.046655 -0.034796 0.035165 0.037794 0.040795 0.022828 -0.092795 -0.101043 0.018574 0.006261 0.083570 -0.002388 -0.101182 -0.008891 0.106609 0.026383 0.060308 0.040192 -0.098948 0.009756 -0.023661 -0.005030 0.035879 -0.075103 -0.020543 0.014870 0.010002 -0.076148 0.026685 0.099025 0.004614 -0.007092 -0.028740 -0.013153 -0.044210 -0.020046 0.023419 -0.013510 -0.010015 0.063468 0.151788 0.063091 0.048307 0.082026 0.016277 -0.054064 0.026029 -0.027142 0.029507 -0.078754 0.147577 -0.005745 -0.027451 -0.123025 -0.060646 -0.000232 -0.001320 -0.016074 -0.039909 -0.035655 0.037922 0.107467 -0.026063 -0.101996 0.098902 -0.017654 0.062151 0.004919 0.062880 0.053302 0.033881 -0.068721 0.048432 0.046226 -0.086631 -0.121548 -0.043716 -0.029605 0.023375 -0.053470 0.073572 0.006879 0.037920 0.041866 -0.089843 -0.152980 0.085153 -0.036543 -0.014160 -0.031608 -0.058795 0.005053 0.049555 -0.028281 0.019577 0.066323 0.016801 -0.004337 -0.083169 0.004355 -0.073236 -0.010193 0.049550 -0.018119 -0.071980 -0.131763 0.060305 -0.018598 -0.022479 -0.013923 0.039631 -0.005430 0.122433 -0.074891 0.076134 -0.110771 0.011544 -0.037929 -0.027156 -0.059068 0.034458 -0.017464 0.002743 -0.046405 -0.064969 -0.139418 0.032403 -0.060989 -0.059120 -0.067113 -0.026494 0.046662 -0.024988 0.019563 -0.054015 0.083345 -0.134744 -0.087497 0.028675 0.072562 0.006892 -0.132489 -0.016789 -0.033506 0.033454 -0.049774 0.156472 -0.056349 -0.078180 0.029084 0.005076 -0.024611 -0.028917 -0.010029 -0.067428 -0.050303 -0.070450 -0.038202 0.000976 -0.002332 0.001161 0.032783 0.030509 -0.035681 -0.037022 -0.023640 -0.032020 0.004243 0.068633 -0.044671 -0.017352 0.000452 0.091133 -0.038423 -0.014539 0.004281 -0.040513 -0.011436 0.042087 0.021693 -0.061730 0.038196 0.009815 -0.038775 0.096743 0.116722 -0.030069 -0.018130 0.073739 -0.051068 -0.025096 0.016305 0.005975 -0.026408 0.076570 -0.019997 -0.015975 -0.110116 -0.009545 0.067113 0.062135 -0.004676 -0.017290 -0.024720 -0.036030 -0.048155 0.075776 -0.074712 -0.109199 -0.118870 0.005027 0.007086 0.018676 -0.107526 -0.025549 0.040530 -0.108491 -0.093754 -0.024537 0.096787 0.065008 -0.079595 -0.038024 -0.032568 0.017545 -0.014946 0.004060 -0.042526 0.067916 -0.011979 -0.013759 0.014904 -0.045125 -0.005122 0.011077 -0.108537 0.056567 -0.038184 0.056309 -0.027711 0.004990 -0.042669 0.012815 -0.036281 0.113181 0.010179 0.005624 -0.011162 -0.093771 0.028474 -0.009359 -0.037868 -0.015907 0.019086 0.068712 0.002120 -0.068631 -0.048909 0.051611 -0.041075 -0.031734 -0.061880 0.002017 0.051615 -0.094246 0.017170 -0.105398 0.056627 -0.002435 -0.032380 -0.016303 0.019629 -0.005778 -0.043848 0.033971 0.075238 0.041924 -0.021344 -0.044966 0.042172 -0.000207 0.015821 -0.022826 -0.058623 0.041792 0.038869 0.010956 -0.034099 -0.043372 -0.023282 0.040269 0.065475 0.008876 -0.006060 -0.025051 0.049730 -0.014986 0.051398 0.146335 -0.110879 0.068016 -0.059287 -0.025039 -0.074811 0.011398 -0.014869 0.000334 -0.056625 0.017232 0.062715 0.009546 0.000463 -0.049716 0.054595 -0.036512 0.001116 -0.017521 0.011583 0.081740 0.023472 -0.012574 -0.013976 -0.085351 0.033307 0.050716 0.036245 0.027402 0.039251 0.030433 0.003317 -0.016342 0.050434 0.033617 -0.011844 0.078209 -0.020698 -0.046897 -0.023037 0.068492 0.059460 0.009210 0.050433 -0.034341 -0.037929 -0.019342 0.066456 0.052263 -0.001595 -0.019267 -0.039447 0.035186 -0.031763 -0.041284 0.029522 0.053831 -0.011855 0.025754 -0.009816 0.054075 -0.083407 0.011120 -0.079384 0.055498 -0.002632 -0.015216 -0.054023 0.044060 -0.055670 -0.018151 -0.043408 -0.075860 0.022460 0.046412 0.008265 0.223682 -0.118767 0.030475 -0.027457 0.049310 -0.003938 0.028975 0.020564 -0.044601 -0.007984 0.027491 0.038322 0.025925 0.059264 0.039149 0.025827 0.056486 0.062557 -0.006774 -0.009707 -0.105892 -0.056098 -0.060870 -0.044349 -0.011473 0.024088 -0.005269 0.018103 0.034898 0.038794 0.098341 -0.041954 0.072424 -0.028066 -0.103644 -0.057297 -0.027349 0.035377 -0.025497 0.107207 0.045893 -0.017254 -0.062681 -0.014106 -0.073302 0.095666 0.014055 -0.026317 -0.003531 -0.010587 0.069235 0.010304 -0.010936 -0.028870 0.127180 0.074272 0.012219 0.059118 -0.037215 0.053867 0.055460 0.101525 -0.124137 -0.032184 -0.049512 0.022642 -0.009532 0.015234 0.130672 0.013395 0.053226 -0.016650 -0.003200 0.018715 -0.006556 0.054848 -0.007694 0.054108 -0.080624 0.044484 0.006261 -0.057911 -0.000394 0.043990 0.037802 -0.082305 0.004315 -0.055338 0.002018 -0.036756 -0.004523 -0.130892 0.031294 -0.023494 0.050000 -0.014648 0.029787 0.012599 0.047385 -0.072579 -0.002749 -0.036150 0.029488 0.007658 0.054660 -0.014195 -0.010568 -0.114364 -0.040474 -0.009955 -0.019945 -0.008340 -0.023659 -0.015481 0.020122 -0.038709 0.000987 0.002436 0.041277 -0.078402 0.051447 -0.054847 -0.075699 0.018122 -0.016719 -0.003601 0.025289 0.001615 0.016697 -0.008775 0.074375 -0.018957 0.019171 0.086757 0.012089 -0.057458 -0.009452 0.107461 0.078074 0.011558 0.004360 -0.060931 0.068060 -0.015025 0.070157 0.093349 -0.013184 0.028925 -0.054257 0.022215 -0.048556 0.100803 0.067179 0.074210 -0.099759 0.035067 -0.025543 0.001511 -0.012639 0.067312 -0.068088 -0.022730 0.011286 -0.027823 0.023473 0.024717 -0.007170 -0.014473 -0.027738 0.027505 0.046710 0.006813 0.010559 0.017649 -0.040774 0.012137 -0.015754 -0.077345 0.077295 -0.062333 0.084639 -0.002454 -0.029887 0.039395 0.030659 0.025293 0.141221 0.026596 0.043479 0.008339 0.051004 -0.020327 -0.123449 0.005595 0.013129 0.002610 -0.023197 -0.014239 0.047645 0.059585 -0.011240 -0.014788 -0.052337 0.041628 0.109170 -0.003877 0.048260 0.132931 -0.028462 -0.109876 -0.026642 -0.065038 0.017261 -0.073557 -0.046952 -0.011816 0.043011 -0.077418 -0.006400 0.024721 -0.030294 -0.006332 0.022579 0.060610 -0.106136 -0.047827 -0.011382 -0.022003 -0.049317 -0.040208 0.009070 -0.013882 -0.003622 0.052280 0.075439 0.008666 0.061273 0.059802 -0.069118 0.023262 -0.063721 0.016221 0.042880 -0.038845 0.016080 0.147105 0.066790 -0.010657 0.042156 -0.076557 -0.100184 -0.062439 -0.035172 0.000862 -0.011827 -0.019976 0.012281
9 -0.004431 0.010643 0.007629 -0.028186 -0.026381 -0.046611 -0.004400 -0.050517 -0.083684 -0.043147 -0.065620 0.018312 0.064524 -0.004673 -0.044833 0.058052 -0.019347 0.043848 -0.008405 -0.036605 0.007193 0.016899 0.028706 -0.033131 0.015646 -0.041540 -0.000262 -0.005912 -0.033357 -0.001554 -0.012467 0.087263 0.062628 -0.007010 -0.043241 0.010791 0.110467 0.033889 -0.034937 -0.023940 -0.054997 0.036231 -0.019494 -0.032217 -0.055125 0.059166 0.090726 -0.004344 0.012080 0.000332 0.018247 -0.119400 -0.049803 -0.026295 0.022643 -0.128243 0.024811 -0.009463 0.050925 -0.000189 0.056968 0.103738 0.054457 -0.074887 0.037854 -0.020273 0.006345 -0.080651 0.185926 -0.000651 -0.025670 -0.076540 0.049027 -0.089749 0.006908 -0.002700 -0.091781 -0.039184 -0.024225 0.034679 -0.031611 -0.032352 0.042951 0.014029 0.001958 -0.067441 -0.039573 0.062314 0.060719 -0.039417 0.044014 -0.016198 -0.077143 0.121864 -0.047303 -0.098211 0.094214 0.047343 -0.039745 0.052316 0.049178 0.040782 -0.000015 0.053861 0.070808 0.051494 -0.073926 0.041833 0.013632 0.024876 -0.063222 0.055776 0.005333 -0.020509 0.116485 0.061973 0.022874 -0.041096 0.006024 0.014894 -0.039591 0.030719 -0.022292 0.027093 -0.069115 -0.068177 -0.037219 0.048866 -0.066350 -0.015770 -0.076484 -0.042170 0.026029 -0.059476 -0.046421 0.008804 -0.019643 0.088531 -0.050359 0.013931 -0.042352 0.003016 0.070099 -0.053436 0.075175 0.041395 -0.076577 -0.045759 -0.077790 -0.005080 0.012517 -0.111473 0.047123 0.046331 -0.043349 -0.040088 -0.048286 0.020744 0.011034 -0.051985 0.016674 0.041859 0.076631 -0.064872 0.021370 0.083990 0.112102 -0.034557 -0.010962 -0.052275 0.033933 -0.017920 0.002927 -0.069285 0.003349 -0.018159 0.043173 0.015806 -0.048612 0.053328 0.043942 0.033166 -0.058143 0.027876 0.038356 -0.003575 -0.058492 0.022022 -0.010530 -0.096065 -0.041919 -0.015743 -0.017353 -0.056142 -0.087126 0.029605 0.026226 -0.013746 0.057089 -0.040103 -0.018143 0.020775 -0.025916 -0.020589 -0.036454 0.006206 0.012157 0.050114 0.070113 0.014282 0.089798 -0.057192 0.002791 -0.066950 -0.028741 0.013414 0.030885 -0.035832 0.052580 0.009066 -0.011454 0.034941 -0.061576 0.000134 0.082251 -0.071749 -0.017701 -0.009568 0.021399 0.078755 -0.047073 0.027880 0.033522 0.036219 0.069171 -0.048926 0.031909 0.007954 -0.038357 0.058733 0.033455 0.012346 0.024941 0.010334 -0.078157 -0.033520 0.108356 -0.002405 0.026975 0.041965 0.050238 -0.114439 0.063086 -0.002658 -0.063709 0.095314 0.056365 -0.005914 -0.050943 0.020775 -0.034399 -0.015691 -0.048005 -0.012044 -0.026126 -0.026705 0.035247 0.013418 0.021528 0.054544 -0.061629 0.015054 0.017611 -0.043261 -0.060223 -0.012035 0.053190 0.058249 -0.016888 0.022286 0.016039 -0.038672 -0.033330 0.053581 0.071263 -0.046526 0.000989 -0.074826 -0.092104 0.013800 0.006215 -0.034740 -0.021913 -0.053186 0.023484 -0.000617 -0.015678 0.003038 0.014152 0.006895 0.022279 -0.072988 -0.152363 -0.006003 0.022712 -0.031437 0.041255 -0.019418 -0.055590 0.012187 -0.045609 0.088017 0.059263 -0.003691 0.003401 -0.045500 0.062731 -0.058655 0.037628 0.020055 -0.001708 -0.006928 0.024316 0.045486 -0.012103 -0.031876 0.031715 0.057302 -0.036047 0.008658 -0.018666 -0.059373 -0.027570 -0.034835 -0.017054 0.023123 -0.066833 -0.100018 0.040936 -0.080916 -0.048096 -0.007520 0.032398 -0.001740 -0.039186 0.016803 -0.004058 -0.017446 -0.036256 0.016389 0.062753 0.009905 0.066158 0.025992 0.044323 0.077192 0.028415 -0.003009 0.037139 0.015821 -0.027129 0.126383 -0.011330 0.081368 -0.038156 0.036670 -0.043317 0.021871 0.042661 -0.075351 -0.051782 -0.025416 -0.004895 0.014345 0.061976 0.021566 -0.003686 0.020346 -0.005325 0.007121 -0.012661 -0.038334 -0.017035 0.119929 0.002855 -0.030989 0.071805 0.028859 0.040275 -0.023406 -0.056195 -0.012070 -0.024816 0.042690 -0.031730 0.031679 0.035202 0.034589 0.021008 -0.083728 -0.092235 0.020087 0.006574 0.075457 0.000733 -0.095908 -0.010053 0.098189 0.024487 0.054585 0.038635 -0.090040 0.010584 -0.020391 -0.003526 0.031026 -0.069159 -0.017036 0.012499 0.007740 -0.070216 0.024615 0.091398 0.004057 -0.007265 -0.024827 -0.010764 -0.037439 -0.018242 0.018272 -0.011785 -0.007990 0.055472 0.138569 0.056794 0.044462 0.077200 0.012158 -0.050693 0.022073 -0.027048 0.024318 -0.074514 0.135803 -0.003340 -0.022730 -0.111014 -0.057693 0.001581 -0.000249 -0.015054 -0.035337 -0.031536 0.033514 0.100123 -0.024164 -0.094553 0.089537 -0.017272 0.055198 0.001711 0.056696 0.048555 0.034836 -0.062535 0.041516 0.045542 -0.076799 -0.114603 -0.040528 -0.027062 0.020703 -0.048630 0.068163 0.007246 0.037793 0.038022 -0.082339 -0.138104 0.076031 -0.031793 -0.012838 -0.031600 -0.057053 0.005217 0.046487 -0.025932 0.015773 0.059325 0.016217 -0.001381 -0.078348 0.006335 -0.064303 -0.008305 0.044207 -0.014871 -0.066516 -0.120724 0.057073 -0.016438 -0.022343 -0.015085 0.038573 -0.003968 0.112158 -0.069960 0.072268 -0.103954 0.010027 -0.034744 -0.022277 -0.052593 0.029456 -0.014940 0.002323 -0.042013 -0.060487 -0.131153 0.029479 -0.058143 -0.055610 -0.062399 -0.022261 0.042041 -0.022157 0.018432 -0.052010 0.075102 -0.125691 -0.080261 0.026522 0.067312 0.005802 -0.124657 -0.017107 -0.030272 0.029331 -0.048292 0.142263 -0.050654 -0.068712 0.027538 0.005595 -0.025000 -0.025396 -0.005275 -0.063355 -0.046112 -0.065713 -0.036217 -0.000641 -0.003076 -0.000632 0.032246 0.025994 -0.034198 -0.034317 -0.020488 -0.031334 0.004697 0.063931 -0.039787 -0.016198 -0.001397 0.082888 -0.036501 -0.013399 0.005224 -0.037174 -0.007675 0.037535 0.021251 -0.055731 0.032837 0.008422 -0.034953 0.088164 0.106556 -0.028216 -0.018485 0.066790 -0.044268 -0.024799 0.014004 0.005320 -0.023261 0.068772 -0.017607 -0.013079 -0.098720 -0.011596 0.061725 0.054859 -0.004659 -0.017544 -0.022504 -0.033086 -0.043926 0.065739 -0.066404 -0.100276 -0.105900 0.004282 0.008382 0.014873 -0.095809 -0.021416 0.036696 -0.096853 -0.083151 -0.021883 0.087815 0.056982 -0.070739 -0.034318 -0.029871 0.015592 -0.018186 0.004011 -0.037591 0.061837 -0.011790 -0.014786 0.013758 -0.042524 -0.004182 0.009200 -0.099465 0.050171 -0.037032 0.050694 -0.025222 0.003331 -0.040306 0.014107 -0.034709 0.101548 0.009903 0.003073 -0.009827 -0.085452 0.023611 -0.009196 -0.033602 -0.016207 0.016880 0.061644 0.001608 -0.062690 -0.045093 0.046927 -0.035704 -0.028329 -0.056927 0.001071 0.046939 -0.085253 0.016820 -0.095426 0.051307 -0.003604 -0.028924 -0.016286 0.013879 -0.004438 -0.039779 0.030198 0.068111 0.039341 -0.019430 -0.039437 0.037707 -0.002094 0.013556 -0.022283 -0.052366 0.037647 0.035229 0.006933 -0.030192 -0.042363 -0.020330 0.037224 0.058458 0.006626 -0.005122 -0.021266 0.046885 -0.016267 0.047384 0.131418 -0.101149 0.061010 -0.052471 -0.023239 -0.068160 0.011663 -0.015652 -0.001145 -0.053210 0.012457 0.055746 0.010766 0.000384 -0.045505 0.051781 -0.036548 -0.001510 -0.014881 0.011381 0.073762 0.020889 -0.012989 -0.012164 -0.078657 0.033559 0.045849 0.032472 0.023300 0.031812 0.030229 0.005428 -0.016172 0.046364 0.032237 -0.010035 0.072065 -0.016894 -0.043104 -0.022561 0.061962 0.052669 0.008533 0.044194 -0.028725 -0.033155 -0.015479 0.061670 0.048547 -0.001305 -0.017805 -0.035196 0.033501 -0.028341 -0.035204 0.028845 0.049016 -0.011781 0.021455 -0.008788 0.048464 -0.077459 0.011582 -0.072242 0.051286 -0.003736 -0.013991 -0.048660 0.039854 -0.051267 -0.015649 -0.039339 -0.071364 0.019232 0.042274 0.007526 0.203667 -0.109612 0.028607 -0.023855 0.046180 -0.003695 0.027168 0.020760 -0.041196 -0.006660 0.025942 0.033174 0.025548 0.056371 0.036343 0.023511 0.051266 0.058124 -0.004861 -0.012119 -0.098590 -0.051272 -0.056531 -0.041511 -0.009731 0.022346 -0.005645 0.016662 0.027349 0.037636 0.086085 -0.036754 0.067702 -0.025672 -0.094768 -0.053447 -0.022699 0.034025 -0.025593 0.100183 0.043427 -0.014122 -0.056502 -0.012509 -0.065486 0.087997 0.011062 -0.025134 -0.003759 -0.007754 0.065523 0.007902 -0.007571 -0.025513 0.116143 0.064813 0.007459 0.052633 -0.034743 0.049012 0.048337 0.092310 -0.112116 -0.029391 -0.046163 0.020843 -0.007503 0.013669 0.121914 0.013523 0.046806 -0.014858 -0.002407 0.018960 -0.003581 0.050686 -0.008842 0.052283 -0.073586 0.038055 0.003667 -0.052050 -0.001569 0.039847 0.036492 -0.075582 0.002461 -0.052455 0.000100 -0.033934 -0.005203 -0.117194 0.029125 -0.020472 0.045153 -0.013276 0.026893 0.012299 0.046510 -0.066524 -0.001124 -0.032475 0.024439 0.005405 0.049234 -0.008206 -0.011273 -0.105497 -0.040915 -0.008520 -0.016418 -0.006641 -0.020526 -0.012703 0.017965 -0.034701 0.003387 0.001600 0.036723 -0.071801 0.048016 -0.051157 -0.067434 0.017023 -0.016126 -0.006023 0.022306 0.002260 0.013977 -0.010321 0.068492 -0.016497 0.019138 0.078195 0.013023 -0.052746 -0.007245 0.097883 0.073189 0.011336 0.006482 -0.055145 0.063513 -0.016134 0.064241 0.087039 -0.011579 0.026882 -0.047697 0.019015 -0.045603 0.091881 0.064084 0.068623 -0.092250 0.034922 -0.022104 0.000278 -0.011636 0.061991 -0.065590 -0.019751 0.009696 -0.025408 0.023459 0.024399 -0.006840 -0.010865 -0.026309 0.025853 0.040283 0.005755 0.008719 0.017533 -0.036162 0.010007 -0.013945 -0.068614 0.068207 -0.057861 0.079898 0.001785 -0.026950 0.035517 0.028030 0.024517 0.129172 0.024580 0.036970 0.011045 0.047641 -0.020394 -0.112544 0.007329 0.011704 0.000486 -0.022833 -0.012681 0.040700 0.056695 -0.011288 -0.015533 -0.046559 0.040572 0.100139 -0.003957 0.044349 0.119339 -0.024935 -0.101834 -0.026211 -0.058169 0.014459 -0.067189 -0.042959 -0.013741 0.042277 -0.072245 -0.004697 0.020592 -0.027691 -0.003622 0.018505 0.055121 -0.095892 -0.043972 -0.010142 -0.021017 -0.046987 -0.040163 0.010053 -0.010322 -0.002380 0.049149 0.071658 0.006151 0.057422 0.053996 -0.062834 0.020700 -0.058934 0.015505 0.038945 -0.035400 0.013926 0.138653 0.060477 -0.010904 0.038962 -0.069896 -0.092868 -0.056464 -0.033005 0.000708 -0.009541 -0.015870 0.013059
14 -0.004970 0.011363 0.008377 -0.030437 -0.027381 -0.047271 -0.004933 -0.053319 -0.085110 -0.045241 -0.066348 0.019403 0.065683 -0.006239 -0.044811 0.059342 -0.019491 0.042671 -0.008518 -0.038619 0.008754 0.016915 0.027652 -0.034795 0.015002 -0.041259 -0.002235 -0.004778 -0.035615 -0.000417 -0.012843 0.085121 0.063256 -0.006289 -0.043836 0.012426 0.111526 0.033071 -0.035320 -0.023303 -0.056457 0.036420 -0.017976 -0.032295 -0.057212 0.057834 0.091549 -0.004472 0.012125 0.001717 0.019981 -0.119072 -0.052234 -0.026458 0.019985 -0.131545 0.024982 -0.008982 0.051137 -0.000891 0.060014 0.103373 0.055819 -0.075003 0.037719 -0.020948 0.005163 -0.081994 0.188086 -0.000727 -0.024556 -0.077782 0.046492 -0.091829 0.009211 -0.002110 -0.094245 -0.041618 -0.023765 0.035939 -0.030582 -0.036053 0.042734 0.014767 0.002297 -0.066504 -0.038925 0.062095 0.064417 -0.041999 0.043968 -0.017399 -0.077447 0.121733 -0.047496 -0.099111 0.092970 0.044969 -0.038518 0.052007 0.047857 0.041479 0.000911 0.054788 0.071361 0.052071 -0.074156 0.043368 0.012891 0.025264 -0.065120 0.058281 0.004614 -0.021119 0.118975 0.064665 0.022158 -0.039544 0.006545 0.014191 -0.040958 0.032851 -0.019263 0.026582 -0.069505 -0.070394 -0.038351 0.048898 -0.067819 -0.013499 -0.078889 -0.042646 0.025850 -0.060364 -0.046193 0.006671 -0.019748 0.086924 -0.050389 0.013475 -0.042091 0.003102 0.070212 -0.052945 0.074359 0.041639 -0.075881 -0.046673 -0.077667 -0.003792 0.011714 -0.109790 0.046915 0.043447 -0.042511 -0.042011 -0.048957 0.021310 0.009111 -0.053621 0.018887 0.044032 0.077841 -0.066371 0.021051 0.087241 0.112073 -0.036146 -0.010337 -0.052074 0.034783 -0.018289 0.001357 -0.069688 0.003438 -0.017309 0.043409 0.016513 -0.048188 0.054904 0.042985 0.033136 -0.054309 0.027359 0.036757 -0.003405 -0.057645 0.022490 -0.010523 -0.095804 -0.040349 -0.017783 -0.015205 -0.055116 -0.086879 0.028674 0.025853 -0.013466 0.056505 -0.039440 -0.018978 0.016892 -0.027749 -0.022505 -0.037771 0.007180 0.009891 0.050234 0.069280 0.014053 0.090641 -0.055946 0.000245 -0.065731 -0.028628 0.012706 0.032915 -0.034097 0.052262 0.008026 -0.011602 0.034351 -0.059111 0.000997 0.079178 -0.071966 -0.016509 -0.014223 0.021625 0.077223 -0.046057 0.026830 0.029864 0.035515 0.069033 -0.046822 0.030974 0.007879 -0.038336 0.057680 0.033189 0.010747 0.024028 0.008732 -0.076647 -0.033168 0.109443 -0.002562 0.024669 0.042466 0.050624 -0.113919 0.061619 -0.005718 -0.062034 0.094572 0.055918 -0.008174 -0.052039 0.019870 -0.033325 -0.016575 -0.048797 -0.011511 -0.025678 -0.025024 0.035694 0.014758 0.021087 0.056967 -0.062234 0.014582 0.017830 -0.042391 -0.058736 -0.012466 0.052909 0.061601 -0.018192 0.025157 0.015920 -0.035626 -0.033406 0.051334 0.070015 -0.046947 -0.001445 -0.073120 -0.089665 0.013484 0.005984 -0.034870 -0.023147 -0.051319 0.020996 -0.000836 -0.016691 0.002028 0.014125 0.008362 0.022794 -0.071234 -0.153245 -0.007191 0.022908 -0.029374 0.041183 -0.020551 -0.055374 0.011459 -0.044022 0.087796 0.058953 -0.001023 0.001328 -0.048698 0.059481 -0.058840 0.038523 0.019799 -0.003607 -0.003965 0.026862 0.047043 -0.009136 -0.029592 0.030800 0.055383 -0.035665 0.008068 -0.017874 -0.059971 -0.028335 -0.035497 -0.016573 0.022515 -0.066942 -0.096405 0.040622 -0.080675 -0.047470 -0.007698 0.032561 -0.001575 -0.040834 0.016590 -0.004979 -0.017599 -0.033771 0.016675 0.060399 0.008954 0.066983 0.025582 0.044832 0.079253 0.028631 -0.005520 0.036875 0.014936 -0.027161 0.125918 -0.010072 0.079812 -0.036659 0.037000 -0.045892 0.022499 0.044181 -0.075633 -0.049598 -0.024769 -0.006482 0.013577 0.063565 0.020095 -0.003477 0.019275 -0.003991 0.008063 -0.012866 -0.037453 -0.019444 0.120506 0.001695 -0.029314 0.073064 0.028779 0.038562 -0.021987 -0.054601 -0.008717 -0.023046 0.043168 -0.030071 0.030316 0.036164 0.031494 0.021406 -0.081871 -0.090920 0.021522 0.006964 0.073687 0.002060 -0.097824 -0.011602 0.097004 0.024330 0.053284 0.038187 -0.088095 0.011676 -0.019821 -0.001871 0.028311 -0.069112 -0.015438 0.011078 0.007524 -0.069224 0.025172 0.092303 0.003159 -0.008549 -0.024325 -0.009851 -0.033669 -0.017652 0.014832 -0.011732 -0.008934 0.053085 0.136555 0.055036 0.043492 0.077888 0.010904 -0.050355 0.019899 -0.029093 0.022030 -0.074723 0.134252 -0.002561 -0.020546 -0.107647 -0.058817 0.002759 0.000577 -0.015378 -0.034503 -0.029732 0.032449 0.100711 -0.023500 -0.094103 0.086252 -0.018681 0.053389 -0.000731 0.056070 0.047436 0.036810 -0.063338 0.039972 0.047586 -0.075257 -0.115364 -0.041366 -0.027375 0.019724 -0.048344 0.069011 0.007233 0.038950 0.037614 -0.081736 -0.134876 0.074970 -0.029909 -0.012181 -0.033122 -0.058355 0.004347 0.046467 -0.025224 0.014346 0.057456 0.015621 0.001832 -0.077977 0.008674 -0.061323 -0.006270 0.042413 -0.013993 -0.065195 -0.118991 0.058441 -0.015173 -0.022778 -0.016027 0.040324 -0.003456 0.108554 -0.068320 0.073644 -0.102879 0.010139 -0.034337 -0.020236 -0.049522 0.026248 -0.015103 0.001673 -0.039987 -0.060921 -0.131335 0.029536 -0.058997 -0.056007 -0.062522 -0.019547 0.039926 -0.021805 0.018635 -0.053030 0.072613 -0.123500 -0.077386 0.025659 0.067701 0.004088 -0.123479 -0.017013 -0.029318 0.028424 -0.048253 0.136854 -0.047987 -0.063947 0.028434 0.007254 -0.026100 -0.023534 -0.002918 -0.061454 -0.044428 -0.064461 -0.037986 -0.003407 -0.003588 -0.001995 0.031841 0.023641 -0.035586 -0.034229 -0.019810 -0.031711 0.006056 0.062139 -0.037211 -0.014976 -0.001652 0.080021 -0.035984 -0.012261 0.006634 -0.035794 -0.005466 0.036025 0.021775 -0.053426 0.030953 0.007865 -0.034287 0.085724 0.103810 -0.028225 -0.020019 0.064755 -0.041757 -0.026009 0.013717 0.004515 -0.022300 0.065733 -0.016550 -0.012962 -0.094459 -0.013268 0.061796 0.052521 -0.003852 -0.018384 -0.021247 -0.033328 -0.042920 0.060958 -0.062427 -0.098806 -0.102043 0.004468 0.009162 0.013311 -0.092934 -0.019588 0.033807 -0.093073 -0.079492 -0.020802 0.085745 0.053403 -0.067828 -0.034077 -0.029637 0.013618 -0.021588 0.002571 -0.036654 0.061266 -0.012025 -0.015710 0.012373 -0.042858 -0.003370 0.008260 -0.096365 0.048252 -0.037973 0.049682 -0.024552 0.002557 -0.042441 0.014525 -0.035729 0.098422 0.011263 0.001028 -0.009089 -0.084028 0.021446 -0.009021 -0.032487 -0.018085 0.016966 0.060396 0.000498 -0.060402 -0.043209 0.045708 -0.033092 -0.026873 -0.056298 0.001607 0.046331 -0.081971 0.017719 -0.092763 0.050088 -0.004918 -0.027651 -0.016892 0.009861 -0.004230 -0.039442 0.029209 0.066651 0.040361 -0.019485 -0.038579 0.035692 -0.002317 0.012037 -0.023544 -0.051681 0.036959 0.034994 0.005085 -0.030009 -0.044927 -0.018955 0.036468 0.055915 0.003585 -0.006042 -0.019913 0.047187 -0.017433 0.046098 0.127207 -0.098378 0.058440 -0.050902 -0.022928 -0.065796 0.012584 -0.016465 -0.000866 -0.053477 0.009391 0.053568 0.011664 0.001233 -0.044309 0.052831 -0.039208 -0.003154 -0.014678 0.011580 0.071402 0.018991 -0.013459 -0.011682 -0.079008 0.036093 0.044974 0.031576 0.022992 0.029604 0.032072 0.008008 -0.017458 0.045036 0.032975 -0.009481 0.072494 -0.014707 -0.044144 -0.023684 0.060544 0.050902 0.008799 0.042340 -0.024990 -0.030796 -0.014037 0.060485 0.049023 -0.000721 -0.016829 -0.035013 0.034518 -0.028889 -0.033362 0.030866 0.048026 -0.011329 0.018999 -0.008391 0.046269 -0.078746 0.012588 -0.072966 0.050870 -0.003849 -0.013542 -0.047589 0.038938 -0.052166 -0.014800 -0.038673 -0.073578 0.017716 0.041310 0.006429 0.202477 -0.108929 0.028634 -0.023869 0.047473 -0.003944 0.028686 0.021026 -0.041371 -0.005082 0.025959 0.031120 0.026699 0.057651 0.035584 0.023163 0.050549 0.058423 -0.003934 -0.015296 -0.098396 -0.050905 -0.055807 -0.041621 -0.008535 0.022091 -0.006805 0.016710 0.022534 0.038901 0.082968 -0.035663 0.067866 -0.025443 -0.093644 -0.054003 -0.020863 0.035258 -0.028210 0.099721 0.044194 -0.012277 -0.054890 -0.012437 -0.063539 0.088590 0.010677 -0.024748 -0.004106 -0.007521 0.067249 0.005308 -0.005896 -0.025470 0.115568 0.061279 0.004713 0.051507 -0.034994 0.049206 0.047030 0.091308 -0.110687 -0.028050 -0.047245 0.019651 -0.005803 0.013591 0.122346 0.015058 0.046198 -0.014408 -0.001275 0.021115 -0.001280 0.051036 -0.009770 0.052616 -0.072725 0.034989 0.002952 -0.051937 -0.002403 0.039510 0.036842 -0.074604 0.002221 -0.054796 -0.001766 -0.034487 -0.006397 -0.114386 0.029350 -0.019209 0.043986 -0.013722 0.025925 0.013358 0.049415 -0.065619 0.000518 -0.031365 0.021266 0.004691 0.048555 -0.005784 -0.012162 -0.104574 -0.042504 -0.008432 -0.015088 -0.004951 -0.018718 -0.012374 0.017770 -0.034990 0.004928 0.001093 0.036116 -0.071512 0.047789 -0.051753 -0.065987 0.017328 -0.016886 -0.007856 0.022003 0.002151 0.011652 -0.012044 0.068005 -0.016254 0.020809 0.076893 0.014481 -0.052224 -0.006939 0.097039 0.074778 0.012331 0.009661 -0.053751 0.063319 -0.019050 0.063026 0.087020 -0.012126 0.027324 -0.045693 0.017325 -0.045446 0.090411 0.064849 0.069012 -0.091515 0.035444 -0.021102 -0.001131 -0.010682 0.062034 -0.067467 -0.018204 0.009855 -0.025520 0.024506 0.025847 -0.007869 -0.009141 -0.027039 0.025430 0.036950 0.006777 0.007729 0.018512 -0.035204 0.009144 -0.014071 -0.066614 0.065992 -0.057988 0.080794 0.005423 -0.026466 0.035877 0.029457 0.024847 0.129626 0.025115 0.034362 0.014537 0.046788 -0.020872 -0.111121 0.009605 0.012073 -0.001049 -0.023346 -0.012993 0.039564 0.058658 -0.011698 -0.017775 -0.044598 0.042151 0.100451 -0.004829 0.045388 0.116966 -0.022770 -0.102551 -0.027262 -0.056254 0.013183 -0.066282 -0.042893 -0.015279 0.045420 -0.073330 -0.003832 0.018314 -0.028158 -0.000596 0.016502 0.054976 -0.094136 -0.042937 -0.008922 -0.021385 -0.047763 -0.041607 0.011966 -0.008309 -0.000757 0.049699 0.073672 0.005343 0.058365 0.054067 -0.062160 0.018363 -0.058359 0.015342 0.039540 -0.036150 0.013592 0.141004 0.059020 -0.011065 0.039621 -0.068773 -0.094124 -0.056155 -0.032985 0.001446 -0.007890 -0.014182 0.015496
