34 1024
34 -0.013180 0.004884 0.005224 -0.020306 -0.020956 -0.055372 -0.002841 -0.049223 -0.087510 -0.037988 -0.078832 0.023428 0.065364 -0.002202 -0.052095 0.053163 -0.025652 0.059569 -0.012784 -0.047061 0.006020 0.020619 0.043051 -0.038695 0.021182 -0.039547 0.004634 -0.019301 -0.035919 -0.002900 -0.013519 0.100295 0.068795 -0.013484 -0.045934 0.013490 0.119035 0.035718 -0.042820 -0.036747 -0.056428 0.036676 -0.030457 -0.037963 -0.056631 0.066517 0.101970 0.001687 0.020366 -0.004290 0.019201 -0.135183 -0.049970 -0.015674 0.043110 -0.131876 0.028138 -0.022733 0.051896 0.002417 0.057492 0.108534 0.062060 -0.080939 0.052123 -0.012736 0.014364 -0.093171 0.209852 -0.004243 -0.024250 -0.087870 0.064975 -0.098901 -0.000599 -0.009499 -0.099619 -0.048853 -0.025783 0.026788 -0.035126 -0.018752 0.039755 0.023201 0.009334 -0.076232 -0.041394 0.063632 0.058686 -0.048815 0.047800 -0.010486 -0.082887 0.127889 -0.052060 -0.106003 0.103480 0.054006 -0.042905 0.059166 0.058590 0.043080 0.001941 0.051390 0.080299 0.061772 -0.079211 0.032340 0.007810 0.026577 -0.071359 0.049468 0.000642 -0.010649 0.124231 0.065793 0.035403 -0.046553 0.003276 0.025052 -0.040703 0.029932 -0.033492 0.026922 -0.079124 -0.080574 -0.036597 0.058871 -0.068388 -0.017587 -0.087267 -0.038048 0.031522 -0.059004 -0.049529 0.017796 -0.017260 0.104978 -0.062649 0.018031 -0.051282 -0.004823 0.072940 -0.065089 0.096210 0.033270 -0.086302 -0.054793 -0.092766 -0.004850 0.024111 -0.138605 0.048498 0.062727 -0.050477 -0.042479 -0.057858 0.014840 0.018624 -0.048713 0.017468 0.043352 0.080938 -0.064821 0.034042 0.102178 0.137928 -0.037461 -0.023268 -0.059122 0.043653 -0.011607 0.006014 -0.073908 0.004260 -0.020346 0.049208 0.022013 -0.053085 0.059009 0.049095 0.033486 -0.074778 0.033376 0.045430 -0.001555 -0.063097 0.027067 -0.008083 -0.109280 -0.041161 -0.021195 -0.018209 -0.069251 -0.100797 0.034795 0.038467 -0.015870 0.057379 -0.049606 -0.017280 0.035994 -0.023570 -0.013964 -0.035487 0.005432 0.015627 0.054891 0.080405 0.025198 0.089264 -0.066817 -0.003130 -0.075599 -0.034203 0.013186 0.035603 -0.042093 0.065834 0.019567 -0.004759 0.029790 -0.078328 -0.003493 0.099738 -0.077989 -0.018801 -0.000749 0.024336 0.091445 -0.050802 0.033169 0.040006 0.043854 0.083409 -0.053558 0.047606 -0.002927 -0.048319 0.065585 0.035611 0.014555 0.032769 0.013428 -0.096480 -0.034361 0.116615 -0.000062 0.037804 0.045081 0.060480 -0.134671 0.074125 0.002478 -0.070043 0.105756 0.056573 -0.007963 -0.050246 0.017092 -0.042675 -0.016768 -0.046536 -0.021797 -0.026336 -0.034971 0.038596 0.015217 0.027859 0.052246 -0.078225 0.024005 0.007063 -0.052283 -0.071266 -0.005423 0.057061 0.054886 -0.008140 0.032218 0.010037 -0.048789 -0.025514 0.069507 0.083290 -0.041032 0.006175 -0.078553 -0.105913 0.015526 0.008725 -0.035680 -0.023029 -0.071733 0.017333 0.004325 -0.016610 -0.002120 0.019473 0.013937 0.022945 -0.076819 -0.163548 -0.008560 0.021885 -0.033084 0.033058 -0.018215 -0.052821 0.012213 -0.057999 0.088398 0.069845 -0.011959 0.007114 -0.054677 0.078857 -0.062322 0.035066 0.016567 -0.009960 -0.017741 0.029027 0.045074 -0.025385 -0.053104 0.034803 0.061671 -0.029113 0.015092 -0.024479 -0.067395 -0.034723 -0.033053 -0.015301 0.028814 -0.069031 -0.125451 0.048866 -0.089380 -0.056956 -0.007294 0.030040 -0.002916 -0.045223 0.018668 0.000032 -0.032341 -0.048578 0.007731 0.074689 -0.001656 0.072662 0.034104 0.049493 0.076399 0.026905 0.001753 0.041954 0.017658 -0.035964 0.144209 -0.020010 0.091336 -0.042533 0.045336 -0.045323 0.028039 0.049483 -0.082772 -0.056006 -0.039519 0.003498 0.021412 0.070269 0.025382 -0.012924 0.031791 -0.013814 0.000216 -0.007740 -0.049071 -0.006889 0.130521 0.000104 -0.030825 0.073873 0.025238 0.047619 -0.020373 -0.068807 -0.019237 -0.032375 0.038554 -0.035618 0.030501 0.040357 0.042499 0.027584 -0.098811 -0.104107 0.018631 0.019244 0.080651 -0.006343 -0.103587 -0.006046 0.105969 0.020964 0.072580 0.038893 -0.112088 0.012175 -0.033574 -0.015987 0.036623 -0.070398 -0.017546 0.018653 0.010319 -0.072053 0.035305 0.107943 0.018889 0.008057 -0.032938 -0.007688 -0.041441 -0.031254 0.028478 -0.020495 -0.008682 0.060208 0.152605 0.069424 0.045659 0.083813 0.016686 -0.058325 0.035099 -0.027769 0.039445 -0.075813 0.149480 -0.013256 -0.021694 -0.124533 -0.061533 -0.013526 0.000103 -0.027747 -0.048505 -0.048333 0.031730 0.116228 -0.025156 -0.111019 0.100277 -0.016573 0.069364 0.011961 0.055369 0.062811 0.033989 -0.064568 0.049828 0.038045 -0.090111 -0.112646 -0.050470 -0.030004 0.019445 -0.051990 0.069496 0.012571 0.034230 0.044510 -0.099885 -0.160935 0.092972 -0.038958 -0.028293 -0.035706 -0.062498 0.016393 0.049723 -0.028363 0.023139 0.069610 0.018337 -0.004312 -0.083424 0.005707 -0.076049 -0.021502 0.065954 -0.014718 -0.069274 -0.134584 0.059583 -0.013604 -0.024284 -0.023915 0.038534 -0.001907 0.126656 -0.074502 0.076524 -0.115435 0.015929 -0.043055 -0.023889 -0.061380 0.039406 -0.018241 0.002086 -0.044353 -0.063714 -0.143118 0.030640 -0.058128 -0.057906 -0.065950 -0.027290 0.054210 -0.036301 0.025174 -0.055109 0.091389 -0.146734 -0.103679 0.030851 0.066368 0.020236 -0.138751 -0.026097 -0.028867 0.035455 -0.055249 0.160161 -0.052768 -0.073914 0.024204 0.001708 -0.021269 -0.031311 -0.010736 -0.075065 -0.045773 -0.074426 -0.028489 0.013591 0.000779 0.006675 0.030304 0.036427 -0.029588 -0.032320 -0.021646 -0.030818 -0.004362 0.068463 -0.049079 -0.024794 -0.002470 0.093100 -0.036104 -0.021064 0.011727 -0.041184 -0.024925 0.041605 0.018650 -0.062726 0.033698 0.011674 -0.032545 0.088637 0.112943 -0.038785 -0.013046 0.062619 -0.059231 -0.031362 0.021195 0.017697 -0.030274 0.070491 -0.026773 -0.022989 -0.118649 -0.006693 0.064364 0.060948 -0.007003 -0.020002 -0.031778 -0.046239 -0.048249 0.078801 -0.083650 -0.108118 -0.120221 0.007058 -0.001955 0.018899 -0.114737 -0.031796 0.044963 -0.118494 -0.092584 -0.022941 0.107340 0.068596 -0.084874 -0.038214 -0.038786 0.028059 -0.013556 0.006507 -0.039074 0.076272 -0.010470 -0.008490 0.012198 -0.045741 -0.000736 0.014789 -0.107794 0.051780 -0.049085 0.046789 -0.017981 0.013337 -0.035414 0.019571 -0.040924 0.128388 0.017020 0.001602 -0.001681 -0.102648 0.042064 -0.007311 -0.043614 -0.024410 0.011920 0.073601 -0.001231 -0.078157 -0.041043 0.050958 -0.048934 -0.039385 -0.071380 0.002218 0.054065 -0.103005 0.020314 -0.116122 0.055237 -0.001905 -0.030938 -0.015933 0.017984 -0.007793 -0.050331 0.023101 0.075572 0.030645 -0.019828 -0.040052 0.046972 0.003447 0.002811 -0.022052 -0.053286 0.039759 0.045034 0.011190 -0.038062 -0.047876 -0.037140 0.045280 0.072072 0.019241 -0.003600 -0.033236 0.044195 -0.020414 0.051766 0.150929 -0.116576 0.064365 -0.053455 -0.034275 -0.086759 0.022726 -0.026309 0.002857 -0.063673 0.012911 0.064593 -0.001446 -0.009195 -0.049768 0.058239 -0.034705 0.006768 -0.015419 0.024629 0.086483 0.021899 -0.004455 -0.007481 -0.088158 0.017798 0.053569 0.037134 0.032750 0.043795 0.023827 0.002965 -0.016182 0.047855 0.031617 -0.019453 0.074963 -0.021125 -0.050865 -0.029952 0.070824 0.064344 0.015595 0.052681 -0.029399 -0.045810 -0.035546 0.068873 0.046092 -0.007569 -0.016428 -0.040707 0.028678 -0.035729 -0.034316 0.030554 0.054089 -0.021360 0.028520 -0.001600 0.067993 -0.096249 0.014878 -0.085747 0.058014 0.000158 -0.015130 -0.059681 0.058181 -0.043373 -0.015800 -0.037752 -0.066226 0.027848 0.054731 0.010498 0.237255 -0.128901 0.035707 -0.030958 0.048944 -0.003232 0.021562 0.029075 -0.047751 -0.005378 0.031589 0.040583 0.029783 0.063644 0.049835 0.028319 0.055273 0.059215 -0.016356 -0.010507 -0.109467 -0.051870 -0.057157 -0.045550 -0.010624 0.021683 -0.006963 0.016334 0.033080 0.045258 0.101145 -0.049533 0.072865 -0.032749 -0.103917 -0.050173 -0.022024 0.048159 -0.032011 0.106410 0.045442 -0.025496 -0.071909 -0.021440 -0.073759 0.108553 0.022919 -0.031338 -0.008671 -0.008158 0.073650 0.017864 -0.013998 -0.034467 0.133782 0.079605 0.018309 0.065590 -0.037181 0.050081 0.068840 0.108900 -0.129229 -0.029187 -0.052327 0.020346 -0.006072 0.008432 0.132506 0.008909 0.054267 -0.020096 -0.016139 0.015239 -0.010835 0.054964 -0.014693 0.054075 -0.080732 0.049356 0.000192 -0.065014 -0.007569 0.047289 0.033709 -0.087004 0.000204 -0.059560 -0.001586 -0.030756 -0.007029 -0.137234 0.033220 -0.022757 0.056148 -0.016143 0.032896 0.010038 0.043621 -0.077462 -0.005479 -0.040823 0.024349 -0.007845 0.058299 -0.021310 -0.010247 -0.119531 -0.045269 -0.007503 -0.025776 -0.009325 -0.022619 -0.017886 0.020283 -0.033643 -0.007367 0.004259 0.040894 -0.095544 0.046518 -0.053157 -0.077253 0.018357 -0.010660 -0.000919 0.014141 0.005465 0.016380 -0.015285 0.081750 -0.015786 0.026683 0.092678 0.021057 -0.065696 -0.006796 0.112888 0.079335 0.011250 0.006572 -0.066584 0.069577 -0.019732 0.061886 0.096300 -0.010667 0.038045 -0.063485 0.023129 -0.060622 0.091799 0.069182 0.083547 -0.107398 0.031141 -0.032732 -0.006626 -0.005746 0.063006 -0.069119 -0.028687 0.009220 -0.023682 0.021102 0.026562 -0.005449 -0.024587 -0.022656 0.031865 0.053536 0.006675 0.007224 0.012164 -0.038646 0.014262 -0.018171 -0.090385 0.078074 -0.062851 0.079969 -0.005612 -0.023338 0.050641 0.029133 0.041611 0.140772 0.028711 0.037850 0.007471 0.056739 -0.025243 -0.131970 0.008601 0.023187 0.003379 -0.023819 -0.007383 0.047090 0.065482 -0.014431 -0.004595 -0.061301 0.048158 0.105820 0.005685 0.053273 0.141469 -0.034238 -0.110548 -0.025093 -0.061822 0.020965 -0.070082 -0.042410 -0.010400 0.033515 -0.079581 -0.007720 0.023692 -0.031958 -0.010554 0.029654 0.064130 -0.106385 -0.056719 -0.010674 -0.020570 -0.047173 -0.029875 0.014680 -0.016179 0.009208 0.056739 0.067106 0.010575 0.056874 0.057506 -0.067468 0.029797 -0.062943 0.019715 0.043906 -0.045149 0.017013 0.144108 0.061198 -0.017385 0.049278 -0.091652 -0.092498 -0.063548 -0.037984 0.004913 -0.007188 -0.019332 -0.001374
1 -0.015889 0.005273 0.011829 -0.026521 -0.024701 -0.056999 -0.006230 -0.056268 -0.095114 -0.050926 -0.082974 0.033974 0.065664 -0.011941 -0.052930 0.061956 -0.021053 0.053910 -0.006807 -0.054678 0.010948 0.018084 0.033430 -0.044429 0.015085 -0.039324 -0.005260 -0.010705 -0.045027 0.003603 -0.015252 0.085980 0.069521 -0.007208 -0.049031 0.019290 0.121272 0.033588 -0.045910 -0.030030 -0.059033 0.041632 -0.020100 -0.035723 -0.064077 0.058827 0.104392 0.005462 0.017379 0.000949 0.022081 -0.131382 -0.060406 -0.019660 0.029172 -0.149423 0.028786 -0.018905 0.059660 0.000847 0.073524 0.110833 0.066524 -0.079568 0.047302 -0.018273 0.006165 -0.098369 0.221726 -0.000399 -0.024654 -0.096032 0.053096 -0.107660 0.009895 -0.009518 -0.111825 -0.060561 -0.024298 0.032099 -0.026616 -0.035397 0.043171 0.023046 0.006860 -0.080383 -0.043448 0.068223 0.081447 -0.065836 0.052892 -0.017126 -0.096518 0.145250 -0.060400 -0.125962 0.114789 0.050479 -0.045695 0.065268 0.060153 0.048083 0.004057 0.055683 0.087162 0.065703 -0.082292 0.043762 0.003506 0.027774 -0.083145 0.064778 0.001839 -0.017347 0.138986 0.078426 0.026402 -0.040536 0.009410 0.020610 -0.047124 0.039887 -0.026006 0.023381 -0.080377 -0.086705 -0.045786 0.056588 -0.072026 -0.011850 -0.098520 -0.040588 0.026790 -0.066601 -0.048127 0.009730 -0.017866 0.096402 -0.065946 0.018266 -0.045316 -0.000447 0.073067 -0.061597 0.089282 0.036261 -0.080115 -0.057092 -0.090564 -0.001728 0.014585 -0.130966 0.044278 0.050271 -0.050958 -0.050766 -0.058576 0.018727 0.008530 -0.056453 0.025069 0.046408 0.078704 -0.068628 0.034799 0.112893 0.130734 -0.042922 -0.016001 -0.055109 0.049237 -0.010445 -0.001176 -0.077252 0.002847 -0.016177 0.048245 0.026731 -0.051370 0.065956 0.045829 0.034281 -0.056401 0.028463 0.038639 0.002089 -0.062383 0.028024 -0.009449 -0.107211 -0.034581 -0.029601 -0.011187 -0.059227 -0.097147 0.028216 0.037621 -0.011655 0.054151 -0.045569 -0.019786 0.017086 -0.031250 -0.022300 -0.039520 0.008216 0.008846 0.054823 0.077103 0.021583 0.092757 -0.055777 -0.009518 -0.070180 -0.032876 0.012229 0.039075 -0.035558 0.058170 0.013951 -0.004702 0.029651 -0.062610 -0.002573 0.083783 -0.078471 -0.017465 -0.022841 0.026404 0.084209 -0.043897 0.026785 0.028554 0.036791 0.080085 -0.048118 0.039275 0.001237 -0.047726 0.060543 0.034531 0.006614 0.032457 0.002986 -0.091785 -0.028295 0.120286 -0.002941 0.029207 0.043878 0.059060 -0.129387 0.068917 -0.009284 -0.059939 0.099602 0.051754 -0.016293 -0.054537 0.013226 -0.033695 -0.024523 -0.048888 -0.016217 -0.025269 -0.030049 0.036897 0.025572 0.028108 0.066145 -0.077181 0.021522 0.011099 -0.050849 -0.067619 -0.007904 0.054882 0.070145 -0.015670 0.040857 0.012484 -0.035131 -0.025775 0.061521 0.075566 -0.040923 -0.002861 -0.073007 -0.094324 0.008104 0.007007 -0.036489 -0.031423 -0.062833 0.012737 0.002754 -0.018578 -0.001978 0.012289 0.016510 0.021635 -0.072589 -0.169202 -0.013008 0.023114 -0.028048 0.037904 -0.022790 -0.054601 0.011035 -0.048837 0.088843 0.072300 0.001717 -0.000220 -0.063718 0.063474 -0.062986 0.037452 0.015398 -0.017767 -0.004291 0.039228 0.051425 -0.014581 -0.043042 0.028543 0.055138 -0.031249 0.012626 -0.022502 -0.071716 -0.043271 -0.035234 -0.013053 0.030088 -0.071205 -0.110529 0.045732 -0.084498 -0.058196 -0.009995 0.030498 -0.000875 -0.050108 0.019736 -0.006797 -0.029456 -0.034364 0.011521 0.063441 -0.001739 0.075220 0.035471 0.050684 0.084420 0.023933 -0.010021 0.045037 0.015436 -0.036470 0.138604 -0.008988 0.086949 -0.038595 0.042132 -0.056277 0.027324 0.053808 -0.080741 -0.047758 -0.034348 -0.002067 0.015559 0.072579 0.014743 -0.009166 0.022166 -0.006702 0.010278 -0.012359 -0.048631 -0.016784 0.130759 -0.003298 -0.025763 0.077524 0.020216 0.038329 -0.016473 -0.062795 -0.003246 -0.024237 0.037242 -0.033229 0.026895 0.042439 0.029958 0.022438 -0.089400 -0.096590 0.030235 0.018914 0.071553 0.001846 -0.109862 -0.011766 0.103905 0.022415 0.062548 0.039156 -0.103299 0.017958 -0.026161 -0.007966 0.027498 -0.066987 -0.009249 0.013264 0.008427 -0.069506 0.035369 0.107002 0.017348 0.003173 -0.032416 -0.004579 -0.028979 -0.033166 0.017434 -0.016907 -0.005419 0.050202 0.151695 0.067952 0.046377 0.094383 0.010037 -0.061458 0.023412 -0.038051 0.030851 -0.080856 0.149484 -0.006040 -0.013297 -0.115641 -0.067491 -0.005971 0.006431 -0.028044 -0.045236 -0.045882 0.031103 0.122944 -0.027002 -0.115792 0.095929 -0.025163 0.067454 0.000118 0.056185 0.063521 0.047396 -0.069990 0.042105 0.050592 -0.084837 -0.127269 -0.052141 -0.029191 0.015079 -0.048753 0.072523 0.013634 0.041390 0.042334 -0.095731 -0.144322 0.080951 -0.032303 -0.023971 -0.041673 -0.071352 0.013358 0.048998 -0.024949 0.019640 0.061439 0.019866 0.009080 -0.084978 0.013672 -0.065728 -0.011118 0.055167 -0.010608 -0.068503 -0.132431 0.067835 -0.010317 -0.029560 -0.031771 0.049288 0.000427 0.123437 -0.078183 0.085864 -0.120454 0.016511 -0.042489 -0.013889 -0.053838 0.030045 -0.016217 0.002022 -0.040452 -0.067351 -0.151595 0.032333 -0.066724 -0.063217 -0.071342 -0.014385 0.047996 -0.032734 0.026686 -0.063937 0.085292 -0.151821 -0.097100 0.031906 0.072691 0.014893 -0.146936 -0.028611 -0.030795 0.029513 -0.062064 0.154524 -0.048842 -0.061613 0.030774 0.009353 -0.029577 -0.025373 0.005033 -0.077654 -0.046324 -0.077001 -0.040211 0.004108 -0.002239 -0.001768 0.034849 0.027637 -0.038098 -0.035827 -0.017496 -0.036350 -0.000720 0.072496 -0.042292 -0.023255 -0.007868 0.087479 -0.041359 -0.019004 0.016670 -0.042090 -0.016674 0.041125 0.026829 -0.061631 0.028400 0.011175 -0.034001 0.095110 0.117114 -0.044437 -0.025064 0.063129 -0.049270 -0.040317 0.022539 0.015609 -0.025332 0.064827 -0.022619 -0.019676 -0.106409 -0.016149 0.069777 0.055131 -0.005850 -0.024447 -0.028534 -0.043382 -0.047443 0.064348 -0.072101 -0.110055 -0.111390 0.007154 0.004173 0.008643 -0.105477 -0.023192 0.039567 -0.108434 -0.079086 -0.018410 0.104337 0.058805 -0.077142 -0.040892 -0.037156 0.023960 -0.030681 0.004327 -0.036002 0.075807 -0.012977 -0.015451 0.009035 -0.049791 0.002058 0.009682 -0.100518 0.043774 -0.054746 0.044205 -0.019831 0.006388 -0.043528 0.024056 -0.044705 0.115486 0.016869 -0.005645 -0.002001 -0.097810 0.029536 -0.006531 -0.038355 -0.029330 0.010625 0.068327 -0.001713 -0.070724 -0.040449 0.050284 -0.038264 -0.032106 -0.070954 0.002192 0.053126 -0.091991 0.023749 -0.108075 0.051816 -0.008606 -0.026287 -0.018891 0.000246 -0.007475 -0.045575 0.019852 0.069948 0.036239 -0.017680 -0.034789 0.042856 -0.002899 -0.000322 -0.024095 -0.050834 0.039342 0.040425 0.000574 -0.034607 -0.056331 -0.026908 0.046838 0.064366 0.008791 -0.007210 -0.024942 0.048141 -0.025431 0.048153 0.137952 -0.110999 0.057080 -0.045819 -0.032677 -0.078960 0.025499 -0.032840 -0.000856 -0.068329 -0.000542 0.054506 0.004870 -0.008062 -0.043103 0.063375 -0.050864 -0.004695 -0.011839 0.023177 0.079491 0.016930 -0.009720 -0.004668 -0.087903 0.034194 0.049911 0.028596 0.028769 0.026224 0.033832 0.013366 -0.019245 0.046173 0.038118 -0.017589 0.073930 -0.010034 -0.052460 -0.031762 0.061566 0.055146 0.014817 0.041670 -0.015462 -0.035434 -0.023652 0.063736 0.046872 -0.004211 -0.011946 -0.037232 0.032129 -0.033961 -0.022678 0.033769 0.049520 -0.018787 0.015405 -0.000296 0.052629 -0.089868 0.018951 -0.078633 0.051546 -0.002389 -0.014444 -0.048429 0.046705 -0.063158 -0.014151 -0.051165 -0.101252 0.022871 0.045969 0.005983 0.211574 -0.117957 0.034491 -0.024616 0.049955 -0.004470 0.025667 0.030477 -0.043123 -0.001730 0.032455 0.029571 0.034193 0.066476 0.047843 0.028082 0.052741 0.060815 -0.007831 -0.022678 -0.110533 -0.049236 -0.057292 -0.048550 -0.004530 0.019549 -0.009774 0.014528 0.012218 0.050517 0.082456 -0.040911 0.074269 -0.030941 -0.096970 -0.053738 -0.013146 0.052334 -0.040343 0.107074 0.048004 -0.017792 -0.063650 -0.021544 -0.065065 0.108561 0.016751 -0.032048 -0.010866 -0.002895 0.082489 0.008478 -0.003774 -0.032279 0.126704 0.062927 0.000098 0.059316 -0.039065 0.049759 0.057925 0.103761 -0.120966 -0.026394 -0.056473 0.018581 -0.000562 0.008651 0.132365 0.014013 0.045018 -0.015123 -0.009284 0.021596 -0.002024 0.055494 -0.018819 0.057692 -0.075074 0.033894 -0.006422 -0.058614 -0.014830 0.042101 0.041367 -0.080061 -0.002122 -0.065456 -0.009392 -0.030107 -0.012755 -0.119898 0.034164 -0.020221 0.049862 -0.016553 0.025427 0.016545 0.053079 -0.069594 0.001865 -0.036086 0.013116 -0.013457 0.053015 -0.003557 -0.016365 -0.112491 -0.053609 -0.006615 -0.021433 -0.004131 -0.016452 -0.012829 0.016402 -0.031654 0.001260 0.000204 0.035269 -0.086100 0.042846 -0.055003 -0.068987 0.016919 -0.014256 -0.011482 0.013996 0.004926 0.008097 -0.021718 0.077805 -0.013497 0.030244 0.083582 0.025912 -0.059271 -0.004400 0.106537 0.082863 0.011574 0.017697 -0.060962 0.068570 -0.030256 0.058206 0.096697 -0.010551 0.039507 -0.050355 0.015892 -0.059271 0.083976 0.072834 0.081371 -0.105718 0.037117 -0.026375 -0.010953 -0.005265 0.063140 -0.078239 -0.021377 0.008849 -0.022292 0.028407 0.030305 -0.011015 -0.015274 -0.025209 0.032246 0.042594 0.006674 0.005736 0.019710 -0.033234 0.010157 -0.015214 -0.082149 0.068189 -0.066191 0.088433 0.011215 -0.023011 0.049985 0.031470 0.040928 0.140107 0.030334 0.025018 0.019521 0.057867 -0.029655 -0.127872 0.017659 0.022015 -0.005236 -0.027668 -0.008292 0.037943 0.070456 -0.013403 -0.015161 -0.058200 0.058127 0.110030 0.002240 0.058407 0.138840 -0.031532 -0.119345 -0.035218 -0.058659 0.017952 -0.073018 -0.046167 -0.022769 0.048931 -0.089896 -0.007142 0.015449 -0.033326 0.000930 0.022429 0.063998 -0.102366 -0.057166 -0.007264 -0.024494 -0.056699 -0.043900 0.024222 -0.005736 0.011174 0.062642 0.080161 0.002950 0.064327 0.057251 -0.067591 0.024294 -0.066448 0.022721 0.045412 -0.046864 0.017562 0.162859 0.059834 -0.019741 0.054588 -0.091745 -0.100319 -0.065988 -0.044341 0.008887 -0.004086 -0.009356 0.007466
33 -0.014234 0.005567 0.005660 -0.020902 -0.022674 -0.056078 -0.003398 -0.051035 -0.090908 -0.040164 -0.082043 0.025495 0.067274 -0.002487 -0.053117 0.055215 -0.025949 0.060771 -0.013095 -0.049091 0.007034 0.021041 0.043576 -0.039726 0.021898 -0.040651 0.004259 -0.019831 -0.037614 -0.002374 -0.014904 0.102042 0.070541 -0.012548 -0.046679 0.013992 0.122028 0.036799 -0.044010 -0.036928 -0.058249 0.037614 -0.029631 -0.039235 -0.058393 0.068003 0.104807 0.001422 0.021115 -0.003913 0.018998 -0.138827 -0.051881 -0.017235 0.042840 -0.137167 0.029125 -0.022120 0.053773 0.002547 0.059401 0.111486 0.063792 -0.083464 0.053315 -0.014349 0.015175 -0.096516 0.215910 -0.003225 -0.024456 -0.090731 0.065931 -0.101357 -0.000817 -0.008895 -0.101844 -0.049844 -0.026042 0.027223 -0.034715 -0.019398 0.041375 0.022641 0.009439 -0.078571 -0.042518 0.065688 0.061643 -0.050343 0.048796 -0.011448 -0.085433 0.131827 -0.053374 -0.108615 0.106291 0.054695 -0.043894 0.060679 0.060240 0.044529 0.002149 0.053227 0.082229 0.062107 -0.080484 0.033525 0.007966 0.026770 -0.072508 0.051359 0.001282 -0.011406 0.127397 0.067821 0.035549 -0.046501 0.003971 0.024857 -0.042906 0.031817 -0.034535 0.026814 -0.081486 -0.082868 -0.038900 0.059006 -0.070410 -0.017275 -0.089880 -0.039591 0.031317 -0.061277 -0.050500 0.017023 -0.017198 0.106668 -0.064189 0.018237 -0.051969 -0.005452 0.074684 -0.067098 0.097429 0.034256 -0.087716 -0.055162 -0.093861 -0.005132 0.024259 -0.141034 0.049023 0.063277 -0.051522 -0.043905 -0.058750 0.015522 0.018550 -0.050058 0.017403 0.044527 0.082294 -0.066345 0.033896 0.104061 0.139199 -0.038216 -0.023175 -0.060669 0.045308 -0.011983 0.005674 -0.076413 0.003768 -0.020373 0.050146 0.022524 -0.054254 0.060458 0.050042 0.033605 -0.075232 0.033764 0.045831 -0.002125 -0.064250 0.027736 -0.007633 -0.111340 -0.042182 -0.021372 -0.019217 -0.069971 -0.102655 0.035441 0.039042 -0.016172 0.058716 -0.050901 -0.018165 0.035623 -0.024497 -0.014047 -0.036043 0.006517 0.016142 0.056044 0.082334 0.025662 0.092010 -0.068208 -0.003449 -0.077792 -0.035727 0.013617 0.036208 -0.042535 0.065958 0.019608 -0.004418 0.030725 -0.079716 -0.003560 0.101090 -0.079542 -0.019479 -0.001998 0.024792 0.093475 -0.051162 0.034074 0.040595 0.043879 0.085905 -0.054823 0.048509 -0.001879 -0.049949 0.067198 0.036902 0.015196 0.033939 0.013984 -0.098901 -0.034981 0.120294 -0.000612 0.037791 0.046204 0.062853 -0.138062 0.075394 0.001675 -0.070601 0.108441 0.056963 -0.008482 -0.051552 0.016696 -0.043132 -0.017468 -0.047638 -0.022215 -0.027200 -0.036081 0.038902 0.015708 0.028426 0.053975 -0.079979 0.024077 0.008574 -0.053924 -0.072698 -0.006294 0.057979 0.057881 -0.008957 0.033254 0.010626 -0.048963 -0.025602 0.070523 0.084883 -0.041370 0.006093 -0.080389 -0.108778 0.015319 0.008768 -0.035747 -0.024046 -0.073302 0.017170 0.004949 -0.016839 -0.002264 0.019488 0.013674 0.023589 -0.078320 -0.168613 -0.009106 0.021897 -0.033246 0.035137 -0.017811 -0.054339 0.012650 -0.058917 0.091406 0.072053 -0.011639 0.006795 -0.056149 0.080401 -0.063911 0.036285 0.016434 -0.010640 -0.017340 0.030555 0.046621 -0.025934 -0.053720 0.035323 0.063437 -0.029533 0.015916 -0.024403 -0.069228 -0.037076 -0.034237 -0.015047 0.030201 -0.071519 -0.127636 0.049874 -0.090664 -0.059073 -0.008190 0.030520 -0.002928 -0.046544 0.019731 -0.000755 -0.032380 -0.049344 0.007113 0.076145 -0.002162 0.074519 0.035074 0.051023 0.078174 0.027258 0.001103 0.042517 0.018304 -0.037259 0.147010 -0.019681 0.093399 -0.043572 0.046352 -0.046372 0.028609 0.051460 -0.084777 -0.057589 -0.039930 0.002777 0.021014 0.071383 0.024833 -0.012076 0.031871 -0.013778 0.001334 -0.007977 -0.049463 -0.008256 0.132646 -0.000503 -0.031017 0.075578 0.025168 0.047121 -0.020261 -0.070225 -0.019114 -0.032371 0.039451 -0.036466 0.031333 0.041255 0.042268 0.027602 -0.099119 -0.105371 0.020134 0.019821 0.081498 -0.005646 -0.106454 -0.006054 0.108384 0.021809 0.073655 0.039645 -0.114065 0.012972 -0.033393 -0.016264 0.036725 -0.071953 -0.017148 0.018194 0.010354 -0.074009 0.036077 0.109889 0.018996 0.007372 -0.033216 -0.006902 -0.041718 -0.031796 0.028467 -0.020677 -0.008624 0.060100 0.155402 0.070892 0.046913 0.085120 0.016397 -0.058734 0.035135 -0.028634 0.039778 -0.076978 0.151286 -0.012345 -0.021699 -0.125771 -0.062070 -0.012421 0.000734 -0.027984 -0.048829 -0.048515 0.032358 0.117889 -0.025799 -0.113109 0.102477 -0.017853 0.071080 0.011605 0.056062 0.063954 0.035396 -0.066073 0.050556 0.039306 -0.091340 -0.115388 -0.050915 -0.030390 0.019083 -0.052690 0.070565 0.012127 0.035611 0.044057 -0.100696 -0.161961 0.093403 -0.039036 -0.028822 -0.035882 -0.063929 0.016355 0.049662 -0.028700 0.023223 0.069692 0.019042 -0.003891 -0.084733 0.005770 -0.076883 -0.020926 0.066485 -0.014529 -0.069964 -0.136160 0.060269 -0.013679 -0.024777 -0.023993 0.040781 -0.001529 0.127672 -0.075656 0.078237 -0.117034 0.016023 -0.043608 -0.023624 -0.061121 0.039501 -0.018059 0.003105 -0.044621 -0.064546 -0.145342 0.031000 -0.059265 -0.058978 -0.067187 -0.027034 0.053734 -0.036178 0.024433 -0.056381 0.091386 -0.148936 -0.104356 0.031701 0.067398 0.020021 -0.141189 -0.026648 -0.030337 0.035652 -0.056611 0.163015 -0.053438 -0.074388 0.025406 0.001221 -0.021898 -0.031300 -0.010242 -0.076817 -0.047421 -0.076340 -0.029157 0.013541 -0.000090 0.005890 0.031146 0.036269 -0.030880 -0.033174 -0.022313 -0.032184 -0.003801 0.069458 -0.049194 -0.025012 -0.003747 0.094180 -0.037435 -0.022375 0.011632 -0.042312 -0.024909 0.042104 0.019925 -0.063972 0.034585 0.012367 -0.032935 0.090779 0.115414 -0.039730 -0.013897 0.062823 -0.059156 -0.032162 0.021970 0.017718 -0.030767 0.072374 -0.026721 -0.022832 -0.119815 -0.007190 0.066338 0.062091 -0.007674 -0.019601 -0.032239 -0.046341 -0.049149 0.078816 -0.084529 -0.110010 -0.122000 0.007490 -0.001519 0.018968 -0.116437 -0.031405 0.045645 -0.119950 -0.094030 -0.023442 0.109017 0.068885 -0.086075 -0.039662 -0.039122 0.028656 -0.014705 0.006011 -0.039557 0.077694 -0.010571 -0.008744 0.011701 -0.046471 0.000063 0.014838 -0.109707 0.052070 -0.049974 0.047042 -0.019132 0.013610 -0.036774 0.019626 -0.042423 0.129829 0.016827 0.001859 -0.002511 -0.103906 0.041366 -0.006896 -0.044149 -0.025320 0.011346 0.074905 -0.000888 -0.079001 -0.042465 0.052442 -0.048832 -0.039271 -0.071938 0.002080 0.055256 -0.104265 0.020804 -0.117934 0.055790 -0.002808 -0.031305 -0.016429 0.016456 -0.007815 -0.050969 0.022695 0.076051 0.031495 -0.019555 -0.040675 0.048252 0.002626 0.003437 -0.022838 -0.055021 0.041265 0.044911 0.011195 -0.038381 -0.049171 -0.036684 0.045776 0.073244 0.019234 -0.004270 -0.032970 0.044993 -0.020475 0.053060 0.152268 -0.118687 0.065227 -0.053381 -0.034404 -0.087519 0.023239 -0.027629 0.002516 -0.064318 0.012334 0.064774 -0.001418 -0.009377 -0.049799 0.059284 -0.036476 0.006264 -0.015640 0.024450 0.088343 0.022744 -0.004800 -0.007936 -0.089508 0.019332 0.055135 0.037223 0.033254 0.043990 0.024814 0.003589 -0.016194 0.048622 0.031972 -0.019551 0.076393 -0.020659 -0.052245 -0.029891 0.072238 0.064846 0.016089 0.052074 -0.029803 -0.045863 -0.034932 0.070584 0.046635 -0.007442 -0.016890 -0.041053 0.029531 -0.036843 -0.034744 0.031079 0.054174 -0.021685 0.028635 -0.002258 0.067914 -0.098118 0.014591 -0.087608 0.058255 0.000207 -0.015258 -0.060267 0.058388 -0.045968 -0.016679 -0.039462 -0.071560 0.028018 0.054876 0.010564 0.241227 -0.131083 0.035984 -0.031580 0.049878 -0.003093 0.022559 0.029401 -0.048426 -0.005549 0.032632 0.041400 0.031150 0.064590 0.051832 0.028463 0.056910 0.061340 -0.016382 -0.011874 -0.112356 -0.053201 -0.059260 -0.047612 -0.011001 0.022445 -0.007397 0.017314 0.032696 0.047147 0.102208 -0.050568 0.074491 -0.033574 -0.106098 -0.052150 -0.022521 0.049601 -0.033145 0.109082 0.046183 -0.025443 -0.073394 -0.022245 -0.074939 0.110559 0.022938 -0.032837 -0.009800 -0.008101 0.076933 0.017619 -0.013828 -0.035214 0.136646 0.080523 0.016994 0.067129 -0.038865 0.051477 0.069540 0.111552 -0.131878 -0.029876 -0.053496 0.020358 -0.005632 0.008652 0.135194 0.009634 0.055060 -0.020795 -0.016426 0.015666 -0.011053 0.056422 -0.014806 0.055462 -0.082791 0.048940 -0.000089 -0.065901 -0.008326 0.048252 0.034450 -0.088060 -0.000184 -0.060868 -0.002757 -0.030976 -0.007292 -0.139429 0.033637 -0.022588 0.056893 -0.016276 0.032980 0.010803 0.044705 -0.079005 -0.005460 -0.041321 0.024015 -0.008347 0.059410 -0.020857 -0.011312 -0.122150 -0.046790 -0.007142 -0.025534 -0.009288 -0.022825 -0.018207 0.019968 -0.034296 -0.006547 0.003631 0.041749 -0.097112 0.047310 -0.054205 -0.078247 0.017877 -0.010190 -0.002290 0.014469 0.006506 0.016625 -0.015572 0.083786 -0.015461 0.027249 0.094098 0.021420 -0.066220 -0.007261 0.114949 0.081422 0.011478 0.007480 -0.068200 0.070872 -0.020627 0.062985 0.098179 -0.010506 0.038922 -0.064436 0.023268 -0.061726 0.093822 0.071208 0.085012 -0.109337 0.032893 -0.032308 -0.007723 -0.006159 0.064279 -0.070798 -0.028734 0.009208 -0.024307 0.022442 0.027376 -0.006199 -0.024474 -0.023445 0.032592 0.054172 0.006650 0.007551 0.012390 -0.039610 0.014329 -0.019001 -0.092771 0.078575 -0.063934 0.082175 -0.004812 -0.024076 0.051942 0.029758 0.042395 0.144350 0.029020 0.037599 0.007353 0.058842 -0.026698 -0.134712 0.010472 0.024060 0.002662 -0.024600 -0.007392 0.047595 0.067384 -0.014042 -0.005239 -0.063583 0.049701 0.108842 0.005124 0.054929 0.145129 -0.035199 -0.114135 -0.025865 -0.063030 0.021917 -0.071762 -0.043708 -0.011616 0.034965 -0.082181 -0.007583 0.023905 -0.032922 -0.010852 0.029767 0.065762 -0.108857 -0.059150 -0.011307 -0.020731 -0.048955 -0.031514 0.015750 -0.016272 0.009890 0.057853 0.070021 0.010098 0.059006 0.058876 -0.069427 0.029891 -0.065271 0.020637 0.045632 -0.046796 0.017828 0.149333 0.062534 -0.017827 0.050269 -0.093835 -0.095549 -0.065743 -0.040235 0.004556 -0.007736 -0.018618 -0.000909
3 -0.013439 0.005036 0.009119 -0.022145 -0.021825 -0.053403 -0.004189 -0.051147 -0.087330 -0.043231 -0.076788 0.027607 0.062437 -0.006938 -0.049363 0.054457 -0.022241 0.052304 -0.009689 -0.047380 0.008755 0.018597 0.035927 -0.039101 0.016590 -0.037365 -0.000817 -0.014126 -0.038497 0.001181 -0.013549 0.087399 0.065706 -0.009998 -0.045950 0.015945 0.112807 0.032800 -0.042417 -0.030746 -0.055154 0.037604 -0.023189 -0.034898 -0.057766 0.058871 0.097862 0.003197 0.018316 -0.001059 0.020332 -0.126001 -0.052957 -0.018125 0.032931 -0.134597 0.028102 -0.019324 0.053624 0.000940 0.063386 0.103529 0.060867 -0.075575 0.047399 -0.014852 0.008941 -0.092099 0.205013 -0.002211 -0.023254 -0.086971 0.054883 -0.098371 0.004431 -0.009144 -0.101458 -0.052583 -0.023735 0.028713 -0.028888 -0.027292 0.039479 0.021793 0.007568 -0.074477 -0.040320 0.063017 0.067913 -0.055359 0.048479 -0.014219 -0.086271 0.131074 -0.053640 -0.111521 0.104063 0.048015 -0.041269 0.059253 0.055595 0.043571 0.002600 0.051717 0.080212 0.060410 -0.077116 0.036306 0.005000 0.026548 -0.074060 0.054643 0.001093 -0.014061 0.125364 0.069971 0.028668 -0.039855 0.006367 0.021908 -0.042219 0.034258 -0.026418 0.024316 -0.074873 -0.079765 -0.039925 0.054102 -0.067547 -0.012609 -0.088554 -0.037172 0.027232 -0.060002 -0.044950 0.012485 -0.017428 0.093911 -0.060493 0.017020 -0.045246 -0.001449 0.068325 -0.058553 0.086928 0.033038 -0.078610 -0.052942 -0.085741 -0.002092 0.017683 -0.127131 0.043926 0.052088 -0.047678 -0.044126 -0.054325 0.016244 0.011444 -0.050084 0.020788 0.043652 0.075011 -0.063508 0.032780 0.102798 0.126756 -0.038781 -0.018437 -0.054218 0.044552 -0.009454 0.002116 -0.071252 0.003690 -0.017564 0.045500 0.022916 -0.049177 0.058536 0.043711 0.031631 -0.060803 0.028748 0.040082 0.000249 -0.058773 0.026275 -0.007538 -0.101275 -0.035088 -0.024657 -0.012665 -0.060627 -0.092761 0.029055 0.035484 -0.012259 0.052412 -0.046006 -0.018320 0.022559 -0.026578 -0.017649 -0.036304 0.006502 0.010418 0.051799 0.073534 0.021786 0.085806 -0.057427 -0.006054 -0.068484 -0.031082 0.010213 0.035321 -0.036347 0.058605 0.015070 -0.005002 0.028857 -0.064783 -0.002543 0.086168 -0.073335 -0.017123 -0.012557 0.023292 0.082011 -0.043887 0.028329 0.030704 0.037400 0.076670 -0.047670 0.040340 -0.000925 -0.046479 0.059692 0.032406 0.009565 0.030395 0.006620 -0.089132 -0.029896 0.113080 -0.002687 0.030597 0.042511 0.057133 -0.125048 0.067563 -0.004378 -0.060641 0.096615 0.051059 -0.013050 -0.049576 0.014586 -0.035888 -0.019990 -0.045722 -0.017858 -0.023204 -0.030641 0.035466 0.019661 0.026481 0.057155 -0.073710 0.021326 0.009407 -0.049644 -0.065643 -0.006275 0.053046 0.060586 -0.011461 0.035184 0.010420 -0.038698 -0.024087 0.060739 0.073915 -0.038511 0.001700 -0.070699 -0.094226 0.011284 0.007571 -0.034187 -0.026111 -0.062308 0.013020 0.003648 -0.017452 -0.002117 0.014733 0.014068 0.021917 -0.069885 -0.157132 -0.009971 0.021588 -0.028333 0.033241 -0.019691 -0.051102 0.011033 -0.049964 0.083337 0.066852 -0.004480 0.002096 -0.057061 0.065944 -0.059999 0.034647 0.014282 -0.013411 -0.009800 0.033356 0.046896 -0.017909 -0.044422 0.030090 0.055268 -0.028227 0.013533 -0.021237 -0.065410 -0.036526 -0.032704 -0.011988 0.027715 -0.066478 -0.109876 0.045050 -0.081350 -0.054530 -0.008245 0.028301 -0.001418 -0.045103 0.018203 -0.004060 -0.028838 -0.037999 0.008863 0.063924 -0.001860 0.069271 0.032316 0.047056 0.076599 0.024470 -0.005237 0.040986 0.015488 -0.034029 0.133337 -0.012583 0.083794 -0.038141 0.041267 -0.047563 0.025835 0.049435 -0.076957 -0.048475 -0.033807 -0.000221 0.017254 0.068041 0.019129 -0.009585 0.025048 -0.009349 0.006090 -0.009702 -0.045955 -0.012534 0.123467 -0.002096 -0.026334 0.071086 0.021370 0.039961 -0.017185 -0.061221 -0.009089 -0.025593 0.035894 -0.031106 0.026937 0.039973 0.033650 0.024480 -0.088028 -0.094298 0.023379 0.017557 0.072039 -0.000952 -0.101929 -0.009434 0.098404 0.020772 0.063711 0.037258 -0.101449 0.014079 -0.027885 -0.010578 0.029051 -0.064653 -0.011593 0.014143 0.008100 -0.066218 0.032919 0.101851 0.015682 0.004689 -0.029908 -0.005822 -0.032743 -0.029606 0.019782 -0.017569 -0.007445 0.052230 0.144069 0.063918 0.043810 0.084806 0.011036 -0.057016 0.027264 -0.031523 0.031568 -0.074643 0.140866 -0.008278 -0.015666 -0.112744 -0.061505 -0.008271 0.003277 -0.025733 -0.044262 -0.043987 0.029529 0.113819 -0.025105 -0.106788 0.092254 -0.020402 0.063118 0.004442 0.052896 0.058796 0.039416 -0.063682 0.042388 0.043077 -0.081401 -0.113807 -0.048262 -0.028290 0.015670 -0.046915 0.067217 0.012208 0.036449 0.041231 -0.090709 -0.142236 0.081650 -0.032403 -0.025150 -0.037389 -0.062861 0.014181 0.046448 -0.024457 0.018270 0.061571 0.018564 0.003437 -0.079862 0.010047 -0.064803 -0.015037 0.056173 -0.011488 -0.065101 -0.125470 0.061473 -0.010777 -0.025419 -0.026065 0.041576 0.000033 0.117855 -0.071169 0.077525 -0.111135 0.015601 -0.040727 -0.016652 -0.053449 0.031043 -0.016169 0.001956 -0.040016 -0.062338 -0.140025 0.029379 -0.060035 -0.056675 -0.064880 -0.019570 0.048055 -0.032656 0.023756 -0.056978 0.083109 -0.140629 -0.094755 0.028919 0.066120 0.016384 -0.134290 -0.025837 -0.027438 0.030723 -0.056470 0.147537 -0.048255 -0.063278 0.026993 0.006285 -0.025034 -0.026963 -0.002298 -0.071729 -0.043077 -0.071747 -0.032448 0.007357 -0.000163 0.002200 0.030887 0.028695 -0.033283 -0.032647 -0.019105 -0.032656 -0.001539 0.067325 -0.042778 -0.022796 -0.004337 0.085340 -0.036407 -0.018813 0.014193 -0.039805 -0.018005 0.039387 0.022267 -0.058849 0.028746 0.010187 -0.031911 0.087393 0.109109 -0.040066 -0.018479 0.059380 -0.049962 -0.035023 0.020104 0.014761 -0.025921 0.063261 -0.023230 -0.019785 -0.105411 -0.012169 0.063057 0.054024 -0.006579 -0.020918 -0.028884 -0.042998 -0.045401 0.066749 -0.072974 -0.102151 -0.107789 0.006580 0.001128 0.012627 -0.103592 -0.025951 0.038911 -0.105872 -0.081304 -0.019950 0.099788 0.059485 -0.075383 -0.037340 -0.035740 0.024201 -0.023021 0.004518 -0.034925 0.071061 -0.011214 -0.011498 0.009070 -0.045550 0.000190 0.010873 -0.097736 0.045159 -0.049977 0.042846 -0.017270 0.008504 -0.038011 0.021649 -0.041170 0.113163 0.015895 -0.002761 -0.001615 -0.095116 0.032329 -0.006935 -0.037935 -0.026283 0.010659 0.066511 -0.002170 -0.069557 -0.038426 0.047420 -0.039731 -0.033598 -0.066649 0.002257 0.051499 -0.090964 0.021636 -0.105188 0.049890 -0.005812 -0.026583 -0.017124 0.006723 -0.006414 -0.044884 0.020700 0.068536 0.032781 -0.018167 -0.034795 0.041904 -0.000503 0.000892 -0.022202 -0.048407 0.036984 0.040344 0.004760 -0.033729 -0.050364 -0.030204 0.043633 0.063166 0.011597 -0.004490 -0.026457 0.044249 -0.022607 0.046572 0.135002 -0.106318 0.056611 -0.046938 -0.031271 -0.078218 0.022584 -0.028565 0.000389 -0.062415 0.004697 0.055930 0.002123 -0.008687 -0.043651 0.057363 -0.041535 0.000620 -0.012478 0.023224 0.076833 0.017861 -0.007156 -0.005521 -0.082886 0.025816 0.048204 0.031089 0.027863 0.032168 0.028194 0.008451 -0.016895 0.043394 0.033086 -0.016817 0.070323 -0.013660 -0.048142 -0.029456 0.060708 0.054747 0.015069 0.043812 -0.019464 -0.037340 -0.027072 0.062480 0.043546 -0.005987 -0.013499 -0.037133 0.028766 -0.031740 -0.025435 0.029822 0.048073 -0.018138 0.020211 -0.001237 0.055287 -0.087630 0.015405 -0.076976 0.051309 -0.001407 -0.013810 -0.050034 0.048054 -0.049004 -0.012966 -0.040053 -0.077787 0.022554 0.046369 0.007373 0.209130 -0.115387 0.032744 -0.025975 0.046149 -0.003854 0.022600 0.028424 -0.042847 -0.003166 0.029884 0.032436 0.030364 0.061667 0.045010 0.026163 0.051068 0.056986 -0.011293 -0.016982 -0.104187 -0.047103 -0.054696 -0.044048 -0.007645 0.019920 -0.007732 0.014311 0.019176 0.046153 0.085463 -0.042319 0.070030 -0.029592 -0.094858 -0.049162 -0.016659 0.047438 -0.034567 0.101036 0.044871 -0.019359 -0.062308 -0.019686 -0.064822 0.102514 0.018232 -0.029907 -0.008766 -0.005380 0.073955 0.011128 -0.007374 -0.031772 0.122517 0.065969 0.007775 0.059089 -0.036161 0.046857 0.058495 0.099391 -0.117605 -0.026102 -0.051334 0.018403 -0.001932 0.007693 0.125223 0.011104 0.046395 -0.016336 -0.010758 0.018477 -0.004550 0.052539 -0.015980 0.052981 -0.072462 0.038264 -0.003023 -0.057432 -0.011329 0.041560 0.035088 -0.078295 -0.000514 -0.059201 -0.005296 -0.029089 -0.008955 -0.119587 0.031530 -0.019558 0.048979 -0.015143 0.026925 0.012424 0.046481 -0.068660 -0.001673 -0.035657 0.016430 -0.009498 0.052011 -0.010759 -0.012036 -0.109341 -0.047540 -0.006501 -0.021658 -0.005743 -0.017301 -0.014001 0.017630 -0.030569 -0.001503 0.001442 0.035615 -0.085575 0.042361 -0.050500 -0.067237 0.016947 -0.011588 -0.006241 0.013155 0.004761 0.010660 -0.018765 0.075795 -0.012648 0.027593 0.081730 0.022802 -0.058871 -0.004605 0.103315 0.076561 0.012016 0.012995 -0.059199 0.065364 -0.023877 0.056713 0.091316 -0.009501 0.037065 -0.053398 0.017683 -0.056919 0.082593 0.067210 0.077150 -0.100882 0.033291 -0.026653 -0.007736 -0.004864 0.059535 -0.071132 -0.023908 0.007752 -0.021440 0.024053 0.027552 -0.007520 -0.017287 -0.023441 0.030695 0.043957 0.006922 0.005920 0.015774 -0.033900 0.012005 -0.015565 -0.080551 0.068969 -0.061309 0.079598 0.004180 -0.022266 0.047305 0.029715 0.039803 0.132880 0.027332 0.028521 0.014211 0.053757 -0.027026 -0.122392 0.013062 0.020685 -0.002206 -0.024729 -0.006868 0.038956 0.064758 -0.013870 -0.009555 -0.056190 0.051819 0.102615 0.003843 0.052265 0.132340 -0.030819 -0.109337 -0.029073 -0.057295 0.017424 -0.067326 -0.042067 -0.016938 0.040640 -0.080922 -0.006289 0.017946 -0.031517 -0.003588 0.023591 0.061561 -0.099277 -0.054191 -0.008319 -0.021178 -0.049673 -0.035826 0.019428 -0.010252 0.010437 0.057168 0.071355 0.006220 0.058257 0.054162 -0.064318 0.025501 -0.061184 0.019614 0.042962 -0.043335 0.016008 0.146917 0.057797 -0.018497 0.049305 -0.086754 -0.092561 -0.061765 -0.039285 0.006069 -0.004327 -0.013517 0.003262
2 -0.015318 0.005602 0.010141 -0.025062 -0.023669 -0.056254 -0.005907 -0.055473 -0.093714 -0.047960 -0.082663 0.031359 0.065731 -0.010174 -0.051475 0.059333 -0.022707 0.054212 -0.008760 -0.052029 0.009984 0.018964 0.035401 -0.043016 0.016865 -0.038903 -0.003003 -0.012865 -0.042806 0.002850 -0.014040 0.088913 0.069986 -0.008565 -0.048827 0.017684 0.119691 0.034005 -0.045122 -0.031627 -0.058879 0.040370 -0.022914 -0.036076 -0.062621 0.060801 0.103703 0.004273 0.018460 -0.000242 0.021469 -0.132410 -0.058131 -0.019959 0.031875 -0.145347 0.029600 -0.019205 0.057762 0.000995 0.069668 0.110125 0.065417 -0.079347 0.048476 -0.017172 0.007137 -0.097786 0.219110 -0.001478 -0.024690 -0.093852 0.055871 -0.106119 0.007373 -0.010387 -0.109509 -0.058328 -0.024920 0.030805 -0.028807 -0.031883 0.041862 0.023555 0.007585 -0.080227 -0.043044 0.067179 0.077264 -0.062101 0.052631 -0.015866 -0.093822 0.142408 -0.058481 -0.121757 0.112671 0.050150 -0.044247 0.063495 0.059370 0.047974 0.003324 0.055737 0.086479 0.064992 -0.082611 0.040724 0.004612 0.028503 -0.081080 0.061964 0.001097 -0.016229 0.136079 0.076894 0.028751 -0.042115 0.008347 0.021591 -0.046452 0.038473 -0.026714 0.024741 -0.080535 -0.085230 -0.043000 0.056855 -0.072157 -0.012915 -0.096604 -0.039498 0.027889 -0.064368 -0.048228 0.011059 -0.017800 0.098395 -0.065172 0.017850 -0.046509 -0.001109 0.072785 -0.062163 0.090785 0.035950 -0.081677 -0.056442 -0.090384 -0.002524 0.017249 -0.132762 0.045932 0.052068 -0.049872 -0.048465 -0.057532 0.017718 0.009863 -0.055036 0.024013 0.046854 0.079483 -0.068015 0.034158 0.110999 0.132879 -0.042789 -0.017765 -0.055826 0.048823 -0.010590 0.000352 -0.076222 0.003301 -0.018006 0.048716 0.025510 -0.051509 0.063278 0.046650 0.034206 -0.060443 0.029824 0.040853 0.001447 -0.062857 0.027409 -0.008587 -0.107577 -0.036373 -0.028122 -0.011962 -0.061636 -0.096919 0.028860 0.037352 -0.012943 0.054710 -0.047445 -0.020182 0.019985 -0.029760 -0.020717 -0.039386 0.007586 0.009923 0.054876 0.077423 0.022124 0.091752 -0.059022 -0.008499 -0.070858 -0.033181 0.011043 0.037763 -0.036991 0.059437 0.013830 -0.005528 0.030029 -0.065749 -0.002584 0.087418 -0.077743 -0.018012 -0.018243 0.025283 0.085236 -0.045505 0.027999 0.030161 0.038871 0.080377 -0.048892 0.041770 -0.000386 -0.048649 0.061606 0.034415 0.008703 0.031520 0.005049 -0.093143 -0.030055 0.119758 -0.003279 0.030473 0.044785 0.060484 -0.130841 0.070384 -0.006514 -0.061786 0.101718 0.052592 -0.014269 -0.053899 0.014804 -0.035721 -0.022694 -0.048260 -0.016946 -0.024097 -0.031741 0.036718 0.023609 0.028567 0.062882 -0.077425 0.022517 0.010367 -0.052277 -0.068308 -0.007485 0.055973 0.066509 -0.014253 0.038471 0.011321 -0.037472 -0.025570 0.062967 0.077004 -0.041267 -0.000040 -0.073795 -0.096674 0.010114 0.006751 -0.036053 -0.029714 -0.064165 0.012366 0.003076 -0.018327 -0.002215 0.014824 0.016137 0.023305 -0.073500 -0.167426 -0.011768 0.022930 -0.028610 0.036154 -0.021473 -0.054206 0.011060 -0.050910 0.088419 0.070888 -0.002296 0.000988 -0.062827 0.066149 -0.063778 0.036931 0.015293 -0.015310 -0.007291 0.037561 0.050469 -0.016125 -0.044534 0.030728 0.056305 -0.029793 0.013661 -0.022927 -0.070425 -0.040209 -0.035328 -0.012857 0.029967 -0.071055 -0.113201 0.046721 -0.084896 -0.057503 -0.008459 0.030179 -0.001083 -0.049938 0.019522 -0.005418 -0.029877 -0.036295 0.010246 0.064757 -0.002001 0.073403 0.034821 0.049976 0.082698 0.024838 -0.007955 0.043953 0.016657 -0.035979 0.139860 -0.011494 0.088360 -0.039823 0.042901 -0.053476 0.027101 0.052888 -0.081484 -0.050018 -0.034961 -0.001989 0.017229 0.072842 0.017971 -0.009731 0.024401 -0.008160 0.008057 -0.011850 -0.047965 -0.015617 0.131238 -0.002800 -0.026594 0.076922 0.021524 0.040680 -0.017651 -0.063384 -0.006069 -0.025962 0.037067 -0.033150 0.027638 0.041972 0.032854 0.024109 -0.091238 -0.098357 0.028022 0.019208 0.074338 0.000591 -0.109256 -0.010478 0.103814 0.022533 0.065721 0.040235 -0.105477 0.015867 -0.027672 -0.009220 0.029471 -0.068265 -0.010897 0.013655 0.008155 -0.070528 0.035069 0.107946 0.016222 0.003287 -0.031790 -0.005494 -0.032287 -0.032822 0.018906 -0.017820 -0.006677 0.053336 0.153456 0.067913 0.046675 0.092450 0.011073 -0.061233 0.027154 -0.035845 0.031813 -0.080205 0.150905 -0.007224 -0.015004 -0.118896 -0.066351 -0.007158 0.004965 -0.028082 -0.046441 -0.046362 0.030290 0.122548 -0.026953 -0.115679 0.097698 -0.023295 0.066947 0.001856 0.056434 0.062595 0.045133 -0.068362 0.043135 0.048137 -0.085349 -0.124247 -0.051456 -0.029866 0.016207 -0.050098 0.072360 0.013721 0.040458 0.043072 -0.096709 -0.148651 0.083809 -0.033711 -0.026149 -0.041026 -0.069785 0.014376 0.049102 -0.026123 0.019139 0.063640 0.019508 0.006686 -0.084920 0.011842 -0.067525 -0.013563 0.057853 -0.010960 -0.069294 -0.134287 0.067401 -0.011502 -0.028446 -0.029491 0.046887 -0.000331 0.125185 -0.076926 0.084661 -0.120650 0.017153 -0.043671 -0.015963 -0.055124 0.031227 -0.016590 0.002006 -0.041951 -0.067276 -0.151860 0.031574 -0.066275 -0.062172 -0.070081 -0.017690 0.049885 -0.033594 0.026685 -0.063060 0.087449 -0.152290 -0.099660 0.031929 0.071602 0.015773 -0.146014 -0.028681 -0.029527 0.031937 -0.061066 0.157384 -0.049983 -0.064728 0.029599 0.007920 -0.028417 -0.027289 0.001194 -0.077879 -0.046020 -0.077681 -0.036635 0.005536 -0.000428 0.000168 0.034437 0.029144 -0.036920 -0.035939 -0.018906 -0.035401 -0.001329 0.072519 -0.043198 -0.023989 -0.006076 0.090149 -0.040096 -0.019733 0.016333 -0.042988 -0.017824 0.041909 0.024987 -0.062104 0.028848 0.011660 -0.033913 0.094801 0.117902 -0.043864 -0.022593 0.063013 -0.052416 -0.038524 0.021449 0.015377 -0.027219 0.065954 -0.023717 -0.020513 -0.109479 -0.015292 0.068089 0.055698 -0.005970 -0.024433 -0.029346 -0.044270 -0.047909 0.067051 -0.075164 -0.109553 -0.113367 0.006768 0.003289 0.011439 -0.107077 -0.025171 0.040137 -0.109900 -0.083164 -0.020056 0.105334 0.060557 -0.078154 -0.039523 -0.037822 0.024320 -0.026999 0.004938 -0.036133 0.074967 -0.012632 -0.013692 0.009586 -0.048504 0.001098 0.010763 -0.102684 0.045906 -0.054241 0.044857 -0.019520 0.007211 -0.041869 0.023534 -0.044454 0.118425 0.017785 -0.003767 -0.001385 -0.099581 0.031710 -0.007504 -0.039868 -0.028387 0.011493 0.069034 -0.001621 -0.072447 -0.040946 0.050612 -0.040251 -0.033802 -0.070930 0.002688 0.054161 -0.094734 0.023739 -0.110251 0.052334 -0.007680 -0.026901 -0.019223 0.004111 -0.007114 -0.047470 0.021031 0.071801 0.035924 -0.019201 -0.035576 0.043535 -0.001444 0.000577 -0.024681 -0.051059 0.039017 0.041611 0.003067 -0.035417 -0.055728 -0.029347 0.045979 0.065644 0.010095 -0.005339 -0.026242 0.047348 -0.024625 0.049088 0.140438 -0.112164 0.058455 -0.047977 -0.033536 -0.081542 0.025002 -0.031470 0.000067 -0.067053 0.001933 0.057122 0.003908 -0.007865 -0.045491 0.062651 -0.047995 -0.002073 -0.013297 0.023912 0.080051 0.017481 -0.008087 -0.005339 -0.087600 0.030703 0.050378 0.031434 0.028448 0.030339 0.032053 0.011589 -0.019285 0.045720 0.036642 -0.017732 0.074893 -0.012804 -0.051282 -0.031848 0.062830 0.056487 0.015420 0.045107 -0.018169 -0.037714 -0.025823 0.065057 0.046945 -0.005151 -0.013711 -0.038385 0.030936 -0.033150 -0.024412 0.032628 0.050100 -0.019547 0.018780 -0.000782 0.055844 -0.091671 0.017865 -0.080061 0.053242 -0.002341 -0.014118 -0.049986 0.048986 -0.055529 -0.013242 -0.044461 -0.088361 0.023270 0.047907 0.006554 0.215873 -0.119596 0.035152 -0.026866 0.049535 -0.003858 0.024678 0.030645 -0.043967 -0.002132 0.032067 0.031507 0.033636 0.065575 0.047080 0.027988 0.053120 0.060192 -0.010560 -0.019982 -0.109831 -0.049306 -0.057637 -0.047999 -0.006839 0.019764 -0.009165 0.015068 0.016305 0.049383 0.086692 -0.042567 0.074551 -0.031198 -0.098670 -0.051637 -0.015873 0.051393 -0.037705 0.107042 0.047604 -0.018985 -0.064683 -0.021528 -0.066613 0.108207 0.017434 -0.031329 -0.009206 -0.004444 0.080016 0.010490 -0.005975 -0.032783 0.128357 0.066438 0.004597 0.060663 -0.039313 0.049705 0.059627 0.104391 -0.122549 -0.026395 -0.055635 0.019531 -0.001999 0.008776 0.132782 0.013354 0.046770 -0.016474 -0.010623 0.020992 -0.003217 0.055242 -0.017940 0.057320 -0.075667 0.036975 -0.005370 -0.059514 -0.013121 0.043442 0.038920 -0.081817 -0.001158 -0.064214 -0.007312 -0.030541 -0.011548 -0.122159 0.034214 -0.020492 0.050363 -0.016274 0.027808 0.014367 0.051534 -0.071505 -0.000015 -0.036419 0.015396 -0.012060 0.054119 -0.007007 -0.014732 -0.114419 -0.052396 -0.006450 -0.021844 -0.005561 -0.017739 -0.013435 0.018501 -0.031921 -0.000470 0.001314 0.037093 -0.088120 0.044652 -0.054175 -0.069459 0.017759 -0.013075 -0.009152 0.014485 0.005658 0.009929 -0.021305 0.079134 -0.012924 0.030275 0.084876 0.025796 -0.061088 -0.004403 0.107810 0.082204 0.012652 0.015759 -0.061594 0.068426 -0.027980 0.059452 0.096308 -0.010729 0.038705 -0.053794 0.016757 -0.059412 0.085223 0.071507 0.082187 -0.106607 0.036342 -0.027208 -0.009166 -0.004945 0.063092 -0.076982 -0.023352 0.008424 -0.022749 0.027077 0.030370 -0.009306 -0.016796 -0.025145 0.032009 0.044790 0.007549 0.005262 0.018346 -0.034849 0.011619 -0.016333 -0.084162 0.070483 -0.065038 0.086993 0.007947 -0.023201 0.050154 0.031192 0.041839 0.140248 0.029734 0.028102 0.017711 0.057326 -0.029311 -0.128609 0.016201 0.021704 -0.003242 -0.026426 -0.007483 0.040434 0.070043 -0.014735 -0.013004 -0.058900 0.056435 0.109456 0.003413 0.057252 0.140022 -0.031228 -0.118865 -0.032617 -0.060060 0.017694 -0.071672 -0.045494 -0.019753 0.045867 -0.087529 -0.007223 0.017277 -0.033094 -0.000815 0.024400 0.065180 -0.104548 -0.057202 -0.008302 -0.024178 -0.055132 -0.041017 0.021986 -0.009068 0.011105 0.061578 0.078052 0.004806 0.062888 0.057923 -0.067818 0.025553 -0.065346 0.021892 0.045568 -0.046778 0.017361 0.160593 0.060782 -0.019848 0.053619 -0.092849 -0.100233 -0.065913 -0.043352 0.008057 -0.004085 -0.012058 0.005563
4 -0.015164 0.005549 0.009666 -0.023665 -0.023083 -0.054401 -0.005126 -0.053067 -0.089858 -0.046512 -0.079469 0.030475 0.062989 -0.009961 -0.049366 0.056797 -0.021472 0.051797 -0.008079 -0.049957 0.010019 0.017821 0.033893 -0.041447 0.015940 -0.038021 -0.003114 -0.011595 -0.040634 0.002108 -0.014498 0.084989 0.067278 -0.008273 -0.047463 0.017604 0.114316 0.032553 -0.043132 -0.029521 -0.056839 0.039199 -0.021526 -0.034070 -0.060998 0.058490 0.100796 0.004302 0.018525 0.000025 0.021394 -0.127825 -0.056852 -0.019324 0.030362 -0.140817 0.028902 -0.018654 0.055987 0.000730 0.067697 0.106451 0.063801 -0.076285 0.047448 -0.016944 0.007134 -0.094812 0.211525 -0.000886 -0.024498 -0.091211 0.053531 -0.102882 0.007564 -0.009776 -0.105474 -0.056217 -0.023589 0.030647 -0.026976 -0.031387 0.041047 0.022292 0.006733 -0.077665 -0.041772 0.065614 0.074337 -0.061049 0.051052 -0.015766 -0.091118 0.137722 -0.056573 -0.118140 0.108945 0.047791 -0.042661 0.061573 0.058003 0.046300 0.002509 0.053053 0.083086 0.062902 -0.079540 0.039154 0.004360 0.027745 -0.078178 0.060172 0.001133 -0.015755 0.131457 0.074060 0.027954 -0.039616 0.008445 0.021477 -0.044109 0.037104 -0.025260 0.024293 -0.077439 -0.082879 -0.042162 0.054564 -0.069412 -0.011515 -0.093282 -0.038712 0.027261 -0.062848 -0.046614 0.010444 -0.017872 0.094805 -0.063040 0.017304 -0.044861 -0.000447 0.069993 -0.059067 0.086845 0.034768 -0.078949 -0.054744 -0.087115 -0.001799 0.017274 -0.128357 0.043994 0.050338 -0.048263 -0.047422 -0.056380 0.017280 0.009576 -0.052439 0.022976 0.044819 0.076699 -0.065515 0.033724 0.107214 0.127779 -0.041413 -0.016811 -0.053861 0.047039 -0.009427 0.000125 -0.073580 0.003156 -0.017200 0.046575 0.024529 -0.049904 0.061126 0.043966 0.032528 -0.058300 0.028170 0.039261 0.001125 -0.059572 0.026948 -0.008444 -0.103260 -0.034906 -0.026802 -0.011787 -0.059416 -0.094045 0.028521 0.036268 -0.012220 0.052047 -0.046346 -0.019288 0.018979 -0.029267 -0.020198 -0.038052 0.007341 0.009494 0.053243 0.074748 0.021099 0.089085 -0.056474 -0.008110 -0.068622 -0.031711 0.010460 0.037019 -0.035187 0.058233 0.013351 -0.005749 0.029765 -0.063091 -0.002423 0.084572 -0.075782 -0.016818 -0.017747 0.024146 0.082252 -0.044442 0.027773 0.028856 0.037386 0.077979 -0.046728 0.040034 0.000280 -0.046913 0.059369 0.032924 0.008454 0.030592 0.005222 -0.090008 -0.029133 0.115472 -0.003070 0.029366 0.043065 0.057867 -0.126722 0.068131 -0.006465 -0.059515 0.098339 0.051367 -0.014512 -0.052176 0.014005 -0.034477 -0.021565 -0.047297 -0.016211 -0.022984 -0.030459 0.035228 0.022431 0.027307 0.061643 -0.074475 0.021833 0.010264 -0.050081 -0.066322 -0.007238 0.054348 0.064114 -0.014231 0.037013 0.011384 -0.036610 -0.025159 0.060156 0.073417 -0.039684 -0.000303 -0.071612 -0.093465 0.009157 0.006729 -0.035517 -0.028993 -0.061551 0.012369 0.003809 -0.018197 -0.002364 0.014589 0.015272 0.022676 -0.070085 -0.162645 -0.011530 0.022104 -0.027820 0.034655 -0.021392 -0.052612 0.010175 -0.049039 0.086505 0.068062 -0.001468 0.001369 -0.061006 0.063620 -0.061289 0.035381 0.014489 -0.015487 -0.006472 0.036082 0.048792 -0.015250 -0.042435 0.029758 0.054265 -0.028848 0.012711 -0.021411 -0.067747 -0.039104 -0.033407 -0.011851 0.028725 -0.068342 -0.109832 0.044958 -0.081859 -0.055768 -0.008371 0.029642 -0.001446 -0.047625 0.018991 -0.004710 -0.029512 -0.035115 0.010654 0.062753 -0.001980 0.071088 0.033584 0.048006 0.080461 0.023876 -0.006998 0.042479 0.015506 -0.034759 0.135202 -0.010590 0.084816 -0.038469 0.040982 -0.051470 0.026401 0.051116 -0.079120 -0.047943 -0.034248 -0.001872 0.016942 0.070984 0.017681 -0.009319 0.024243 -0.008048 0.008336 -0.011548 -0.046619 -0.014722 0.126912 -0.002351 -0.025133 0.074366 0.020849 0.039149 -0.016897 -0.062256 -0.005606 -0.025046 0.036268 -0.031713 0.027308 0.041302 0.031968 0.023369 -0.087984 -0.095456 0.027423 0.018375 0.072149 0.001097 -0.106283 -0.010753 0.100341 0.021174 0.062940 0.039031 -0.102488 0.015108 -0.026442 -0.008906 0.028455 -0.065803 -0.009976 0.013317 0.007765 -0.067932 0.034207 0.104704 0.015655 0.003831 -0.031031 -0.004819 -0.031395 -0.031560 0.018032 -0.017123 -0.007070 0.051164 0.147971 0.066361 0.044598 0.089514 0.010886 -0.059630 0.025794 -0.035108 0.030586 -0.077834 0.145581 -0.007718 -0.014011 -0.114198 -0.064672 -0.007699 0.004110 -0.026888 -0.045119 -0.045173 0.029862 0.118879 -0.026497 -0.112139 0.094487 -0.022985 0.065075 0.001497 0.054042 0.060531 0.043906 -0.066372 0.042013 0.046806 -0.083000 -0.120896 -0.050441 -0.028691 0.015246 -0.048570 0.069750 0.012506 0.039436 0.041916 -0.093411 -0.144212 0.082055 -0.032534 -0.025237 -0.040095 -0.067519 0.013126 0.047499 -0.024684 0.018817 0.062536 0.019350 0.006334 -0.082482 0.012032 -0.064793 -0.013744 0.056497 -0.010743 -0.067657 -0.130022 0.065377 -0.010317 -0.027195 -0.028971 0.045724 -0.000139 0.120827 -0.075050 0.082301 -0.116416 0.016503 -0.042488 -0.015435 -0.053407 0.030308 -0.015961 0.001366 -0.040060 -0.064602 -0.147353 0.031439 -0.064310 -0.059657 -0.068833 -0.016988 0.047863 -0.033041 0.025358 -0.060632 0.084496 -0.147452 -0.096693 0.030373 0.069238 0.015748 -0.141300 -0.027541 -0.029558 0.030713 -0.060121 0.152363 -0.048930 -0.062640 0.029203 0.007652 -0.028544 -0.026828 0.001456 -0.075008 -0.044830 -0.075464 -0.035843 0.005322 -0.000749 0.000576 0.032621 0.028371 -0.036234 -0.035093 -0.019118 -0.034623 -0.001056 0.070450 -0.042244 -0.023106 -0.006127 0.087292 -0.039446 -0.018908 0.015996 -0.041743 -0.017237 0.041401 0.024972 -0.060568 0.027890 0.011171 -0.033664 0.092282 0.114552 -0.043222 -0.021301 0.061375 -0.050046 -0.037508 0.021791 0.015397 -0.026486 0.064492 -0.023365 -0.019712 -0.106091 -0.014963 0.066154 0.054415 -0.006580 -0.023481 -0.028803 -0.043834 -0.047212 0.065869 -0.073197 -0.106192 -0.110321 0.007296 0.002521 0.010830 -0.105065 -0.024332 0.038858 -0.107303 -0.081234 -0.019002 0.102581 0.059488 -0.076336 -0.038719 -0.036646 0.023356 -0.027123 0.004210 -0.034723 0.073480 -0.011759 -0.013507 0.009068 -0.048085 0.000861 0.011013 -0.099232 0.044178 -0.053020 0.043261 -0.018859 0.007478 -0.040978 0.022887 -0.043205 0.114931 0.016967 -0.003855 -0.002021 -0.096451 0.030818 -0.007497 -0.037941 -0.027844 0.010461 0.067287 -0.001617 -0.070306 -0.039348 0.049602 -0.039179 -0.032271 -0.069486 0.002225 0.052937 -0.091981 0.022494 -0.107400 0.051371 -0.007422 -0.026861 -0.018177 0.003473 -0.006663 -0.046085 0.020522 0.069444 0.035322 -0.018635 -0.034477 0.042662 -0.002074 0.000093 -0.023901 -0.050055 0.038398 0.040800 0.002505 -0.034538 -0.054485 -0.028684 0.045165 0.064111 0.010099 -0.005736 -0.025995 0.046213 -0.024222 0.048243 0.136566 -0.109149 0.056924 -0.046775 -0.032116 -0.078648 0.024165 -0.030588 0.000532 -0.065123 0.002197 0.054833 0.003932 -0.008404 -0.043227 0.060308 -0.046906 -0.001740 -0.012037 0.023152 0.077616 0.016554 -0.008879 -0.005122 -0.085927 0.029889 0.048877 0.030489 0.027580 0.029454 0.031495 0.011369 -0.018384 0.045312 0.035133 -0.017858 0.072731 -0.011937 -0.049946 -0.031148 0.061304 0.055633 0.015058 0.043128 -0.017090 -0.036235 -0.024975 0.063799 0.045649 -0.005160 -0.012535 -0.037718 0.030188 -0.032635 -0.023953 0.031877 0.048290 -0.018718 0.017997 -0.000897 0.053642 -0.089326 0.017601 -0.078314 0.051312 -0.001611 -0.014141 -0.049052 0.047033 -0.054032 -0.013284 -0.043462 -0.086283 0.022033 0.045970 0.006200 0.209245 -0.116765 0.033373 -0.026226 0.048620 -0.004016 0.023716 0.029575 -0.043014 -0.001990 0.031090 0.030745 0.032731 0.063826 0.046484 0.026598 0.051233 0.058414 -0.009667 -0.019794 -0.106794 -0.047763 -0.055727 -0.046937 -0.006137 0.019436 -0.008565 0.014036 0.015530 0.048676 0.083806 -0.041539 0.072427 -0.029759 -0.095758 -0.050771 -0.014540 0.050106 -0.036869 0.103558 0.046661 -0.018026 -0.061897 -0.020254 -0.064793 0.105548 0.017172 -0.030985 -0.009679 -0.004406 0.077615 0.009287 -0.006041 -0.031936 0.123821 0.064381 0.004218 0.059030 -0.037971 0.047642 0.057684 0.101154 -0.118433 -0.025972 -0.053915 0.018750 -0.001356 0.008428 0.128925 0.012247 0.045052 -0.015551 -0.009635 0.020700 -0.003259 0.053573 -0.017049 0.055214 -0.073398 0.036121 -0.004830 -0.058504 -0.013279 0.042137 0.037912 -0.078400 -0.001117 -0.062709 -0.006875 -0.029957 -0.010750 -0.119082 0.032533 -0.018984 0.049444 -0.015496 0.026145 0.013906 0.049562 -0.068659 0.000433 -0.035425 0.014673 -0.011992 0.052828 -0.006628 -0.013947 -0.110805 -0.050826 -0.006486 -0.021002 -0.005431 -0.016599 -0.013328 0.017261 -0.030789 0.000425 0.001469 0.035189 -0.085042 0.043072 -0.052969 -0.067249 0.016841 -0.012944 -0.009256 0.014147 0.004528 0.009674 -0.021024 0.076549 -0.013309 0.029406 0.081579 0.025165 -0.058900 -0.003919 0.104593 0.079372 0.012198 0.015887 -0.059577 0.066768 -0.026964 0.057727 0.093562 -0.010574 0.037304 -0.051573 0.016032 -0.057746 0.082810 0.070045 0.079411 -0.103584 0.034441 -0.026687 -0.009151 -0.005513 0.061028 -0.074679 -0.023256 0.008500 -0.021526 0.026522 0.029258 -0.008986 -0.015959 -0.024098 0.031338 0.042933 0.006656 0.005494 0.018098 -0.033854 0.011093 -0.015069 -0.081502 0.068913 -0.063286 0.083835 0.007519 -0.022778 0.048851 0.030886 0.039962 0.136500 0.028143 0.026423 0.017550 0.055866 -0.028476 -0.124768 0.015094 0.021536 -0.003179 -0.025605 -0.007229 0.039248 0.067889 -0.014104 -0.012365 -0.057806 0.054625 0.106617 0.003038 0.055103 0.136275 -0.030659 -0.115824 -0.032522 -0.058397 0.017219 -0.069684 -0.043937 -0.019864 0.044292 -0.085154 -0.006488 0.016960 -0.032240 -0.000618 0.023475 0.063079 -0.101737 -0.055925 -0.007321 -0.023074 -0.053695 -0.039682 0.021896 -0.008469 0.011568 0.060135 0.076059 0.004369 0.060461 0.056050 -0.066085 0.024279 -0.063261 0.021119 0.044486 -0.045344 0.016589 0.155882 0.059494 -0.019632 0.052807 -0.089638 -0.096819 -0.064002 -0.041779 0.007498 -0.003605 -0.012088 0.005079
32 -0.013038 0.004735 0.006593 -0.020221 -0.020077 -0.051967 -0.003979 -0.046974 -0.082394 -0.038572 -0.073577 0.024587 0.059773 -0.004095 -0.048823 0.051530 -0.022061 0.053559 -0.010641 -0.045205 0.007247 0.018208 0.037895 -0.037363 0.017836 -0.036556 0.002250 -0.016419 -0.035277 -0.000426 -0.012629 0.089801 0.063800 -0.010730 -0.043469 0.013456 0.110036 0.032092 -0.040829 -0.031718 -0.053023 0.035283 -0.025562 -0.035207 -0.053699 0.060377 0.095277 0.002037 0.017907 -0.002774 0.018266 -0.124381 -0.048524 -0.015779 0.036001 -0.126478 0.026447 -0.020162 0.049987 0.001054 0.057158 0.100679 0.057982 -0.075059 0.046896 -0.013431 0.012140 -0.088149 0.197301 -0.003118 -0.022244 -0.082525 0.057677 -0.092648 0.001723 -0.008027 -0.095607 -0.047621 -0.023752 0.025743 -0.029914 -0.021257 0.037687 0.021737 0.008411 -0.071784 -0.038939 0.060243 0.060174 -0.049341 0.045754 -0.011634 -0.080564 0.122413 -0.049541 -0.101962 0.098720 0.048451 -0.040728 0.056741 0.054363 0.040654 0.002368 0.048921 0.075887 0.057905 -0.073779 0.032124 0.006418 0.024923 -0.067975 0.048436 0.000806 -0.011775 0.117822 0.064536 0.031017 -0.040684 0.004547 0.021792 -0.039312 0.030562 -0.028499 0.023773 -0.072519 -0.075300 -0.035803 0.053191 -0.064884 -0.014397 -0.083079 -0.036564 0.027687 -0.056862 -0.045567 0.013794 -0.016741 0.095754 -0.058407 0.016786 -0.045816 -0.003474 0.067843 -0.059317 0.087030 0.031190 -0.078797 -0.052071 -0.085545 -0.004188 0.020115 -0.126927 0.043945 0.054504 -0.046358 -0.041447 -0.053223 0.014947 0.014630 -0.047201 0.017690 0.041218 0.074915 -0.060357 0.032024 0.097665 0.125976 -0.036767 -0.019925 -0.054299 0.041655 -0.010402 0.003551 -0.070099 0.003201 -0.017899 0.045547 0.020922 -0.048971 0.056683 0.044973 0.030823 -0.064995 0.029655 0.040432 -0.000959 -0.058041 0.025020 -0.007785 -0.101012 -0.037379 -0.021216 -0.015146 -0.062045 -0.092364 0.030983 0.035846 -0.013871 0.052093 -0.045280 -0.016089 0.028815 -0.023997 -0.014726 -0.033864 0.005896 0.012628 0.051344 0.073802 0.022158 0.084285 -0.059436 -0.003964 -0.068998 -0.032426 0.011259 0.033970 -0.038273 0.058800 0.016596 -0.003845 0.027155 -0.068818 -0.002345 0.088500 -0.072409 -0.016684 -0.006414 0.023076 0.082602 -0.045137 0.029304 0.033724 0.038915 0.077037 -0.048980 0.042346 -0.001480 -0.045306 0.060651 0.032741 0.011465 0.029967 0.010646 -0.089159 -0.031144 0.109432 -0.000232 0.033319 0.040720 0.055537 -0.123415 0.067727 -0.001330 -0.062892 0.096890 0.051679 -0.009252 -0.047356 0.015319 -0.037868 -0.017028 -0.044555 -0.018997 -0.024012 -0.030905 0.034884 0.015844 0.025384 0.051221 -0.071953 0.022133 0.008096 -0.048149 -0.064516 -0.005564 0.052581 0.055378 -0.008970 0.031978 0.010446 -0.042519 -0.023877 0.062126 0.075304 -0.037770 0.003351 -0.071697 -0.096300 0.012077 0.008343 -0.032835 -0.024314 -0.064094 0.015094 0.004027 -0.015569 -0.002034 0.015984 0.012825 0.021558 -0.070149 -0.153146 -0.008837 0.020341 -0.029622 0.032001 -0.017546 -0.049920 0.011306 -0.051083 0.082800 0.066009 -0.007690 0.005122 -0.052548 0.069349 -0.057297 0.033999 0.015322 -0.011211 -0.012890 0.029582 0.042944 -0.021585 -0.045919 0.030165 0.056523 -0.027718 0.012971 -0.022241 -0.062742 -0.034160 -0.031301 -0.013787 0.026951 -0.065080 -0.112849 0.044559 -0.081639 -0.053064 -0.008381 0.027839 -0.002275 -0.042539 0.017567 -0.001465 -0.029273 -0.042172 0.008063 0.067312 -0.001706 0.068294 0.032360 0.046497 0.072908 0.024687 -0.000770 0.039517 0.015561 -0.034099 0.132332 -0.016174 0.083237 -0.038372 0.041038 -0.044179 0.026178 0.047001 -0.076655 -0.050220 -0.035574 0.001253 0.018618 0.066227 0.021456 -0.010150 0.027516 -0.011244 0.002026 -0.008039 -0.045645 -0.009092 0.121335 -0.000626 -0.027093 0.069571 0.022508 0.042438 -0.017977 -0.062169 -0.014332 -0.028331 0.035476 -0.031859 0.028034 0.037898 0.037252 0.024324 -0.088873 -0.094083 0.019726 0.018013 0.072960 -0.003608 -0.096963 -0.007302 0.098165 0.020301 0.064717 0.036335 -0.102075 0.012409 -0.028762 -0.012853 0.031952 -0.064870 -0.014006 0.016051 0.008820 -0.065896 0.032375 0.100292 0.016998 0.005821 -0.029788 -0.006212 -0.035448 -0.028735 0.023842 -0.018130 -0.008195 0.054197 0.142063 0.064970 0.042005 0.079732 0.014152 -0.054417 0.029656 -0.028516 0.033740 -0.071319 0.138958 -0.010912 -0.017763 -0.113117 -0.058608 -0.010610 0.001721 -0.025304 -0.043714 -0.043928 0.029872 0.109812 -0.023933 -0.105010 0.092148 -0.017769 0.063893 0.008451 0.051756 0.057729 0.035165 -0.061617 0.044720 0.037511 -0.082555 -0.108745 -0.047276 -0.028223 0.017252 -0.047752 0.065795 0.012146 0.033617 0.041277 -0.091526 -0.146058 0.084106 -0.034367 -0.025067 -0.034388 -0.059618 0.014982 0.046025 -0.025216 0.020559 0.062514 0.017686 -0.000336 -0.077337 0.007267 -0.068316 -0.016985 0.058756 -0.013165 -0.063385 -0.124479 0.058018 -0.011669 -0.023417 -0.023195 0.038033 -0.001246 0.116643 -0.069711 0.073004 -0.108742 0.014646 -0.039909 -0.019913 -0.055494 0.035018 -0.016672 0.001646 -0.040030 -0.059673 -0.135056 0.029639 -0.056575 -0.054518 -0.062566 -0.022496 0.048464 -0.033440 0.023619 -0.052893 0.082737 -0.136945 -0.093755 0.029097 0.062854 0.017771 -0.130422 -0.024782 -0.027950 0.031496 -0.051911 0.147308 -0.048423 -0.065876 0.024387 0.002829 -0.022464 -0.027193 -0.007204 -0.071046 -0.043145 -0.070407 -0.029599 0.010105 -0.000518 0.004190 0.028724 0.031649 -0.030038 -0.031407 -0.020093 -0.030349 -0.002480 0.064617 -0.044530 -0.022653 -0.004337 0.085257 -0.034318 -0.019308 0.012729 -0.039252 -0.020892 0.037934 0.019517 -0.057642 0.030154 0.010337 -0.030540 0.084536 0.105591 -0.037352 -0.015194 0.058646 -0.052836 -0.031591 0.019883 0.015420 -0.027666 0.064821 -0.023241 -0.020437 -0.106129 -0.008183 0.061823 0.055699 -0.006914 -0.019301 -0.029170 -0.042778 -0.044200 0.069905 -0.074931 -0.100639 -0.110069 0.007339 -0.000402 0.015097 -0.105346 -0.027371 0.040800 -0.107133 -0.083369 -0.020588 0.099341 0.061363 -0.077675 -0.035730 -0.035930 0.025484 -0.017488 0.005343 -0.035558 0.070923 -0.010701 -0.009779 0.010839 -0.043640 -0.000354 0.012304 -0.098937 0.047010 -0.046824 0.043436 -0.017693 0.011139 -0.035363 0.019936 -0.038431 0.115729 0.015541 -0.000073 -0.002342 -0.094921 0.035065 -0.006023 -0.038536 -0.024516 0.010721 0.067946 -0.000618 -0.071232 -0.037786 0.048385 -0.042849 -0.035242 -0.066364 0.002585 0.050395 -0.093205 0.020100 -0.106559 0.050129 -0.003112 -0.028327 -0.015529 0.012527 -0.006663 -0.045280 0.021439 0.068645 0.030604 -0.017615 -0.035361 0.042582 0.002083 0.001810 -0.021012 -0.049731 0.037895 0.040280 0.007420 -0.034921 -0.047062 -0.031507 0.042093 0.064745 0.014666 -0.003887 -0.029062 0.042360 -0.019426 0.047440 0.137148 -0.107239 0.058089 -0.048464 -0.030958 -0.078451 0.021738 -0.026867 0.002068 -0.060231 0.008456 0.057042 -0.000495 -0.008395 -0.044791 0.055468 -0.036182 0.003106 -0.013467 0.022718 0.079654 0.019744 -0.005582 -0.006905 -0.081955 0.020862 0.049078 0.032844 0.030218 0.036598 0.024855 0.004829 -0.015738 0.044009 0.030080 -0.017008 0.069380 -0.016480 -0.048188 -0.027750 0.063927 0.057661 0.014405 0.045893 -0.024057 -0.039546 -0.029973 0.063258 0.042892 -0.006798 -0.014627 -0.036455 0.027229 -0.033092 -0.029356 0.028855 0.049099 -0.018721 0.023669 -0.001583 0.059478 -0.088380 0.015063 -0.078299 0.052730 -0.000693 -0.014661 -0.053066 0.051446 -0.044306 -0.014117 -0.037734 -0.068143 0.024631 0.048914 0.008602 0.214848 -0.117642 0.032889 -0.027706 0.045957 -0.003426 0.021719 0.027113 -0.042833 -0.004555 0.030053 0.035816 0.028587 0.059229 0.045726 0.026144 0.051129 0.056192 -0.012907 -0.012128 -0.102730 -0.046942 -0.053488 -0.042758 -0.009438 0.020233 -0.007916 0.015793 0.026022 0.043390 0.089995 -0.043555 0.068371 -0.029494 -0.095255 -0.048026 -0.018434 0.045908 -0.031608 0.098572 0.042724 -0.021529 -0.064812 -0.019642 -0.066077 0.101339 0.018862 -0.030084 -0.009088 -0.006055 0.070401 0.014148 -0.010490 -0.031243 0.123219 0.070307 0.012786 0.060304 -0.034618 0.046736 0.060916 0.099620 -0.118820 -0.026348 -0.049098 0.018147 -0.004251 0.007420 0.122463 0.009574 0.048668 -0.017294 -0.013053 0.015424 -0.008040 0.051868 -0.014669 0.051318 -0.073969 0.041967 -0.001122 -0.058566 -0.009424 0.042597 0.032407 -0.078744 0.000583 -0.056545 -0.003839 -0.028696 -0.007476 -0.123185 0.030786 -0.020873 0.050965 -0.015795 0.029287 0.011195 0.042327 -0.069911 -0.002774 -0.037209 0.019209 -0.007962 0.052492 -0.015936 -0.010368 -0.109908 -0.043668 -0.006461 -0.022717 -0.007021 -0.019044 -0.014882 0.018444 -0.030478 -0.004212 0.002847 0.037256 -0.085895 0.041895 -0.049141 -0.070006 0.016879 -0.010820 -0.004397 0.013718 0.005094 0.013742 -0.015889 0.075855 -0.013350 0.026342 0.083736 0.021155 -0.059065 -0.005555 0.103988 0.074623 0.011277 0.008980 -0.060151 0.064664 -0.020108 0.055680 0.089907 -0.009603 0.036668 -0.056102 0.020426 -0.055265 0.083936 0.065968 0.077170 -0.099028 0.030312 -0.029117 -0.007888 -0.005423 0.058301 -0.066128 -0.025719 0.009112 -0.022006 0.021987 0.026227 -0.007152 -0.020630 -0.022804 0.030209 0.047009 0.006162 0.006518 0.013245 -0.034001 0.012162 -0.016386 -0.082632 0.070971 -0.059567 0.076773 -0.001004 -0.022213 0.047401 0.027658 0.038357 0.131823 0.027003 0.032135 0.010036 0.053606 -0.024579 -0.121866 0.010131 0.020969 0.000631 -0.023962 -0.006372 0.042344 0.062592 -0.013669 -0.007424 -0.056392 0.046997 0.099837 0.004182 0.050816 0.131438 -0.031412 -0.105753 -0.025589 -0.057373 0.018941 -0.066235 -0.041386 -0.012797 0.035682 -0.077511 -0.007543 0.020367 -0.030757 -0.006922 0.024827 0.060526 -0.099117 -0.053519 -0.009022 -0.019800 -0.046231 -0.031073 0.015660 -0.012140 0.009325 0.054659 0.066762 0.007851 0.055632 0.053797 -0.063925 0.025782 -0.060085 0.019581 0.041267 -0.043363 0.015953 0.139744 0.056639 -0.017113 0.047133 -0.085137 -0.088510 -0.059868 -0.037219 0.005048 -0.006134 -0.015792 0.001131
24 -0.012478 0.005131 0.006170 -0.020658 -0.020819 -0.053718 -0.002977 -0.048227 -0.084945 -0.038742 -0.076612 0.024327 0.062327 -0.003057 -0.050756 0.052185 -0.023889 0.056645 -0.011771 -0.045866 0.006587 0.019528 0.040149 -0.037183 0.019521 -0.037407 0.002304 -0.017250 -0.035993 -0.001447 -0.013754 0.094957 0.066061 -0.011536 -0.044567 0.013686 0.114320 0.034106 -0.041518 -0.033840 -0.055185 0.036505 -0.027945 -0.036372 -0.054356 0.063603 0.098245 0.001946 0.018456 -0.002920 0.018046 -0.128878 -0.050031 -0.015949 0.039733 -0.129389 0.027359 -0.020885 0.051464 0.001589 0.057439 0.104974 0.060162 -0.078557 0.050057 -0.013541 0.013142 -0.090045 0.203477 -0.003665 -0.023726 -0.085632 0.060685 -0.095697 0.001095 -0.008106 -0.097840 -0.048038 -0.024854 0.025985 -0.032329 -0.019371 0.038926 0.022341 0.008259 -0.073147 -0.040265 0.062105 0.058833 -0.049028 0.045683 -0.010466 -0.082042 0.124704 -0.050223 -0.103705 0.099880 0.051351 -0.042248 0.057774 0.056646 0.040964 0.002184 0.050363 0.077404 0.058793 -0.076115 0.032156 0.007306 0.025578 -0.069605 0.048936 0.000855 -0.011407 0.120211 0.064672 0.032540 -0.043485 0.003791 0.022527 -0.040451 0.029695 -0.031697 0.025113 -0.076030 -0.078709 -0.036076 0.056099 -0.066302 -0.015909 -0.084859 -0.037814 0.030173 -0.058734 -0.047529 0.015553 -0.017217 0.100260 -0.059836 0.017964 -0.048125 -0.003923 0.070684 -0.062862 0.090774 0.032171 -0.081802 -0.053774 -0.088850 -0.005011 0.021007 -0.132388 0.045581 0.058829 -0.048161 -0.041690 -0.055898 0.014219 0.016404 -0.047592 0.017942 0.042748 0.077694 -0.062618 0.033410 0.099362 0.131718 -0.037785 -0.022195 -0.056505 0.042395 -0.011119 0.004502 -0.072731 0.003514 -0.018771 0.046525 0.021649 -0.050587 0.058625 0.046841 0.032414 -0.069653 0.031870 0.042869 -0.001055 -0.060737 0.026572 -0.007975 -0.104441 -0.039484 -0.021266 -0.017351 -0.065482 -0.096707 0.032002 0.037259 -0.014955 0.054840 -0.047624 -0.016349 0.031959 -0.024380 -0.014572 -0.034581 0.006545 0.013983 0.052580 0.077293 0.022790 0.087227 -0.062931 -0.003319 -0.072956 -0.033746 0.012083 0.034658 -0.040134 0.061964 0.017937 -0.004168 0.028484 -0.072850 -0.002681 0.094190 -0.075654 -0.017629 -0.004083 0.023525 0.086272 -0.047235 0.031196 0.037010 0.041079 0.079414 -0.051336 0.044258 -0.001937 -0.046970 0.062881 0.033577 0.013610 0.031859 0.011780 -0.092949 -0.032914 0.113096 -0.000273 0.035217 0.042343 0.058039 -0.128781 0.069926 0.000587 -0.066060 0.101528 0.053907 -0.008780 -0.049494 0.016316 -0.039684 -0.016672 -0.045548 -0.021021 -0.025854 -0.032868 0.037256 0.015695 0.026868 0.052148 -0.074500 0.023073 0.007954 -0.050374 -0.068354 -0.006010 0.054896 0.055269 -0.009160 0.032008 0.010465 -0.045257 -0.025003 0.065155 0.078584 -0.038995 0.004358 -0.074863 -0.101420 0.013703 0.009119 -0.034208 -0.023586 -0.067735 0.016308 0.004086 -0.015722 -0.001732 0.016795 0.013064 0.022072 -0.074155 -0.158849 -0.009153 0.020867 -0.031795 0.033421 -0.017668 -0.051399 0.011281 -0.054231 0.086079 0.068330 -0.009341 0.005917 -0.053425 0.073783 -0.059185 0.034770 0.016212 -0.010156 -0.014932 0.029351 0.043831 -0.023191 -0.049183 0.032368 0.059291 -0.028851 0.013619 -0.022473 -0.064873 -0.034928 -0.031155 -0.014688 0.028177 -0.067451 -0.118410 0.046850 -0.085923 -0.055257 -0.008213 0.029204 -0.002661 -0.043686 0.018968 -0.001611 -0.030437 -0.045195 0.008070 0.070810 -0.002082 0.070290 0.033424 0.048355 0.074518 0.026339 0.000056 0.041047 0.016420 -0.034712 0.138167 -0.017794 0.087635 -0.040194 0.042647 -0.045084 0.026852 0.048009 -0.079086 -0.053264 -0.037480 0.002402 0.019818 0.067513 0.023089 -0.011607 0.028727 -0.011758 0.001096 -0.008177 -0.047342 -0.007646 0.125102 -0.000399 -0.028828 0.071530 0.023591 0.044809 -0.019171 -0.065906 -0.016793 -0.030403 0.036870 -0.033665 0.029370 0.039571 0.039778 0.025426 -0.093694 -0.098851 0.019448 0.018331 0.076188 -0.005106 -0.100072 -0.006258 0.102014 0.020876 0.068271 0.036651 -0.106588 0.011992 -0.030565 -0.013563 0.033762 -0.067304 -0.015342 0.016928 0.009944 -0.069063 0.033700 0.103990 0.017591 0.007036 -0.031801 -0.007178 -0.038285 -0.030103 0.026356 -0.019170 -0.008405 0.057438 0.147482 0.067367 0.044315 0.081964 0.015287 -0.056063 0.031743 -0.028557 0.036796 -0.072745 0.143585 -0.011652 -0.019837 -0.118795 -0.059279 -0.011866 0.001557 -0.026107 -0.046316 -0.046743 0.031482 0.113128 -0.024733 -0.108108 0.096119 -0.017763 0.067491 0.009615 0.053779 0.060671 0.034868 -0.064103 0.047375 0.037502 -0.086619 -0.110962 -0.048269 -0.028911 0.018086 -0.049910 0.068505 0.012003 0.033748 0.043302 -0.095975 -0.154428 0.088858 -0.037292 -0.026955 -0.035102 -0.061157 0.015070 0.047280 -0.026346 0.022577 0.066554 0.017884 -0.001590 -0.080577 0.005840 -0.073159 -0.018269 0.061678 -0.014261 -0.066907 -0.130698 0.059622 -0.013018 -0.024211 -0.023563 0.039358 -0.001922 0.122033 -0.072246 0.075007 -0.112515 0.015870 -0.041502 -0.021776 -0.058784 0.037251 -0.017780 0.002043 -0.042321 -0.061713 -0.139409 0.030522 -0.058145 -0.056194 -0.064889 -0.024332 0.051388 -0.034717 0.024467 -0.054513 0.087895 -0.142808 -0.098726 0.030276 0.065573 0.018174 -0.135056 -0.025247 -0.029089 0.033451 -0.053203 0.154497 -0.051165 -0.069590 0.024800 0.002965 -0.021848 -0.029025 -0.008847 -0.072928 -0.045098 -0.072691 -0.030178 0.011348 0.000585 0.004777 0.029076 0.033850 -0.030239 -0.032590 -0.020853 -0.030438 -0.003695 0.066973 -0.046882 -0.023509 -0.003188 0.089230 -0.035362 -0.020119 0.011925 -0.040598 -0.023866 0.040136 0.019739 -0.060583 0.032277 0.011408 -0.031811 0.087585 0.110105 -0.038646 -0.015208 0.060795 -0.055968 -0.031759 0.021272 0.016355 -0.028965 0.067644 -0.024937 -0.022446 -0.112011 -0.007737 0.063704 0.058556 -0.006377 -0.018991 -0.030308 -0.043728 -0.046146 0.074138 -0.078787 -0.104491 -0.115655 0.007056 -0.001265 0.016467 -0.110322 -0.029894 0.042256 -0.113066 -0.087932 -0.021720 0.104043 0.065032 -0.081647 -0.037824 -0.037475 0.026719 -0.015860 0.005382 -0.037539 0.074476 -0.010548 -0.009103 0.010948 -0.044466 -0.000341 0.012801 -0.102542 0.049499 -0.048421 0.045249 -0.018281 0.011838 -0.035822 0.019025 -0.039261 0.121985 0.015467 0.001138 -0.002298 -0.099352 0.038432 -0.006697 -0.041024 -0.024067 0.011226 0.071106 -0.000807 -0.073611 -0.039503 0.050279 -0.045428 -0.036660 -0.068958 0.002812 0.052999 -0.097058 0.020174 -0.110931 0.052411 -0.002966 -0.029317 -0.015822 0.015047 -0.007369 -0.047298 0.022100 0.072462 0.031005 -0.018303 -0.038324 0.045204 0.002870 0.002999 -0.020886 -0.052188 0.039234 0.041888 0.009898 -0.036644 -0.047427 -0.033723 0.043958 0.068922 0.016531 -0.004474 -0.030782 0.043298 -0.019361 0.049132 0.144539 -0.111443 0.061286 -0.050975 -0.032655 -0.082184 0.022200 -0.026467 0.002534 -0.062160 0.010415 0.060485 -0.001109 -0.008844 -0.046178 0.056532 -0.036364 0.005220 -0.014833 0.022949 0.083134 0.020467 -0.004851 -0.007603 -0.084832 0.020111 0.051458 0.034338 0.032117 0.040302 0.024841 0.004353 -0.015840 0.045745 0.031144 -0.018798 0.072644 -0.018432 -0.050146 -0.028748 0.066988 0.060571 0.015353 0.049334 -0.026759 -0.042195 -0.032552 0.065367 0.044617 -0.006406 -0.014901 -0.038914 0.027156 -0.035039 -0.032002 0.029087 0.051530 -0.019024 0.025682 -0.001684 0.062634 -0.091799 0.014572 -0.082376 0.054593 0.000065 -0.015499 -0.055862 0.053951 -0.045183 -0.014862 -0.038803 -0.069833 0.027061 0.050713 0.009033 0.225084 -0.122437 0.034157 -0.029415 0.047629 -0.003466 0.021887 0.027399 -0.044406 -0.004913 0.030848 0.037845 0.029135 0.060583 0.047407 0.027405 0.053398 0.057316 -0.013765 -0.011115 -0.105327 -0.049065 -0.054806 -0.044421 -0.009556 0.020481 -0.007405 0.015673 0.029063 0.043988 0.094751 -0.045918 0.070060 -0.030740 -0.097986 -0.048326 -0.020415 0.047074 -0.031437 0.101047 0.043207 -0.023209 -0.067109 -0.021154 -0.069130 0.104730 0.020764 -0.030220 -0.008423 -0.006994 0.072179 0.015558 -0.011668 -0.033128 0.127079 0.074130 0.014761 0.062636 -0.036081 0.048163 0.064277 0.103437 -0.123273 -0.027492 -0.050744 0.019281 -0.005107 0.008268 0.126491 0.009402 0.051381 -0.018441 -0.013960 0.015158 -0.009633 0.053511 -0.014478 0.051465 -0.076727 0.044851 -0.000531 -0.061424 -0.009262 0.044209 0.033363 -0.082064 0.000978 -0.057674 -0.002819 -0.029422 -0.007231 -0.128761 0.031816 -0.021860 0.053234 -0.015952 0.030180 0.011335 0.042099 -0.072562 -0.003867 -0.038622 0.021954 -0.007548 0.055170 -0.018519 -0.010335 -0.113462 -0.043583 -0.007276 -0.024421 -0.007906 -0.020588 -0.016344 0.018980 -0.031859 -0.005775 0.003244 0.039111 -0.089109 0.042880 -0.051113 -0.073312 0.016830 -0.010621 -0.002501 0.014495 0.004798 0.014851 -0.015509 0.078166 -0.014488 0.025932 0.087510 0.020650 -0.061392 -0.006697 0.107551 0.075917 0.011248 0.008043 -0.063133 0.066008 -0.019920 0.058467 0.091963 -0.010428 0.037761 -0.059237 0.021581 -0.057066 0.086897 0.066539 0.078862 -0.102420 0.029992 -0.029970 -0.007052 -0.005378 0.060207 -0.067117 -0.026433 0.009047 -0.022193 0.021140 0.025971 -0.006525 -0.022264 -0.022615 0.030685 0.049591 0.006681 0.006848 0.013109 -0.036148 0.013315 -0.017179 -0.086273 0.073617 -0.060657 0.077589 -0.002885 -0.022426 0.049122 0.028610 0.039158 0.134808 0.027576 0.034204 0.008080 0.054548 -0.024227 -0.125829 0.009718 0.021891 0.001921 -0.023583 -0.007438 0.044313 0.062735 -0.013194 -0.005976 -0.058670 0.046974 0.101723 0.005099 0.051493 0.135160 -0.032736 -0.107001 -0.025271 -0.059059 0.020031 -0.067363 -0.042130 -0.011726 0.034558 -0.077439 -0.007933 0.021779 -0.031267 -0.008330 0.026742 0.061310 -0.100945 -0.054538 -0.009791 -0.019691 -0.046325 -0.030164 0.015002 -0.013927 0.008428 0.054477 0.067005 0.008896 0.055734 0.055064 -0.065157 0.027253 -0.060320 0.019414 0.042580 -0.043392 0.016855 0.139801 0.058389 -0.016869 0.048378 -0.086950 -0.089571 -0.061495 -0.037513 0.005237 -0.006854 -0.017188 -0.000059
9 -0.012361 0.004192 0.007319 -0.019864 -0.020086 -0.049439 -0.004162 -0.045721 -0.080342 -0.038716 -0.071154 0.025208 0.057236 -0.005341 -0.045513 0.049888 -0.020674 0.049748 -0.008906 -0.043682 0.007510 0.017027 0.034291 -0.035613 0.016663 -0.034541 0.000599 -0.013964 -0.034726 0.000268 -0.012394 0.083139 0.061013 -0.009716 -0.041973 0.013707 0.104797 0.030992 -0.039307 -0.029611 -0.050837 0.034438 -0.023343 -0.032191 -0.052563 0.056013 0.090377 0.003112 0.016948 -0.002282 0.017758 -0.117986 -0.047377 -0.016176 0.032534 -0.122118 0.025831 -0.018234 0.048828 0.001002 0.056483 0.096767 0.056063 -0.070872 0.043957 -0.013648 0.009381 -0.084308 0.188662 -0.001805 -0.022091 -0.080164 0.052317 -0.089346 0.002700 -0.008582 -0.091061 -0.046474 -0.021611 0.025294 -0.027240 -0.022174 0.036084 0.019724 0.007047 -0.068885 -0.037087 0.057154 0.059608 -0.048810 0.043674 -0.011808 -0.078186 0.118818 -0.048402 -0.099968 0.095136 0.045591 -0.038493 0.054005 0.051775 0.039964 0.001843 0.046635 0.072932 0.055310 -0.070141 0.031596 0.004919 0.023698 -0.066589 0.048546 0.001189 -0.012119 0.113228 0.062057 0.027246 -0.038443 0.005589 0.019970 -0.038681 0.030318 -0.027009 0.022698 -0.070079 -0.072798 -0.035966 0.050361 -0.061359 -0.013477 -0.080897 -0.034445 0.025780 -0.054737 -0.042222 0.013019 -0.015433 0.088933 -0.056487 0.016614 -0.042783 -0.002310 0.063995 -0.055591 0.081742 0.030350 -0.074001 -0.048709 -0.080235 -0.003628 0.017811 -0.119162 0.040966 0.050558 -0.044573 -0.039877 -0.050829 0.014571 0.012096 -0.045597 0.017701 0.039023 0.069666 -0.058316 0.030092 0.093545 0.118189 -0.035428 -0.017363 -0.050527 0.040654 -0.009319 0.002919 -0.065942 0.003129 -0.016789 0.042861 0.020597 -0.045978 0.054110 0.041821 0.029912 -0.059245 0.027024 0.037839 -0.000147 -0.055080 0.024132 -0.007581 -0.095044 -0.034404 -0.021187 -0.014216 -0.057879 -0.087292 0.027980 0.033702 -0.012157 0.049238 -0.043209 -0.015885 0.024976 -0.023982 -0.014601 -0.032877 0.005605 0.011595 0.048632 0.069632 0.020768 0.079630 -0.054668 -0.004434 -0.065044 -0.029493 0.010616 0.031934 -0.035451 0.054736 0.014349 -0.004513 0.026882 -0.063258 -0.003238 0.082385 -0.068573 -0.016663 -0.008344 0.021650 0.077794 -0.042218 0.027349 0.031220 0.036105 0.072372 -0.045478 0.038715 -0.001027 -0.042817 0.056468 0.030766 0.010105 0.029051 0.008140 -0.083857 -0.027927 0.104605 -0.001847 0.030311 0.038966 0.053570 -0.117220 0.063648 -0.002134 -0.057524 0.090985 0.047920 -0.010095 -0.045243 0.013836 -0.034474 -0.017902 -0.042058 -0.016645 -0.022353 -0.029578 0.032624 0.017426 0.025014 0.051524 -0.067945 0.020353 0.008610 -0.046270 -0.062158 -0.005949 0.049860 0.053992 -0.009994 0.030942 0.009621 -0.038021 -0.022227 0.058446 0.070254 -0.036111 0.002701 -0.067667 -0.089541 0.010528 0.006789 -0.031321 -0.023708 -0.059803 0.013590 0.003859 -0.015374 -0.001619 0.014141 0.012652 0.020296 -0.066525 -0.146222 -0.009230 0.019716 -0.027538 0.030752 -0.017420 -0.047224 0.010335 -0.048178 0.078696 0.062821 -0.006344 0.003821 -0.051253 0.064040 -0.055798 0.031755 0.013592 -0.011154 -0.010833 0.029126 0.042632 -0.018945 -0.043010 0.028401 0.052870 -0.026615 0.012550 -0.020385 -0.061413 -0.034186 -0.029775 -0.012143 0.026314 -0.061888 -0.105556 0.042296 -0.076588 -0.050712 -0.007392 0.026723 -0.001297 -0.041936 0.017013 -0.002663 -0.027837 -0.037469 0.008289 0.061821 -0.001202 0.064513 0.031122 0.043686 0.069899 0.022463 -0.002470 0.038392 0.015043 -0.032418 0.124879 -0.013082 0.079335 -0.036408 0.038499 -0.043219 0.023996 0.045561 -0.072118 -0.046865 -0.032591 0.000577 0.016597 0.062708 0.018732 -0.009303 0.024697 -0.010162 0.004063 -0.008609 -0.043457 -0.009780 0.115268 -0.001000 -0.025261 0.065883 0.019873 0.038588 -0.016997 -0.058644 -0.011262 -0.025902 0.033245 -0.030654 0.026314 0.036380 0.033373 0.022722 -0.083685 -0.089130 0.021033 0.017190 0.067963 -0.001788 -0.093879 -0.007547 0.092805 0.019308 0.060777 0.034982 -0.095908 0.012231 -0.026367 -0.010952 0.029018 -0.061100 -0.011936 0.014247 0.007877 -0.063320 0.030613 0.094562 0.015596 0.005498 -0.028073 -0.005377 -0.032321 -0.027720 0.020977 -0.016723 -0.006149 0.049898 0.134750 0.060710 0.041072 0.077636 0.011331 -0.052677 0.027150 -0.028328 0.030921 -0.068882 0.131811 -0.008624 -0.015908 -0.106624 -0.056128 -0.008994 0.002445 -0.023888 -0.041089 -0.042066 0.027782 0.105088 -0.023313 -0.100094 0.087374 -0.017494 0.060225 0.005753 0.048414 0.055292 0.035602 -0.058304 0.040635 0.037783 -0.076632 -0.104645 -0.044394 -0.025954 0.015713 -0.044158 0.061742 0.011565 0.033264 0.038464 -0.085766 -0.135841 0.077145 -0.031979 -0.024205 -0.033942 -0.058018 0.013859 0.043500 -0.023702 0.018413 0.058299 0.017120 0.000947 -0.074348 0.007173 -0.062688 -0.015515 0.053969 -0.010810 -0.061128 -0.117601 0.055460 -0.011276 -0.023694 -0.023801 0.037559 -0.000583 0.110382 -0.066856 0.070194 -0.103902 0.013849 -0.037468 -0.017078 -0.051583 0.031446 -0.014732 0.001846 -0.037736 -0.056732 -0.129046 0.027228 -0.054807 -0.052239 -0.059547 -0.019749 0.045577 -0.030387 0.022385 -0.051748 0.078317 -0.131548 -0.089311 0.027621 0.060186 0.015915 -0.125261 -0.024444 -0.026147 0.028770 -0.051295 0.139480 -0.045461 -0.060395 0.023467 0.003964 -0.022331 -0.025461 -0.003572 -0.067707 -0.041257 -0.067126 -0.028713 0.008807 -0.000371 0.002542 0.028633 0.028797 -0.029080 -0.030049 -0.017616 -0.029504 -0.002680 0.062099 -0.041114 -0.021657 -0.004579 0.080486 -0.033808 -0.018324 0.011877 -0.037385 -0.018863 0.036484 0.019831 -0.055182 0.027413 0.010159 -0.028860 0.080685 0.101488 -0.036498 -0.015902 0.055419 -0.048446 -0.030863 0.018752 0.014623 -0.025416 0.060440 -0.022155 -0.018835 -0.100175 -0.010119 0.058394 0.051323 -0.006238 -0.019004 -0.027333 -0.039464 -0.042167 0.064144 -0.069772 -0.095313 -0.102305 0.005929 0.000804 0.012728 -0.097287 -0.025261 0.037999 -0.100453 -0.077392 -0.019090 0.093597 0.056756 -0.072042 -0.034233 -0.033666 0.023674 -0.018685 0.005250 -0.032624 0.066815 -0.010285 -0.010493 0.009843 -0.041509 0.000030 0.010633 -0.092811 0.042903 -0.045965 0.039922 -0.016659 0.009049 -0.033626 0.019420 -0.037066 0.108375 0.014366 -0.000774 -0.001820 -0.089270 0.032318 -0.006783 -0.036057 -0.023101 0.009559 0.062757 -0.001014 -0.066271 -0.036624 0.045124 -0.039124 -0.032315 -0.062725 0.001706 0.047708 -0.086800 0.019163 -0.099396 0.046909 -0.004458 -0.025824 -0.015560 0.009585 -0.005960 -0.042197 0.019104 0.064724 0.029105 -0.016341 -0.032992 0.040255 0.000267 0.002043 -0.020040 -0.046070 0.034684 0.037325 0.005730 -0.031864 -0.045257 -0.029354 0.040547 0.061006 0.013431 -0.003676 -0.026101 0.040652 -0.020232 0.044848 0.128332 -0.100702 0.054390 -0.044497 -0.029916 -0.073921 0.021122 -0.025727 0.000722 -0.057541 0.006210 0.053024 0.001478 -0.008147 -0.041420 0.052877 -0.036181 0.002085 -0.012196 0.021398 0.073960 0.017938 -0.006081 -0.006168 -0.077336 0.021369 0.046109 0.029987 0.027056 0.031982 0.024712 0.006393 -0.015330 0.041636 0.029696 -0.016296 0.065895 -0.014699 -0.045061 -0.027151 0.059255 0.052892 0.013593 0.042486 -0.021400 -0.036630 -0.026748 0.059410 0.040913 -0.005397 -0.013527 -0.034104 0.025825 -0.030477 -0.026020 0.027536 0.045841 -0.018029 0.020701 -0.001376 0.054590 -0.082421 0.014276 -0.072780 0.048845 -0.001016 -0.013729 -0.048684 0.047175 -0.043752 -0.012984 -0.036653 -0.069048 0.022843 0.044877 0.007838 0.199988 -0.110064 0.031255 -0.025030 0.043550 -0.003217 0.020176 0.026477 -0.040188 -0.003751 0.028714 0.032359 0.028096 0.057225 0.043733 0.024877 0.048240 0.053011 -0.010845 -0.013396 -0.097608 -0.044909 -0.051039 -0.041799 -0.007814 0.018779 -0.007146 0.013829 0.021912 0.042403 0.082126 -0.040339 0.065458 -0.027990 -0.089436 -0.045245 -0.016463 0.044429 -0.030661 0.094664 0.041055 -0.019632 -0.060191 -0.018956 -0.061945 0.096036 0.017191 -0.028549 -0.007974 -0.004637 0.068324 0.012544 -0.008241 -0.029267 0.115556 0.064470 0.009489 0.056234 -0.034245 0.043936 0.056498 0.094430 -0.111468 -0.025272 -0.047670 0.017826 -0.003539 0.007619 0.117340 0.009688 0.044358 -0.016252 -0.011925 0.015539 -0.006387 0.049066 -0.014991 0.049535 -0.069691 0.038200 -0.002550 -0.054755 -0.009697 0.039661 0.032618 -0.074777 -0.000683 -0.054264 -0.003951 -0.027080 -0.007762 -0.114706 0.029403 -0.018923 0.047913 -0.014204 0.026791 0.011081 0.041541 -0.066068 -0.002158 -0.034376 0.017721 -0.008599 0.049788 -0.011795 -0.011227 -0.103861 -0.043699 -0.006252 -0.020670 -0.006509 -0.017844 -0.013706 0.016722 -0.028315 -0.002777 0.002486 0.034413 -0.080860 0.040067 -0.047833 -0.064960 0.015534 -0.010461 -0.005098 0.012487 0.005129 0.012027 -0.016509 0.071366 -0.012424 0.024944 0.078165 0.020522 -0.055884 -0.004804 0.097219 0.070872 0.010601 0.009816 -0.057070 0.061225 -0.020654 0.053598 0.085349 -0.009085 0.034548 -0.051613 0.018081 -0.053279 0.078815 0.063075 0.072627 -0.094591 0.030207 -0.025823 -0.007102 -0.005315 0.055507 -0.064620 -0.023115 0.007598 -0.020115 0.021646 0.025385 -0.006249 -0.017836 -0.021446 0.028897 0.043439 0.005514 0.005707 0.013857 -0.032456 0.011239 -0.015012 -0.077148 0.065439 -0.056891 0.073883 0.001353 -0.020496 0.044604 0.026371 0.037098 0.123861 0.025453 0.028639 0.010861 0.051282 -0.024280 -0.115399 0.011182 0.019809 -0.000153 -0.023136 -0.006535 0.037617 0.059465 -0.012990 -0.007604 -0.053721 0.046682 0.095264 0.004232 0.048429 0.124302 -0.029582 -0.101613 -0.026097 -0.053895 0.017556 -0.063100 -0.039216 -0.014291 0.035198 -0.073794 -0.006405 0.018480 -0.028883 -0.005551 0.023140 0.056791 -0.093309 -0.051330 -0.008821 -0.019607 -0.045404 -0.031984 0.016086 -0.010476 0.008783 0.052026 0.064892 0.006473 0.053109 0.050360 -0.060259 0.024899 -0.056926 0.018770 0.039333 -0.040086 0.015171 0.134558 0.054058 -0.016902 0.045709 -0.081173 -0.084740 -0.056825 -0.036148 0.005089 -0.005340 -0.013539 0.001643
14 -0.013011 0.004556 0.007975 -0.021679 -0.021188 -0.050327 -0.004569 -0.048237 -0.082493 -0.041151 -0.072384 0.026408 0.058708 -0.006927 -0.046038 0.051357 -0.020720 0.048949 -0.008925 -0.045686 0.008881 0.017017 0.033430 -0.037260 0.015872 -0.034448 -0.001497 -0.012586 -0.037060 0.001283 -0.013101 0.081480 0.061847 -0.008933 -0.042689 0.015326 0.106326 0.030462 -0.039813 -0.029007 -0.052413 0.034925 -0.022133 -0.032224 -0.054887 0.055071 0.091674 0.002959 0.017108 -0.000978 0.019246 -0.118368 -0.050453 -0.016526 0.030494 -0.126564 0.026198 -0.017930 0.049982 0.000376 0.059669 0.097183 0.057762 -0.071174 0.044134 -0.014277 0.008163 -0.085871 0.193119 -0.001699 -0.021660 -0.082641 0.050571 -0.092680 0.005272 -0.008402 -0.095147 -0.049537 -0.021597 0.027191 -0.026768 -0.025894 0.036804 0.020542 0.007171 -0.070697 -0.037965 0.059287 0.065157 -0.053270 0.045199 -0.013408 -0.081764 0.123674 -0.050637 -0.105210 0.098073 0.045403 -0.038812 0.055891 0.052367 0.041826 0.002617 0.048805 0.075476 0.057442 -0.072264 0.034152 0.004499 0.024708 -0.070418 0.052634 0.000768 -0.013100 0.118787 0.066087 0.027091 -0.038175 0.006219 0.019919 -0.040246 0.032512 -0.024808 0.022561 -0.071387 -0.075850 -0.037693 0.050936 -0.063810 -0.011675 -0.084389 -0.035794 0.026094 -0.056925 -0.043013 0.011216 -0.015941 0.088960 -0.057570 0.016552 -0.043107 -0.001920 0.065247 -0.056046 0.082151 0.031532 -0.074513 -0.050324 -0.081467 -0.002563 0.017150 -0.119577 0.041396 0.048539 -0.044480 -0.042084 -0.052322 0.015266 0.010318 -0.047674 0.020185 0.041407 0.071659 -0.060542 0.030434 0.097710 0.119821 -0.037376 -0.016912 -0.050947 0.042051 -0.009840 0.001376 -0.067406 0.003337 -0.016197 0.043634 0.021650 -0.046302 0.056530 0.041412 0.030300 -0.056503 0.026868 0.037145 0.000084 -0.055547 0.025249 -0.007863 -0.096605 -0.033851 -0.023537 -0.012517 -0.057328 -0.088051 0.027301 0.033610 -0.011802 0.049273 -0.042788 -0.016875 0.021572 -0.025976 -0.016689 -0.034783 0.006823 0.009725 0.049612 0.070161 0.020783 0.082012 -0.054391 -0.006575 -0.065282 -0.029765 0.010414 0.034154 -0.034373 0.055297 0.013665 -0.004932 0.027133 -0.062189 -0.002534 0.081056 -0.070561 -0.016029 -0.012828 0.022338 0.077902 -0.042282 0.026962 0.028827 0.035944 0.073449 -0.044536 0.038291 -0.000715 -0.043366 0.056466 0.030888 0.008741 0.028723 0.006711 -0.083793 -0.028122 0.107473 -0.001964 0.028816 0.040137 0.054621 -0.118713 0.063414 -0.004691 -0.056896 0.091840 0.048547 -0.012247 -0.047108 0.013362 -0.034032 -0.019027 -0.043611 -0.016358 -0.022450 -0.028476 0.033761 0.018966 0.024962 0.055050 -0.069359 0.020154 0.009017 -0.046323 -0.062026 -0.006727 0.050831 0.058066 -0.011725 0.033801 0.010049 -0.036011 -0.022866 0.057238 0.070022 -0.037214 0.000453 -0.067469 -0.088874 0.010504 0.006742 -0.032192 -0.025263 -0.059053 0.011956 0.003813 -0.016510 -0.002158 0.014228 0.014058 0.021042 -0.066377 -0.150354 -0.010589 0.020594 -0.026399 0.031723 -0.019128 -0.048252 0.009845 -0.047674 0.080550 0.063726 -0.003897 0.002004 -0.055060 0.062341 -0.057254 0.033177 0.013868 -0.012916 -0.008116 0.031937 0.044964 -0.016270 -0.041711 0.028376 0.052455 -0.027312 0.012245 -0.020165 -0.063238 -0.035583 -0.031126 -0.011941 0.026336 -0.063233 -0.104301 0.042909 -0.077960 -0.051325 -0.007599 0.027563 -0.001147 -0.043907 0.017231 -0.003823 -0.028158 -0.035609 0.009094 0.060424 -0.001974 0.066617 0.031252 0.044816 0.073446 0.022941 -0.004912 0.038863 0.014552 -0.032844 0.127078 -0.011983 0.079811 -0.035800 0.039389 -0.046433 0.025039 0.047538 -0.073524 -0.045822 -0.032459 -0.000743 0.016155 0.065206 0.017678 -0.009368 0.023771 -0.008875 0.005292 -0.009304 -0.043449 -0.012290 0.118177 -0.001922 -0.024257 0.068451 0.020452 0.037604 -0.016244 -0.058575 -0.008439 -0.024974 0.034476 -0.030033 0.025855 0.037992 0.031372 0.023166 -0.083882 -0.089893 0.023006 0.017563 0.067927 -0.000742 -0.097627 -0.009205 0.093725 0.019671 0.060422 0.035180 -0.096077 0.013304 -0.026311 -0.009379 0.027382 -0.062315 -0.010728 0.013395 0.008186 -0.064039 0.031635 0.097174 0.014896 0.004222 -0.029121 -0.004991 -0.030396 -0.028316 0.018712 -0.017099 -0.007070 0.049512 0.137671 0.061210 0.041846 0.081371 0.010737 -0.054231 0.025929 -0.031293 0.029947 -0.071552 0.135081 -0.008154 -0.014738 -0.107142 -0.059103 -0.008130 0.003356 -0.024680 -0.041703 -0.042149 0.028088 0.109272 -0.023797 -0.103122 0.087704 -0.019546 0.060841 0.003546 0.049929 0.056340 0.038582 -0.061406 0.040920 0.041273 -0.078188 -0.109516 -0.046730 -0.026972 0.015375 -0.044778 0.063796 0.011666 0.035087 0.039072 -0.087098 -0.135751 0.077589 -0.031237 -0.024072 -0.036005 -0.060600 0.013110 0.044674 -0.023679 0.017977 0.058449 0.017207 0.003830 -0.076381 0.009307 -0.062017 -0.014035 0.053735 -0.010310 -0.062272 -0.120119 0.058775 -0.010631 -0.025041 -0.025610 0.040410 -0.000134 0.111901 -0.068496 0.074507 -0.107182 0.014466 -0.038590 -0.016040 -0.050998 0.029764 -0.015374 0.001390 -0.037443 -0.059663 -0.134496 0.028497 -0.058090 -0.055073 -0.062493 -0.017885 0.045455 -0.031100 0.023405 -0.054950 0.079617 -0.135428 -0.090315 0.027997 0.063650 0.014751 -0.129729 -0.025132 -0.026832 0.029105 -0.053729 0.141304 -0.045241 -0.059137 0.025560 0.006043 -0.024494 -0.025028 -0.001241 -0.068939 -0.041926 -0.068926 -0.032130 0.006392 -0.000973 0.001219 0.029577 0.027951 -0.032000 -0.031553 -0.017774 -0.031150 -0.001485 0.063491 -0.040413 -0.021347 -0.004818 0.081472 -0.035157 -0.017895 0.013412 -0.037929 -0.017462 0.037324 0.021592 -0.056072 0.027230 0.010290 -0.030106 0.083219 0.104626 -0.038388 -0.018298 0.056868 -0.048166 -0.033337 0.019296 0.014090 -0.025417 0.060104 -0.021865 -0.019329 -0.099944 -0.012109 0.060864 0.051085 -0.005645 -0.020352 -0.026918 -0.040616 -0.042967 0.062367 -0.068545 -0.097581 -0.102688 0.006272 0.001660 0.011703 -0.097859 -0.024505 0.036658 -0.100586 -0.076926 -0.018720 0.094760 0.055676 -0.071980 -0.035585 -0.034095 0.022298 -0.022224 0.004055 -0.032832 0.067950 -0.010716 -0.011729 0.008777 -0.042989 0.000566 0.010030 -0.092395 0.042140 -0.047977 0.040150 -0.016839 0.008169 -0.036584 0.020054 -0.038927 0.108235 0.015819 -0.002503 -0.001433 -0.090000 0.031005 -0.006864 -0.035882 -0.025134 0.010010 0.063026 -0.002026 -0.065594 -0.036269 0.045114 -0.037602 -0.031591 -0.063733 0.002210 0.048419 -0.085903 0.020313 -0.099434 0.047124 -0.006010 -0.025343 -0.016299 0.006269 -0.006106 -0.042667 0.018835 0.065036 0.030975 -0.016745 -0.033295 0.039524 -0.000183 0.000978 -0.021498 -0.046991 0.034891 0.037885 0.004094 -0.032431 -0.048484 -0.028573 0.041251 0.060385 0.010880 -0.004798 -0.025432 0.042230 -0.021836 0.044857 0.128165 -0.100992 0.053774 -0.044505 -0.030291 -0.073472 0.022290 -0.026752 0.000971 -0.059241 0.003707 0.052415 0.002824 -0.007517 -0.041178 0.055234 -0.039678 0.000481 -0.012328 0.021805 0.073580 0.016541 -0.006838 -0.005831 -0.079188 0.024377 0.046354 0.029362 0.027286 0.030377 0.026859 0.008925 -0.016714 0.041329 0.031075 -0.016187 0.067426 -0.013075 -0.046595 -0.028414 0.058748 0.052252 0.013701 0.041442 -0.018283 -0.035129 -0.025570 0.058943 0.042105 -0.004676 -0.012771 -0.034455 0.027348 -0.031041 -0.024495 0.029296 0.045163 -0.017630 0.018307 -0.001050 0.052373 -0.083163 0.015155 -0.073303 0.048261 -0.000888 -0.013306 -0.047493 0.046012 -0.047547 -0.012824 -0.038421 -0.075550 0.021427 0.043638 0.006654 0.198285 -0.108913 0.031217 -0.024953 0.044619 -0.003507 0.021553 0.026616 -0.040365 -0.002261 0.028747 0.030471 0.029031 0.058561 0.043272 0.024781 0.047861 0.053563 -0.009704 -0.016321 -0.097962 -0.045143 -0.050938 -0.042415 -0.006674 0.018613 -0.007991 0.013600 0.017802 0.043940 0.079826 -0.039722 0.066191 -0.027892 -0.089177 -0.046311 -0.015066 0.045689 -0.033087 0.095191 0.042204 -0.018211 -0.058978 -0.019105 -0.060901 0.097181 0.017010 -0.028305 -0.008142 -0.004642 0.070602 0.010140 -0.006770 -0.029397 0.115736 0.061723 0.006886 0.055632 -0.034875 0.044306 0.055608 0.094406 -0.110935 -0.024319 -0.049218 0.016896 -0.002174 0.007963 0.118493 0.011084 0.043886 -0.015854 -0.010680 0.017512 -0.004348 0.049512 -0.015896 0.049869 -0.069150 0.035516 -0.003084 -0.054744 -0.010478 0.039288 0.033371 -0.074005 -0.000894 -0.056575 -0.005360 -0.027789 -0.009022 -0.112775 0.029629 -0.017959 0.047087 -0.014572 0.025742 0.012184 0.044421 -0.065391 -0.000683 -0.033360 0.015183 -0.009182 0.049658 -0.009379 -0.012211 -0.103105 -0.045232 -0.006476 -0.019823 -0.005183 -0.016420 -0.013673 0.016568 -0.028793 -0.001433 0.002156 0.033948 -0.080564 0.040062 -0.048869 -0.064121 0.015663 -0.011260 -0.006868 0.012463 0.004950 0.009816 -0.018085 0.070880 -0.012441 0.026271 0.077137 0.021622 -0.055441 -0.004678 0.096734 0.072764 0.011184 0.012706 -0.056220 0.061214 -0.023525 0.052934 0.085756 -0.009744 0.034898 -0.049641 0.016487 -0.053286 0.077924 0.063887 0.073759 -0.095192 0.031043 -0.025058 -0.008099 -0.004872 0.056525 -0.067208 -0.022005 0.007948 -0.020572 0.023255 0.026762 -0.007359 -0.016231 -0.022195 0.028853 0.041111 0.006373 0.005169 0.015297 -0.032223 0.010587 -0.015037 -0.076113 0.064454 -0.057939 0.075588 0.004589 -0.020519 0.045387 0.028103 0.037492 0.125612 0.026150 0.026688 0.014140 0.051072 -0.024957 -0.115357 0.013363 0.020351 -0.001492 -0.023736 -0.007010 0.036860 0.061513 -0.013372 -0.010015 -0.053456 0.049465 0.098004 0.003401 0.050825 0.125729 -0.028490 -0.105182 -0.028283 -0.053657 0.017017 -0.064333 -0.040248 -0.016332 0.039099 -0.076715 -0.005951 0.017083 -0.029865 -0.002874 0.022152 0.058044 -0.094552 -0.051748 -0.007927 -0.020746 -0.047514 -0.034469 0.018469 -0.008730 0.010277 0.053870 0.068365 0.005996 0.055388 0.051687 -0.061392 0.023350 -0.058025 0.019138 0.040876 -0.041749 0.015475 0.140421 0.054390 -0.017388 0.047781 -0.082450 -0.088268 -0.058286 -0.037267 0.006238 -0.004252 -0.012422 0.003971
